{"structure_edges": [[-1, 0, 1], [0, 1, 1], [1, 2, 1], [0, 3, 1], [3, 4, 1], [-1, 5, 1], [5, 6, 1], [6, 7, 1], [5, 8, 1], [8, 9, 1], [-1, 10, 1], [10, 11, 1], [11, 12, 1], [10, 13, 1], [13, 14, 1], [-1, 15, 1], [15, 16, 1], [16, 17, 1], [15, 18, 1], [18, 19, 1], [-1, 20, 1], [20, 21, 1], [21, 22, 1], [20, 23, 1], [23, 24, 1], [-1, 25, 1], [25, 26, 1], [26, 27, 1], [25, 28, 1], [28, 29, 1], [-1, 30, 1], [30, 31, 1], [31, 32, 1], [30, 33, 1], [33, 34, 1], [-1, 35, 1], [35, 36, 1], [36, 37, 1], [35, 38, 1], [38, 39, 1]], "structure_weights": {"mu": [-2.710022095382198, -1.3790920729999374, 0.10217626448480016, -1.1909276116115561, -1.3462104465467435, 0.0, 0.0, -0.053262880215454306, 0.1502025985066325, 1.9561553266225566, -0.9209630901737991, -1.065566304982894, 0.1425105516773226, 0.020552314229415867, 0.0, 0.0, -0.25151393470102457, 0.06182984683521575, -2.59922581309027, -0.4547468462185686, -1.151879133955662, -1.2736931315986755, -1.2479459258334487, 0.0, 0.0, -0.2256808457174151, -0.01047356132526879, -2.2405398586081224, -1.0592724694457507, -1.2008311156921576, -0.030789455858791642, -0.07215421365453503, 0.0, 0.0, -0.1272362860565493, 0.05167402263072185, -2.395854288132153, -0.6304857259244817, -1.0731702419058105, -1.2728553977904182, -1.37979696016504, 0.0, 0.0, 0.09783300119072702, -0.006851245225426527, -1.8029382917975991, -1.4673305128535803, 0.03217453413975199, -0.5953163765683478, -1.0953743018433828, 0.0, 0.0, 0.05495173138656281, 0.10517751022685703, -2.2748016174133268, -1.0494008270351372, -0.9575427155812034, -0.11913895880726691, -0.04171646283568182, 0.0, 0.0, 0.010610137261319194, -0.12332138330795017, -1.9179431778514269, -0.4997985950989322, -1.1699300346808763, -0.7426906726936443, -1.3506783220132428, 0.0, 0.0, 0.330676250517105, -0.05837293432386398, -1.3512908447233265, -0.8379731607670431, -1.066870212571642, 0.028241960337523297, -0.02874111547051556, 0.0, 0.0, 0.22778294677978897, 0.04764001671634636, -1.9525607189000893, -0.37207670436501716, -1.559044263386763, -0.5875015376246322, -1.4941177341415213, 0.0, 0.0, -0.015523924626935942, -0.1749721091213796, -1.3502512273985074, -1.128345758447453, 0.10682775126428405, -0.3560617657068866, -1.1518926791827968, 0.0, 0.0, -0.17093978463102308, -0.1028683976025525, -1.771119094123241, -0.8038932020649951, -0.7474962715707267, -0.04826338610389751, -0.07994708545330277, 0.0, 0.0, 0.07351797384139142, 0.07898378817711427, -1.109958947596794, -0.4750747921915002, -1.4299286937719093, 0.16350741235930275, -1.296116217243235, 0.0, 0.0, -0.056588470933631334, -0.02930885142626944, -0.7271189552568561, -1.0704337407124742, -1.1795284872355465, -0.14582178477042987, 0.017561219123418147, 0.0, 0.0, -0.18279835099470806, -0.350127013475362, -1.2179142745381337, -0.5712456658505255, -1.4704728522907975, -0.146734439961478, -1.1198498751547783, 0.0, 0.0, -0.038052675910020206, -0.14118340880769276, -0.5953864545954174, -1.1861278667767672, -0.08324534106803048, 0.4691159964913841, -1.2534225711146696, 0.0, 0.0, -0.3153843354285461, -0.04578517897412807, -1.1364234941190707, -0.9365290655378657, -0.9058437117586909, -0.04057321017570293, 0.17127398533299634, 0.0, 0.0, -0.14883116506031766, 0.2638899562553046, -0.7955192271370337, -0.5757621385452036, -1.2425675834306618, 0.4457432113951279, -1.2617500365008065, 0.0, 0.0, 0.033782202487589584, -0.08271925114002464, -0.024993263242675076, -1.0512640676779463, -1.12494695665635, -0.00964220839517978, 0.03183023192524699, 0.0, 0.0, 0.054789572092574436, -0.005728858397168682, -0.7633872794582133, -0.5317436893798294, -1.2751354686767957, 0.5721652215967085, -1.2709524593657051, 0.0, 0.0, 0.06933165340314737, 0.02563325456219672, 0.17787341637834486, -0.8420940840885767, 0.014251192306085023, 1.2473509811311156, -1.2730847997379995, 0.0, 0.0, -0.10690261216652767, -0.5252335951229303, -0.5287181095693995, -0.7179008918839754, -0.9107762736965985, -0.10412427062203994, 0.28808469897902406, 0.0, 0.0, -0.35813665696781877, -0.1830752263231297, -0.08327707372663451, -0.32359737555596046, -0.9933700035929979, 1.384781729889983, -1.2518183703305197, 0.0, 0.0, 0.33952131072363023, -0.16485786123032256, 0.42791898176348575, -0.8826082453348929, -1.1246733701966682, 0.00623580153747255, 0.23545448273522726, 0.0, 0.0, 0.008273376014809562, 0.13760746438172822, 0.324760249326566, -0.4798634023082557, -1.16188458154689, 1.2848986757893799, -1.2704373220565013, 0.0, 0.0, -0.12657971838684645, -0.3094838847343181, 0.6240273771425807, -1.689243402215541, -0.0582196269479688, 1.9207404540080482, -1.210417309369357, 0.0, 0.0, -0.010018121917853324, -0.23208864899968498, 0.10339412804917478, -0.9504412824123695, -1.1988502983282634, -0.2230316824833827, -0.05843290969635612, 0.0, 0.0, -0.07449947687559243, -0.023892183258757534, 0.5796231942890008, -0.5391006480113311, -1.0501147678189429, 2.0975315307418487, -1.2940271782770305, 0.0, 0.0, 0.206152472011089, 0.10605810578946906, 1.3644716532470846, -0.8121135090170578, -1.074906806199374, 0.12513742685934787, -0.0889541803659381, 0.0, 0.0, 0.07727127738047274, 0.19570889655256488, 0.5464792188357982, -0.6295685376280756, -1.120418646948806, 1.8250690917368095, -1.2781464494178916, 0.0, 0.0, -0.14083465450760072, -0.03458496779360536, 1.0705494901066028, -1.154025105846266, 0.2894325059184176, 2.5760847533998583, -1.374277676283257, 0.0, 0.0, -0.010101038154558754, 0.010711787791530357, 0.8539194035386358, -0.9568639506749566, -0.9639750630611743, 0.18977118740164256, -0.02285882010353514, 0.0, 0.0, -0.0012410148740221762, 0.04522468843679446, 1.1946985756240467, -0.6013475233891324, -1.039642200964152, 2.616329961677275, -1.1418255035341476, 0.0, 0.0, -0.040302680354261745, -0.2077669526106477, 1.7047337453260056, -0.9259482657711152, -0.9276262909379582, 0.05554744523704554, -0.039556950412886586, 0.0, 0.0, -0.09372606869808994, -0.05348879871058582, 1.6008263512482854, -0.564722266472997, -1.207652439706143, 2.578556511601333, -1.4406627692892597, 0.0, 0.0, -0.08338676927745771, -0.1404373225921736, 1.846275007175836, -1.3122440279512135, -0.10391745921174743, 3.1250000017772703, -1.358685257787613, 0.0, 0.0, 0.018676860786888887, -0.14298900658423674, 1.4106635900873954, -0.895096770956148, -1.09297572763412, -0.1750803446708729, -0.2719327931425084, 0.0, 0.0, -0.08992829884528218, -0.018058621037728706, 1.8544467497407473, -0.8224621839472462, -1.1323676482764944, -2.004243505717367, -1.2636711683861106, 0.0, 0.0, 0.05838710561646083, 0.2134917037424037, 2.2142488045979385, -0.9289905578995785, -1.2032711497856359, -0.05186302008835029, -0.19057076194670497, 0.0, 0.0, -0.16852842269055815, -0.08344799107726589, 1.8625177510895936, -0.8367453595685325, -0.970123999254269, -1.6635687386727394, -0.9152275893441543, 0.0, 0.0, -0.013680575143520396, -0.25844904021138715], "sigma": [0.12721964513280284, 0.03714218949594581, 0.17693561104518632, 0.03863977435266179, 0.013710466576908066, 0.1, 0.1, 0.011174625001294826, 0.18522292165489843, 0.11088495289213879, 0.03819915253750632, 0.13256697566050793, 0.4338034151492725, 0.06902832770816482, 0.1, 0.1, 0.20594835557557606, 0.4524138011947716, 0.1425731178241199, 0.14979609600186608, 0.1759682975913348, 0.12498558500848994, 0.19211635778464145, 0.1, 0.1, 0.459992737718078, 0.13832939762068197, 0.22932728105144637, 0.15956238892343666, 0.2096059706312209, 0.1737803508280328, 0.016042445814289295, 0.1, 0.1, 0.3399201180188024, 0.19698420809422776, 0.5614220427594641, 0.10792603014230531, 0.08604579956576047, 0.16625347584950106, 0.3317668151374135, 0.1, 0.1, 0.11327196568992855, 0.2493082791865381, 0.04409689411134502, 0.0909039550961284, 0.09516949616111293, 0.22629202142419416, 0.020536910184766055, 0.1, 0.1, 0.1671212340642307, 0.04527882923632135, 0.10516312369358068, 0.017120667267219287, 0.30998346303350405, 0.5510956532899624, 0.11931986288189574, 0.1, 0.1, 0.3419669462212627, 0.1535139137304278, 0.027659915300028766, 0.06331336316466951, 0.23984155690488212, 0.2017027590517262, 0.1467819682038838, 0.1, 0.1, 0.2295968668561483, 0.1694317270896164, 0.046186973326763456, 0.07790580091491003, 0.14160797111709103, 0.08726946232502318, 0.038694727761591205, 0.1, 0.1, 0.31269777485558276, 0.1521337976033135, 0.4746612135718952, 0.21737078285585218, 0.17703891299048305, 0.058722440342629495, 0.28943132242860403, 0.1, 0.1, 0.05886180583808317, 0.31664912270714707, 0.060379042777860145, 0.07230225210435587, 0.01237663355163934, 0.13971115852627797, 0.01, 0.1, 0.1, 0.28719939666631294, 0.03388903569059209, 0.14052765307325296, 0.01, 0.08534515425357167, 0.37355795380474455, 0.07843648226262097, 0.1, 0.1, 0.18378310010858917, 0.2424219521678586, 0.15763442059602384, 0.04688794097017547, 0.2548507225876013, 0.33565069974401257, 0.14479513339693198, 0.1, 0.1, 0.33256235177923293, 0.41014163525724534, 0.016954632100218154, 0.11346815127870556, 0.01311790391098741, 0.2178291824655204, 0.07493273261464085, 0.1, 0.1, 0.4168551120991529, 0.14742140621547156, 0.2416456065861141, 0.1248077053664127, 0.2560498236466584, 0.604507704303627, 0.17280152103689794, 0.1, 0.1, 0.015292052308303246, 0.24470492401535685, 0.037912921162097366, 0.036442001517319696, 0.24273486968759667, 0.048997655156912824, 0.02561014607771027, 0.1, 0.1, 0.17415819702669877, 0.13657883598110923, 0.17217787469377407, 0.18960092508571574, 0.09843197245746065, 0.21928765698225972, 0.1712189059431567, 0.1, 0.1, 0.3706425444698046, 0.21047100371123423, 0.3172706471735777, 0.150779566620591, 0.11062187197851747, 0.28062730830425886, 0.39060673407543356, 0.1, 0.1, 0.06109584631230286, 0.23419175612949955, 0.10424269745928211, 0.12919083662407976, 0.08791436483113907, 0.01, 0.11767510044225775, 0.1, 0.1, 0.4452681736987056, 0.22326534393811207, 0.3143410915857506, 0.2441727296641511, 0.07773832894576786, 0.021549438627224783, 0.2839116328185581, 0.1, 0.1, 0.09053319578530117, 0.29932184606637896, 0.06377516150495964, 0.11001114288639967, 0.013856191552475446, 0.11798068775647076, 0.10452772863201412, 0.1, 0.1, 0.09700597502553883, 0.14988162917747747, 0.2059556249706177, 0.0513231235038484, 0.16901150598924589, 0.3926796685777394, 0.07802802015577318, 0.1, 0.1, 0.32960449264740677, 0.10052560187523975, 0.030127684722308094, 0.01639853886875279, 0.18208770540143301, 0.10862704540865814, 0.01, 0.1, 0.1, 0.18619208764588543, 0.20171470736189284, 0.2227078213793768, 0.2320659563338644, 0.13570353007374503, 0.45593679383194724, 0.22703169688387598, 0.1, 0.1, 0.01, 0.24146349219348184, 0.3246976163025213, 0.17845647169619513, 0.039078446658875214, 0.4468107820209095, 0.14978139098129908, 0.1, 0.1, 0.12421713038476467, 0.23492425203709852, 0.05895905491507559, 0.14937348923237984, 0.14384245349268954, 0.16693973984877117, 0.14182239029025667, 0.1, 0.1, 0.28314624602803073, 0.12669509870707402, 0.2309846614246941, 0.2514250655208952, 0.39068301404979117, 0.4562620086217903, 0.13638169113851872, 0.1, 0.1, 0.19537104926069937, 0.2273680309539192, 0.11664278065020124, 0.046991868796002666, 0.04110455473059219, 0.2746022683376123, 0.3430435684851149, 0.1, 0.1, 0.17503117302761945, 0.19263317407996844, 0.19198367726180054, 0.057345693556914344, 0.050942245532319366, 0.5913080092288964, 0.3569416589380935, 0.1, 0.1, 0.3987470207611553, 0.4725488556340406, 0.4713621756543523, 0.039779961538120176, 0.5746789406639913, 0.13082536335667727, 0.0392523147553182, 0.1, 0.1, 0.07625588242764908, 0.40252316393946225, 0.01, 0.030266903234043307, 0.21719223507233135, 0.020487468549611778, 0.0643170458360501, 0.1, 0.1, 0.29865939188140317, 0.039759027689015534, 0.07162855984729674, 0.18158240501251416, 0.17144819225860164, 0.2552598005367413, 0.3138676324369344, 0.1, 0.1, 0.44459336813916556, 0.2595245799742227, 0.17033377201164918, 0.3678902572361749, 0.12901321676940936, 0.2828580604568999, 0.20707973731243162, 0.1, 0.1, 0.4205733607694583, 0.4822751384352761, 0.03704998518455476, 0.01, 0.08201297335061422, 0.14440993434078708, 0.03187514691327695, 0.1, 0.1, 0.12372747139790011, 0.40992309044285435, 0.07446904026445401, 0.08338164531555714, 0.18159992818618736, 0.018331687597171527, 0.08848981561105278, 0.1, 0.1, 0.3095469728319233, 0.3491122796506067, 0.02430997556725663, 0.06366897327233517, 0.04683246588721707, 0.09999998751045334, 0.01, 0.1, 0.1, 0.08047625178902673, 0.08860186487230601, 0.16182429297448322, 0.06771703628537724, 0.12028812586130128, 0.2617889922524069, 0.09850740709582047, 0.1, 0.1, 0.2616933725882844, 0.04596527812673602, 0.08321730256795436, 0.42039323666832346, 0.6812132379096497, 0.3866127593343199, 0.059178651057741616, 0.1, 0.1, 0.18068875153159528, 0.2555422884827775, 0.060234411412710034, 0.1404887641759921, 0.038216036712178394, 0.5079759913197736, 0.1362672766119421, 0.1, 0.1, 0.14273151781963608, 0.2797640017035008, 0.02121889621623775, 0.1493532625290973, 0.19227228064485755, 0.11919127148534617, 0.11636956547383434, 0.1, 0.1, 0.015430511010286845, 0.2923312493481316]}, "policy_weights": [-0.18027663230895996, 0.1448173075914383, 0.05805247649550438, -0.0634918287396431, 0.10522577166557312, 0.09142950922250748, -0.19178350269794464, -0.09003520756959915, 0.06806641817092896, -0.15951573848724365, 0.12819184362888336, -0.019483597949147224, 0.02954229898750782, 0.529751718044281, -0.13240587711334229, -0.10862969607114792, 0.05834059789776802, 0.10731182247400284, -0.03815626725554466, 0.05933183804154396, -0.25110357999801636, 0.2446831613779068, -0.030955610796809196, -0.1203768327832222, 0.10700968652963638, 0.09328401833772659, 0.040192846208810806, -0.013282583095133305, 0.0437958650290966, -0.38003215193748474, -0.06461197882890701, -0.11073911935091019, 0.06045660004019737, 0.29163309931755066, -0.03881830349564552, 0.016745714470744133, -0.4189525544643402, 0.08010148257017136, 0.11859167367219925, 0.10275708884000778, -0.19976039230823517, 0.2164350301027298, -0.04447931423783302, 0.191345676779747, -0.00499371811747551, -0.02626930922269821, 0.06162482127547264, 0.021996332332491875, -0.05467863753437996, -0.22812189161777496, -0.10433709621429443, -0.16433288156986237, -0.10360273718833923, 0.177237868309021, -0.09513788670301437, -0.10158050805330276, 0.016870958730578423, 0.36070212721824646, -0.13408111035823822, 0.2974705398082733, -0.14560721814632416, -0.03548479080200195, 0.08934693783521652, 0.01698140986263752, -0.02554883249104023, 0.18254218995571136, -0.026384184136986732, -0.10694969445466995, -0.09478604048490524, 0.09762529283761978, -0.11724983900785446, 0.10914360731840134, 0.24904559552669525, 0.2309541553258896, 0.1542438268661499, 0.08498173207044601, 0.24547763168811798, 0.18055538833141327, -0.10760844498872757, -0.014258130453526974, 0.07221536338329315, 0.6134762763977051, 0.1526871770620346, 0.19958949089050293, 0.02368396706879139, -0.22975830733776093, 0.006775724235922098, 0.0023360515478998423, -0.13973206281661987, 0.10781485587358475, -0.006377922836691141, 0.027719048783183098, -0.014444309286773205, -0.18035079538822174, -0.18065454065799713, -0.022485537454485893, 0.09407603740692139, 0.07948089390993118, 0.06256705522537231, 0.14977861940860748, -0.10588771104812622, -0.04222245514392853, -0.027382967993617058, -0.02285526879131794, 0.06633226573467255, -0.22482623159885406, 0.18500502407550812, 0.118880994617939, 0.1058053970336914, -0.023159408941864967, -0.14777874946594238, -0.1292640119791031, 0.0948493480682373, 0.2720038890838623, -0.08996463567018509, 0.005764565896242857, -0.16947560012340546, 0.03997847065329552, -0.10028258711099625, -0.286284476518631, -0.05060895159840584, 0.2591874897480011, 0.0034182220697402954, 0.029136834666132927, 0.077625572681427, -0.605082631111145, 0.14845381677150726, 0.05909186601638794, -0.33200863003730774, -0.251824289560318, -0.031691160053014755, 0.022662339732050896, -0.0293781328946352, -0.0337185375392437, 0.14380909502506256, 0.06199752911925316, 0.1798296421766281, 0.04829022288322449, 0.23255445063114166, -0.08079826086759567, -0.2452114075422287, 0.020302841439843178, -0.18116413056850433, 0.09383951872587204, -0.13139227032661438, 0.19501203298568726, -0.15042604506015778, 0.261264830827713, -0.013645636849105358, 0.09534400701522827, -0.062460724264383316, 0.07014299184083939, 0.1514335423707962, 0.23712116479873657, -0.03772559389472008, 0.20818136632442474, -0.28475335240364075, -0.07503079622983932, 0.12996865808963776, 0.0459788478910923, -0.07299213111400604, 0.014708786271512508, 0.008309566415846348, 0.03109830804169178, 0.17659799754619598, -0.03901555761694908, 0.015675891190767288, 0.1448422223329544, -0.2995111644268036, 0.6510408520698547, 0.0004813064879272133, -0.02256416529417038, -0.08477294445037842, 0.03412678465247154, -0.02496844343841076, 0.011278935708105564, -0.026031149551272392, 0.13564585149288177, 0.174666628241539, 0.008013538084924221, -0.3493382930755615, -0.052984077483415604, -0.037881676107645035, -0.15607737004756927, 0.13928990066051483, 0.10212243348360062, 0.03658634424209595, 0.2849583625793457, 0.22636525332927704, -0.01825711317360401, 0.21182791888713837, 0.049192119389772415, -0.0013956754701212049, 0.12470114976167679, -0.029358265921473503, -0.12685592472553253, -0.5132681131362915, 0.03301742672920227, 0.02126323990523815, 0.03171982988715172, -0.1893022209405899, 0.16665004193782806, -0.28902626037597656, -0.011824775487184525, 0.11175232380628586, 0.24904845654964447, 0.08773719519376755, -0.2839812934398651, 0.3702186346054077, 0.045785222202539444, -0.03020551986992359, -0.14364387094974518, 0.16683734953403473, 0.01982090063393116, -0.12032925337553024, -0.16004447638988495, 0.1386968493461609, 0.04216933622956276, 0.07655036449432373, 0.017084460705518723, -0.0911068320274353, -0.13380597531795502, 0.0013675278751179576, 0.08357996493577957, -0.5241103768348694, -0.03860434889793396, -0.03648906946182251, 0.2725781202316284, 0.3017488420009613, -0.060603026300668716, -0.20988829433918, 0.10336127877235413, 0.015621147118508816, 0.05730437859892845, -0.10301323980093002, 0.10338547080755234, 0.16325365006923676, 0.07570724934339523, 0.13096167147159576, 0.07710055261850357, 0.19815558195114136, 0.04797518625855446, -0.13508011400699615, -0.13366661965847015, 0.03804492577910423, 0.1485593467950821, 0.06986480206251144, 0.03242156282067299, 0.30351951718330383, 0.05680340901017189, -0.059966620057821274, -0.20712192356586456, -0.20775048434734344, 0.10190462321043015, -0.17316104471683502, -0.1905503123998642, 0.18600767850875854, -0.1290234476327896, 0.20651642978191376, 0.020148005336523056, -0.007995473220944405, -0.062305692583322525, -0.03615868464112282, 0.10771916061639786, 0.08812855929136276, -0.15397417545318604, 0.17254091799259186, 0.13045166432857513, -0.2176228165626526, -0.007599123287945986, 0.08069104701280594, 0.061409842222929, 0.15595491230487823, -0.07157932966947556, -0.15462161600589752, -0.10830580443143845, 0.1781347244977951, 0.0648161843419075, -0.1672760397195816, -0.34138354659080505, -0.34956178069114685, 0.0569380484521389, 0.14269673824310303, 0.2403298020362854, -0.1003647968173027, -0.08749978989362717, 0.08953201025724411, -0.10159172862768173, 0.23274053633213043, 0.10980892926454544, -0.004954793024808168, 0.05664672330021858, -0.0122561389580369, 0.08048183470964432, -0.12212289124727249, 0.24410153925418854, 0.2511318325996399, 0.14026273787021637, -0.08287274837493896, -0.11745297163724899, -0.24307501316070557, -0.12862063944339752, 0.19579267501831055, 0.20690886676311493, 0.3969164192676544, -0.06780188530683517, -0.0036287906114012003, -0.21480517089366913, -0.2877712547779083, -0.04464277997612953, -0.06829798966646194, -0.037529293447732925, -0.05629856884479523, -0.0022217032965272665, 0.17209364473819733, -0.08491738885641098, 0.05386801436543465, -0.07824968546628952, 0.06344520300626755, -0.04611877724528313, -0.21943606436252594, -0.006040140986442566, -0.03590526804327965, -0.04838518798351288, 0.3884812295436859, 0.05940217152237892, 0.024752290919423103, 0.09227561950683594, 0.42779624462127686, 0.03352498635649681, 0.0686570480465889, -0.07931327074766159, 0.2097633332014084, -0.4997831881046295, 0.2585102617740631, 0.4044699966907501, -0.002907710149884224, 0.2815397083759308, 0.059733644127845764, -0.09742879867553711, 0.12579520046710968, 0.2083970159292221, 0.16857169568538666, 0.34679314494132996, 0.016813727095723152, 0.08479040116071701, 0.012841231189668179, 0.05688104405999184, 0.012582509778439999, -0.04512685164809227, 0.11402402073144913, -0.028955956920981407, -0.029726387932896614, -0.13126517832279205, 0.17620055377483368, -0.2408636063337326, -0.09624820202589035, -0.05046403780579567, -0.05191338062286377, -0.1934974640607834, -0.038549717515707016, -0.028932927176356316, -0.009980612434446812, -0.09998899698257446, -0.010973350144922733, -0.10675667971372604, 0.12182879447937012, -0.08788153529167175, 0.14299844205379486, -0.03581094741821289, 0.13948370516300201, 0.20437206327915192, -0.015614359639585018, -0.1687157303094864, 0.21620725095272064, -0.3641848862171173, 0.1654428392648697, 0.08020252734422684, -0.172354057431221, 0.2376757264137268, -0.031084148213267326, 0.153963103890419, 0.10842243582010269, 0.009016443975269794, 0.10246872156858444, -0.07912873476743698, 0.036937810480594635, 0.17215979099273682, 0.017251087352633476, 0.025561748072504997, -0.09044884890317917, 0.1880059391260147, -0.10720368474721909, 0.017938656732439995, -0.005833457689732313, -0.0003413332160562277, 0.045984651893377304, -0.020863233134150505, -0.28558993339538574, 0.07265996187925339, -0.16510523855686188, 0.16559936106204987, 0.04598936811089516, -0.11436542868614197, -0.03706153854727745, 0.11501406878232956, -0.1565893143415451, -0.17181654274463654, 0.12695811688899994, 0.09398538619279861, -0.009957384318113327, -0.21925503015518188, 0.0133237699046731, 0.012602568604052067, -0.18119968473911285, 0.2513372600078583, -0.10031187534332275, 0.12958289682865143, -0.14435437321662903, -0.27791061997413635, 0.20482562482357025, 0.11752044409513474, 0.060893092304468155, -0.10740254074335098, 0.06727360934019089, 0.14184798300266266, 0.40207982063293457, 0.004250992555171251, 0.015542627312242985, 0.09734988957643509, 0.10126251727342606, 0.020511316135525703, -0.0419161356985569, 0.04514667019248009, 0.3460030257701874, -0.044364701956510544, -0.06878561526536942, 0.0887606218457222, 0.0367119237780571, -0.3313623070716858, -0.09937810152769089, 0.004320953506976366, -0.2287030816078186, 0.12754707038402557, 0.017777161672711372, -0.038254234939813614, 0.1448899358510971, -0.03074578009545803, 0.025272248312830925, 0.171981081366539, -0.4843693673610687, -0.7424058318138123, -0.1187823936343193, 0.045436445623636246, 0.03767705336213112, -0.0801820382475853, 0.0117094861343503, 0.23386286199092865, 0.05371939763426781, 0.34490513801574707, 0.19929610192775726, 0.13291741907596588, -0.10973861813545227, 0.7171127796173096, 0.08290653675794601, 0.12635459005832672, -0.03189436346292496, 0.14769518375396729, -0.04887252673506737, 0.0056692552752792835, -0.12558865547180176, -0.04472622647881508, 0.07524090260267258, -0.2016913741827011, -0.059131037443876266, 0.17950427532196045, 0.07742507010698318, -0.18681226670742035, -0.20200560986995697, 0.08010152727365494, 0.0036581752356141806, 0.030615657567977905, -0.24302977323532104, -0.06309481710195541, -0.0636143609881401, -0.027960987761616707, -0.009214015677571297, 0.1690080612897873, 0.1437472105026245, 0.07168949395418167, -0.08484504371881485, 0.035772159695625305, 0.17767180502414703, -0.04369330033659935, 0.28842440247535706, -0.22089733183383942, -0.07907574623823166, 0.06442809849977493, -0.022207127884030342, 0.0884656235575676, -0.13494490087032318, -0.04952118173241615, 0.08471065759658813, 0.016731401905417442, 0.16723786294460297, -0.1601739227771759, -0.2765102684497833, -0.14309345185756683, -0.15667171776294708, 0.40248003602027893, 0.35795924067497253, -0.20826935768127441, -0.20906846225261688, 0.1180616021156311, -0.44751742482185364, 0.05482916161417961, -0.06012433394789696, 0.0401073582470417, 0.14313818514347076, 0.1451519876718521, -0.1707637459039688, -0.09840721637010574, -0.16474024951457977, -0.10533154755830765, -0.17089533805847168, -0.2058059722185135, -0.13829661905765533, 0.045270297676324844, 0.02617262862622738, -0.19412223994731903, -0.2655496597290039, -0.07258342951536179, -0.08338392525911331, 0.027225809171795845, -0.2953668534755707, -0.007636077236384153, 0.10776162892580032, -0.3538706600666046, -0.8130661845207214, 0.054314617067575455, 0.022094158455729485, 0.17525948584079742, 0.0847964882850647, 0.14482034742832184, 0.15382669866085052, -0.13506412506103516, -0.6252985596656799, 0.09311322122812271, -0.08906757086515427, 0.13651569187641144, -0.08295327425003052, 0.10973752290010452, 0.08496075868606567, 0.15139514207839966, -0.16966934502124786, -0.038510292768478394, -0.006833349820226431, 0.30342957377433777, 0.24979235231876373, -0.027430221438407898, 0.11519216746091843, -0.2855917513370514, 0.03801975026726723, 0.047710154205560684, -0.023088810965418816, 0.21091298758983612, -0.14556226134300232, 0.1733572632074356, -0.18674404919147491, -0.2470775991678238, 0.21501009166240692, -0.07702671736478806, 0.0008261706680059433, -0.010890631936490536, 0.06294018775224686, 0.06358509510755539, 0.03717857971787453, -0.07575377076864243, -0.2943999767303467, 0.10595165938138962, 0.021788807585835457, -0.13884997367858887, -0.43233323097229004, -0.07732696086168289, 0.13345147669315338, 0.12121375650167465, 0.43852946162223816, 0.01760147325694561, 0.07082885503768921, 0.09735237807035446, 0.17525364458560944, 0.018634112551808357, 0.06623225659132004, -0.06995140761137009, -0.35301879048347473, 0.06184595450758934, 0.22113895416259766, -0.1299704760313034, -0.21847718954086304, -0.0747571513056755, 0.12568126618862152, -0.1691354513168335, -0.029247594997286797, -0.09657049179077148, -0.12330294400453568, -0.15374885499477386, 0.2298727184534073, 0.09427940100431442, 0.10009630769491196, -0.11541341990232468, -0.12723849713802338, 0.02297709695994854, -0.12305761128664017, -0.005179457366466522, -0.1502455621957779, 0.07918012142181396, -0.09516286104917526, 0.034993235021829605, -0.31504765152931213, -0.048164840787649155, 0.17191599309444427, 0.21368034183979034, -0.19694821536540985, 0.036433663219213486, 0.08634866029024124, 0.02262321300804615, 0.07615823298692703, -0.08878255635499954, -0.10941588133573532, -0.014882354997098446, -0.07043144851922989, -0.13252998888492584, -0.17929841578006744, 0.029578236863017082, 0.025292648002505302, -0.15810967981815338, -0.0762365534901619, 0.023176388815045357, -0.446060448884964, 0.12871672213077545, 0.13489983975887299, -0.20831577479839325, 0.02164183370769024, -0.055270951241254807, -0.09449458867311478, -0.057636599987745285, -0.19626139104366302, -0.02683562971651554, 0.23120473325252533, -0.16511192917823792, -0.08834975212812424, 0.16187594830989838, -0.042535100132226944, 0.014817527495324612, -0.3260451555252075, 0.10382545739412308, 0.011124037206172943, 0.24851442873477936, -0.013442118652164936, 0.2680874168872833, 0.005726379808038473, -0.03804033622145653, 0.1650528907775879, -0.07227928191423416, -0.1282416582107544, -0.11756700277328491, 0.37708353996276855, 0.11721300333738327, 0.019383354112505913, 0.19878661632537842, 0.33405911922454834, -0.14153943955898285, -0.020860446617007256, 0.0019473567372187972, 0.04574240371584892, -0.06424396485090256, 0.15967075526714325, 0.29170650243759155, 0.07512202858924866, 0.20933163166046143, -0.4365912675857544, -0.1324094831943512, 0.34691354632377625, -0.0781601294875145, -0.16476818919181824, -0.06741627305746078, 0.046852800995111465, 0.06895870715379715, 0.2595747709274292, 0.2418893724679947, 0.08406548947095871, -0.01692040078341961, -0.008496132679283619, -0.16633351147174835, 0.08793468028306961, -0.05799853429198265, 0.06396633386611938, 0.151381254196167, -0.04969465360045433, 0.09646614640951157, 0.17999285459518433, -0.27818068861961365, 0.1796724796295166, -0.1208864375948906, -0.42552921175956726, 0.2397463321685791, 0.012159980833530426, -0.11370671540498734, 0.0475432388484478, 0.03881729766726494, 0.07592201977968216, -0.15062223374843597, -0.1948116570711136, -0.20976759493350983, 0.06587065011262894, -0.058505889028310776, 0.01595725677907467, 0.15960130095481873, -0.08595740050077438, 0.05873512849211693, 0.17370884120464325, -0.19092249870300293, -0.003176033264026046, 0.1045057401061058, -0.03488592430949211, -0.1669429987668991, 0.056600574404001236, -0.07432205229997635, -0.11635059118270874, 0.278319388628006, -0.13737080991268158, -0.11660600453615189, 0.16985942423343658, 0.19097252190113068, -0.17409707605838776, 0.1883312463760376, 0.26350101828575134, 0.6720519065856934, 0.11330354958772659, 0.07122785598039627, -0.022614039480686188, -0.072910837829113, -0.13385272026062012, -0.028798073530197144, -0.09653212875127792, 0.09383874386548996, 0.028639910742640495, 0.038251277059316635, 0.11645254492759705, -0.11633879691362381, -0.09171272069215775, 0.10115651041269302, -0.4295891523361206, -0.43403124809265137, 0.0043899682350456715, -0.04340178146958351, 0.2099321335554123, 0.33823081851005554, 0.009211092256009579, 0.1753300577402115, -0.005814140662550926, 0.0343000590801239, -0.010597900487482548, 0.04562464356422424, -0.06710685044527054, 0.2619936764240265, -0.09987825155258179, -0.02090938203036785, -0.16295917332172394, -0.4021467864513397, -0.01857130415737629, 0.004747103434056044, -0.24212275445461273, -0.37016597390174866, -0.06889701634645462, 0.2721441090106964, -0.18169887363910675, -0.14062927663326263, 0.09631079435348511, 0.19090868532657623, 0.03945599123835564, 0.50895756483078, 0.1583692878484726, -0.12732098996639252, -0.019182084128260612, 0.0369582436978817, 0.26888158917427063, -0.032013360410928726, 0.08473360538482666, 0.15882840752601624, -0.0960654690861702, 0.17615796625614166, -0.5921611189842224, 0.025618836283683777, 0.1370541900396347, 0.0673896074295044, 0.08818437904119492, -0.08993837237358093, 0.15335725247859955, -0.15900908410549164, 0.012047509662806988, 0.07213473320007324, 0.022532863542437553, 0.2217753678560257, 0.2315375804901123, 0.003784760134294629, 0.10412324219942093, 0.20690204203128815, -0.07689696550369263, -0.15698979794979095, -0.05275428295135498, -0.14557813107967377, 0.10511123389005661, -0.005295358598232269, 0.12987399101257324, 0.0031117741018533707, 0.3119523823261261, 0.01601351611316204, -0.07205582410097122, 0.02103695087134838, 0.2427119016647339, 0.02472001314163208, -0.07836955040693283, 0.062034670263528824, -0.0301456768065691, -0.05032861605286598, 0.0032934125047177076, -0.14073537290096283, -0.17065918445587158, 0.2893225848674774, 0.12503230571746826, -0.025691566988825798, -0.08017612248659134, -0.225636288523674, -0.1871156543493271, -0.01622389256954193, 0.13061942160129547, -0.011111517436802387, 0.017021430656313896, 0.07466644048690796, 0.1315350979566574, 0.25840917229652405, -0.05430470034480095, -0.03179759159684181, 0.0741758719086647, -0.005127584096044302, -0.018511081114411354, 0.06618571281433105, 0.05915510654449463, -0.014800549484789371, -0.35066649317741394, -0.13118670880794525, 0.23578660190105438, 0.2372673749923706, 0.36161911487579346, 0.09076181799173355, 0.11777112632989883, 0.07815670222043991, -0.007246329914778471, 0.0018005887977778912, -0.4789201021194458, -0.04509400948882103, 0.07436143606901169, -0.19526059925556183, -0.0072656492702662945, -0.18698750436306, 0.12223614007234573, 0.05597655102610588, -0.29600414633750916, 0.0638081356883049, -0.29370567202568054, 0.149488627910614, 0.0784473568201065, -0.19134771823883057, 0.05608701333403587, 0.13190878927707672, 0.3643050491809845, -0.07154124230146408, -0.1462240219116211, -0.0001291530643356964, 0.04058272764086723, -0.022242845967411995, -0.12546251714229584, -0.019617537036538124, -0.024207862094044685, -0.10210942476987839, -0.03843802586197853, 0.11273003369569778, 0.16544444859027863, -0.062465544790029526, -0.058650728315114975, 0.05521101877093315, -0.23064470291137695, -0.07608139514923096, -0.10239075869321823, 0.24360327422618866, 0.1019086167216301, 0.029771624132990837, -0.029629496857523918, -0.023551465943455696, 0.03598682954907417, 0.16430102288722992, 0.0287857037037611, -0.29705527424812317, -0.2525453269481659, -0.16855476796627045, 0.05728166922926903, -0.002722635632380843, -0.18496543169021606, -0.16824473440647125, -0.05135367438197136, -0.03820915147662163, -0.22501957416534424, 0.026475826278328896, -0.07938861101865768, 0.08792286366224289, -0.11635482311248779, -0.08259253948926926, 0.08015459030866623, -0.01849517785012722, -0.28428390622138977, 0.16698767244815826, -0.11220847815275192, -0.2040299028158188, 0.36592626571655273, -0.09619700908660889, 0.0004195243527647108, 0.040117740631103516, 0.29613444209098816, 0.03794678673148155, -0.05596357583999634, 0.03518533706665039, 0.1266869157552719, -0.06083410605788231, -0.0003498675941955298, 0.038344856351614, -0.11325333267450333, 0.018943192437291145, -0.007628329563885927, 0.04121137037873268, -0.033846404403448105, 0.026825925335288048, -0.03447980061173439, -0.28693991899490356, -0.13905738294124603, 0.07945441454648972, -0.012498623691499233, 0.037804193794727325, -0.3158482611179352, 0.27674242854118347, 0.1795903593301773, -0.0674465075135231, -0.3090074062347412, -0.014775156043469906, -0.0157660823315382, 0.08271496742963791, 0.08830641955137253, -0.22994516789913177, -0.05342715606093407, -0.19378502666950226, -0.5079500079154968, 0.13093985617160797, -0.03437026962637901, -0.16107571125030518, 0.3044895529747009, 0.1357250064611435, 0.028138218447566032, -0.15459568798542023, 0.5883648991584778, 0.09737347811460495, 0.03188001736998558, -0.014730587601661682, -0.6563228964805603, 0.022681476548314095, 0.12549914419651031, -0.048673272132873535, 0.09359361976385117, 0.028865722939372063, 0.03003370575606823, -0.04284593090415001, -0.35444092750549316, -0.2657490074634552, 0.07254505902528763, -0.0005762060754932463, -0.14062879979610443, 0.17396403849124908, -0.0976022407412529, 0.07303646206855774, -0.3829348385334015, -0.16535340249538422, 0.07344358414411545, 0.05623646080493927, 0.07675846666097641, -0.007969521917402744, -0.06298179179430008, 0.18097348511219025, -0.20180022716522217, 0.14177049696445465, 0.0894041582942009, -0.11804741621017456, -0.14336837828159332, 0.10470014810562134, -0.07669376581907272, -0.4619326889514923, -0.3400566279888153, 0.11841917783021927, 0.0703592374920845, 0.29294201731681824, 0.15619510412216187, -0.09151757508516312, -0.07862377911806107, 0.053401291370391846, -0.13927288353443146, 0.2345726490020752, -0.18529736995697021, 0.02021057717502117, 0.059825196862220764, -0.10754627734422684, 0.06021534278988838, 0.15254919230937958, 0.19573070108890533, -0.20664048194885254, 0.10521302372217178, -0.004657102283090353, 0.3160613477230072, -0.07708311825990677, 0.09631647914648056, -0.2664816081523895, 0.059084538370370865, 0.16520430147647858, -0.38516104221343994, -0.19453279674053192, -0.056992169469594955, 0.08601284772157669, -0.11521922796964645, -0.18976138532161713, 0.049162860959768295, -0.1447117179632187, 0.004318057093769312, 0.5918352603912354, 0.18008042871952057, 0.04843354597687721, 0.144644632935524, 0.07399492710828781, 0.02922922559082508, -0.00487099913880229, 0.0006460289587266743, -0.12086790055036545, -0.09988618642091751, 0.02019655890762806, -0.10684428364038467, -0.05330294743180275, -0.031187864020466805, 0.09110570698976517, -0.08403588086366653, -0.3003852069377899, -0.24849151074886322, -0.038042787462472916, -0.30091357231140137, -0.6834834218025208, -0.10336613655090332, 0.027880700305104256, -0.15785391628742218, 0.46745526790618896, -0.0437811054289341, -0.017169132828712463, 0.17493222653865814, 0.23336505889892578, -0.07892513275146484, 0.11914419382810593, 0.09254815429449081, 0.7585971355438232, -0.1690363734960556, -0.0053170244209468365, -0.14627762138843536, 0.08113361150026321, 0.03104635886847973, 0.19811545312404633, 0.11284273117780685, -0.021002741530537605, 0.09218687564134598, 0.004785590339452028, 0.06654808670282364, 0.3323598802089691, 0.03937142714858055, 0.05013133957982063, -0.09997635334730148, 0.2977387309074402, 0.015433340333402157, 0.007428228389471769, -0.0662682056427002, 0.12391813844442368, -0.014286861754953861, 0.060289859771728516, 0.13732405006885529, 0.06777849048376083, -0.0569988489151001, 0.07509446889162064, -0.1845877766609192, -0.1941298097372055, -0.2322382777929306, -0.23360134661197662, -0.22267569601535797, -0.2227952927350998, -0.04332831874489784, 0.13123668730258942, -0.016521858051419258, -0.17805252969264984, -0.04106367006897926, -0.18176482617855072, 0.01635913737118244, -0.4519108235836029, -0.12060617655515671, -0.010053946636617184, 0.0010453141294419765, 0.2806948125362396, 0.11460196226835251, -0.013221890665590763, 0.041831474751234055, -0.6431416869163513, 0.004141754936426878, 0.12644147872924805, 0.13538146018981934, 0.09182175248861313, -0.05154549703001976, 0.014095366932451725, -0.08669189363718033, -0.44675061106681824, 0.04978352412581444, -0.062016550451517105, 2.054031938314438e-06, -0.058594778180122375, 0.069489486515522, 0.15038682520389557, -0.03622760996222496, 0.0868842676281929, 0.1640254259109497, -0.13410650193691254, -0.13176003098487854, -0.1868053525686264, 0.027260025963187218, 0.1615908294916153, 0.5805882215499878, 0.04418845847249031, -0.2591197192668915, 0.020733416080474854, 0.03140464052557945, -0.016563141718506813, -0.07802944630384445, 0.04121032729744911, 0.1739695817232132, 0.06618354469537735, 0.028886737301945686, 0.11526834219694138, 0.03763112053275108, 0.061940763145685196, 0.01108712051063776, -0.12958623468875885, 0.32023200392723083, 0.1655251830816269, -0.1443634182214737, 0.10749994963407516, -0.033210527151823044, 0.04228737950325012, -0.09446543455123901, 0.08414728194475174, 0.1922774761915207, 0.07228166610002518, -0.04229259118437767, 0.14407207071781158, -0.15520308911800385, 0.14340412616729736, 0.10637172311544418, 0.07200806587934494, -0.03893996402621269, 0.1498076468706131, -0.07042121887207031, 0.07158268243074417, -0.046667516231536865, -0.16696451604366302, 0.0007080980576574802, -0.010520369745790958, -0.11359066516160965, -0.1735331416130066, -0.0423693023622036, -0.03067329339683056, 0.09750355035066605, 0.2500801980495453, -0.16605205833911896, -0.06012709438800812, 0.29322782158851624, 0.151753768324852, 0.03301570937037468, 0.11935001611709595, -0.04019321873784065, -0.05123983323574066, 0.13351573050022125, 0.05208029970526695, 0.0920277014374733, -0.00876657571643591, -0.12229668349027634, 0.2796212434768677, -0.001524476334452629, -0.156553253531456, 0.28832122683525085, 0.0785520002245903, -0.06689294427633286, -0.013086955063045025, 0.1947496086359024, 0.19156217575073242, -0.0010291245998814702, -0.13104881346225739, -0.04635488614439964, -0.14697986841201782, 0.23662616312503815, 0.1272670179605484, 0.08073950558900833, -0.026851683855056763, -0.0792660340666771, -0.10110176354646683, -0.009604930877685547, 0.07250311970710754, -0.17024274170398712, 0.00742321414873004, 0.06593340635299683, 0.1578100472688675, 0.03686364367604256, -0.18240953981876373, 0.004057742655277252, 0.04481597617268562, -0.3817106783390045, 0.19543753564357758, 0.01788625307381153, 0.1743822693824768, -0.00036808173172175884, 0.045578692108392715, 0.009792395867407322, 0.01918547786772251, -0.1521744579076767, 0.034088198095560074, 0.16024495661258698, 0.21738071739673615, 0.18302695453166962, 0.0664835050702095, 0.00799547042697668, -0.2340666502714157, -0.30396249890327454, 0.07943426817655563, 0.08968966454267502, 0.08780089020729065, 0.2798021137714386, -0.027696028351783752, 0.03455210104584694, -0.24156790971755981, -0.32430145144462585, -0.1258932501077652, -0.008628769777715206, 0.06882727891206741, -0.030978014692664146, 0.06553124636411667, -0.048547353595495224, 0.3308611810207367, 0.28701332211494446, -0.010935350321233273, 0.0027951335068792105, -0.08756932616233826, -0.008732336573302746, 0.0018443259177729487, -0.2767431437969208, 0.2487654834985733, -0.608671247959137, 0.038794394582509995, -0.040237244218587875, 0.11211002618074417, 0.12670300900936127, -0.24895571172237396, 0.03229561820626259, -0.17336635291576385, -0.34380075335502625, 0.07756942510604858, 0.02459113486111164, -0.040008507668972015, 0.17531298100948334, 0.023949233815073967, 0.06893832236528397, 0.22756297886371613, 0.3749512732028961, 0.0786212608218193, -0.11383592337369919, -0.17418183386325836, -0.20459800958633423, 0.23903463780879974, -0.023392466828227043, -0.08374717086553574, -0.279913991689682, 0.02880472131073475, -0.0033764417748898268, 0.1453341394662857, -0.3356877267360687, 0.2149191051721573, 0.013078154064714909, 0.1833474189043045, -0.15180395543575287, 0.07387953251600266, 0.07803791016340256, -0.1558932512998581, 0.0998099148273468, 0.16584385931491852, 0.05892175808548927, 0.21193891763687134, -0.00821398664265871, 0.18987266719341278, -0.147636279463768, -0.2906753718852997, -0.390158087015152, -0.07274056226015091, 0.10537727922201157, 0.0300820991396904, 0.045884568244218826, 0.02196374349296093, 0.04027703031897545, 0.053938690572977066, 0.4037848711013794, 0.07418357580900192, -0.026127545163035393, -0.40744471549987793, -0.04181583225727081, 0.025501957163214684, 0.14292024075984955, 0.10454387217760086, 0.2657489478588104, 0.005751143675297499, -0.06848417967557907, -0.19008536636829376, 0.1337442696094513, 0.1457158476114273, 0.0488511361181736, -0.2568652033805847, 0.3735012710094452, -0.13116014003753662, -0.08383785933256149, 0.13972969353199005, -0.21390599012374878, 0.041793342679739, -0.18902064859867096, 0.1462603062391281, -0.1156606674194336, 0.11738253384828568, 0.2331090122461319, -0.1652754694223404, 0.15177448093891144, 0.042251020669937134, 0.03255227208137512, -0.22991013526916504, 0.03534230217337608, -0.007353015709668398, -0.20101173222064972, -0.05006781592965126, 0.15909914672374725, -0.12473189830780029, 0.011167271994054317, 0.07922861725091934, 0.08536729961633682, 0.051811665296554565, -0.026831001043319702, -0.1063426211476326, -0.2067713737487793, -0.021817579865455627, -0.10359635204076767, 0.0635850727558136, 0.10109841078519821, -0.11434613913297653, 0.20245957374572754, 0.20046578347682953, 0.052291661500930786, 0.12989209592342377, -0.3439435064792633, 0.13522708415985107, 0.03172456845641136, 0.011404282413423061, -0.22994749248027802, -0.21588240563869476, -0.10396326333284378, -0.18508093059062958, -0.14162954688072205, 0.6706147193908691, -0.09502487629652023, -0.0022490175906568766, 0.009354401379823685, 0.176641047000885, 0.024535568431019783, 0.025619754567742348, 0.02955831028521061, 0.26262545585632324, -0.018111959099769592, -0.00580888194963336, -0.12029066681861877, 0.004950677044689655, 0.033723775297403336, -0.03382909670472145, 0.01917506381869316, -0.19042496383190155, 0.09516938775777817, 0.05482655391097069, -0.3254641592502594, -0.27635666728019714, -0.03128954395651817, -0.15049730241298676, -0.19744990766048431, 0.09908322244882584, -0.03248482570052147, 0.053558822721242905, -0.31503865122795105, -0.3505428731441498, -9.959714225260541e-05, -0.08681868761777878, 0.2354348748922348, 0.11315389722585678, 0.12671734392642975, -0.024289162829518318, -0.1011534258723259, 0.2377382516860962, 0.028790267184376717, -0.04420090094208717, -0.1121470034122467, 0.01755908690392971, 0.03379678726196289, -0.005696653854101896, -0.10188726335763931, 0.3217448890209198, 0.057551149278879166, 0.10783100873231888, -0.061520542949438095, 0.6100725531578064, 0.04001602903008461, 0.07543105632066727, 0.31419023871421814, -0.4657178819179535, -0.02924594096839428, 0.15994931757450104, 0.20548655092716217, 0.23356686532497406, -0.0002555257815402001, 0.09751098603010178, 0.01932055875658989, 0.09280417114496231, -0.06173044070601463, 0.07011746615171432, -0.16058529913425446, 0.07316124439239502, -0.00048039478133432567, -0.14009393751621246, 0.12243527919054031, -0.38031435012817383, 0.04162197932600975, -0.11952947825193405, -0.18316872417926788, 0.044098928570747375, 0.0075291176326572895, 0.005833353381603956, 0.2217310667037964, 0.21940089762210846, 0.2868005931377411, 0.06564449518918991, -0.0007513114251196384, -0.07832976430654526, -0.02488643117249012, 0.16785943508148193, 0.09137600660324097, -0.34117159247398376, 0.06680161505937576, 0.01275815162807703, 0.36467304825782776, 0.6217878460884094, 0.13042034208774567, -0.053687866777181625, -0.0111861452460289, -0.035798314958810806, 0.2563786208629608, 0.18086431920528412, -0.09904220700263977, -0.121733658015728, -0.1414724737405777, 0.10717908293008804, 0.10879796743392944, 0.05856480076909065, 0.0940927192568779, -0.12212801724672318, -0.12776561081409454, -0.1635691374540329, 0.0028931573033332825, 0.051965147256851196, 0.20763076841831207, 0.2652002274990082, 0.15414024889469147, -0.0033620300237089396, 0.09652343392372131, 0.05498431995511055, 0.04925733432173729, -0.04931694641709328, 0.15675027668476105, -0.08958494663238525, 0.024594007059931755, -0.011681373231112957, -0.44053491950035095, 0.13549213111400604, -0.2110907882452011, 0.06897812336683273, -0.13441304862499237, 0.02097453735768795, 0.06002914533019066, 0.29469868540763855, 0.13823743164539337, -0.10340330004692078, 0.18297125399112701, 0.025398990139365196, -0.1565917581319809, -0.046646565198898315, -0.03859600052237511, 0.048939112573862076, 0.014590623788535595, 0.10200802236795425, -0.06751071661710739, 0.003717307234182954, -0.028907818719744682, 0.03056761436164379, 0.08056246489286423, -0.17128418385982513, 0.2067437618970871, 0.02923603355884552, 0.1176571324467659, -0.042704131454229355, -0.03487122803926468, -0.013284136541187763, 0.03775683417916298, -0.29772302508354187, 0.0003959077876061201, -0.13877974450588226, 0.1163523718714714, 0.0778227224946022, -0.1251293271780014, 0.23847006261348724, 0.07899213582277298, 0.1829187422990799, 0.07281913608312607, 0.027218608185648918, -0.03862473741173744, 0.3039048910140991, 0.4025266468524933, -0.01799430139362812, 0.10088467597961426, 0.0033357602078467607, -0.1388414353132248, 0.10217491537332535, -0.04465574398636818, -0.11421742290258408, 0.03330773487687111, -0.14530672132968903, 0.022741777822375298, 0.0026832350995391607, -0.11655678600072861, 0.2510094940662384, 0.1673063188791275, -0.20337601006031036, 0.3180103898048401, 0.04843779280781746, 0.09462123364210129, -0.1742781549692154, 0.29252883791923523, -0.11701082438230515, 0.005437477957457304, 0.21460266411304474, 0.3271360397338867, 0.15433646738529205, 0.12762142717838287, -0.17492453753948212, 0.47137120366096497, -0.003796894336119294, 0.21085809171199799, -0.17290492355823517, -0.30870702862739563, -0.05153181031346321, -0.07660459727048874, -0.023211268708109856, 0.6545342803001404, 0.06316208094358444, -0.07017987221479416, 0.10053130984306335, 0.19935624301433563, -0.09237097948789597, 0.14676333963871002, -0.02115073800086975, 0.26158615946769714, -0.08325476199388504, -0.10660063475370407, -0.06349154561758041, -0.15094000101089478, 0.1489896923303604, 0.0054522608406841755, -0.09873370081186295, -0.10850929468870163, 0.004377502482384443, 0.02644619159400463, 0.39493563771247864, 0.1979214996099472, -0.10039293020963669, -0.09961050003767014, 0.08198291063308716, 0.5459839105606079, -0.14162693917751312, 0.02358326129615307, 0.003052513115108013, 0.14254504442214966, -0.18534350395202637, -0.07606232911348343, 0.029975533485412598, -0.11591226607561111, -0.09112066775560379, -0.05325790122151375, -0.09158873558044434, -0.2639436423778534, 0.02115003578364849, 0.01716543547809124, 0.009974648244678974, 0.28882694244384766, 0.09807205945253372, -0.008133546449244022, 0.09398049116134644, -0.08853932470083237, 0.1283782571554184, 0.09079336374998093, 0.1419144719839096, 0.046852920204401016, 0.07981806248426437, -0.12073075026273727, -0.10233625024557114, 0.44905218482017517, 0.10773062705993652, 0.047850463539361954, -0.039412807673215866, -0.19535130262374878, 0.21206976473331451, -0.04706484451889992, -0.23936711251735687, -0.12057238072156906, 0.15703262388706207, -0.04393082484602928, -0.11318787187337875, -0.1308119297027588, 0.05341922864317894, -0.058845218271017075, 0.001526573789305985, 0.38327980041503906, -0.02181863971054554, 0.005281559657305479, 0.05703050270676613, -0.10139163583517075, 0.02658560685813427, 0.06821364909410477, -0.10121294111013412, -0.13326898217201233, -0.11915696412324905, 0.046366747468709946, -0.1538449227809906, -0.0049327970482409, 0.1575697511434555, 0.0795174241065979, -0.137594074010849, 0.44248166680336, 0.09664302319288254, -0.09542196244001389, -0.08755433559417725, 0.20988112688064575, 0.03991958498954773, -0.02523786760866642, 0.14711543917655945, -0.33205389976501465, -0.038376059383153915, -0.21802090108394623, -0.008509243838489056, 0.12779690325260162, 0.27338191866874695, 0.20439814031124115, 0.2504841983318329, -0.16594275832176208, 0.06935333460569382, 0.03471100330352783, -0.005567543674260378, -0.28566858172416687, -0.06779998540878296, 0.05169033631682396, 0.3184117078781128, 0.1286361664533615, 0.101634182035923, -0.0799633264541626, -0.1125175952911377, 0.057114046066999435, -0.07316052168607712, 0.3188032805919647, 0.042338740080595016, 0.11686184257268906, 0.41800209879875183, -0.16013990342617035, -0.24068063497543335, -0.024796565994620323, -0.12778806686401367, -0.2580518424510956, -0.012819577939808369, 0.09737846255302429, 0.049368198961019516, 0.18432748317718506, 0.04399823769927025, 0.23772738873958588, -0.12353945523500443, -0.30424630641937256, 0.1344674676656723, 0.04074486717581749, 0.11883354932069778, -0.01192472130060196, -0.3971545696258545, 0.13055191934108734, -0.13183675706386566, 0.14482778310775757, -0.061901867389678955, 0.1597437709569931, -0.017769696190953255, -0.38307228684425354, -0.16430047154426575, 0.13216732442378998, 0.1272873729467392, -0.036035116761922836, -0.08479971438646317, -0.18064294755458832, 0.021493880078196526, -0.24720217287540436, -0.602748692035675, 0.132301464676857, -0.12140869349241257, 0.12507940828800201, 0.547074556350708, 0.06320380419492722, -0.10912171751260757, -0.097950778901577, 0.14212659001350403, -0.056990381330251694, -0.06513256579637527, 0.010977006517350674, 0.26226213574409485, -0.05086866021156311, 0.07801581174135208, -0.115424744784832, 0.01822148822247982, -0.05520438775420189, 0.08513761311769485, -0.1050851047039032, -0.13208173215389252, -0.04213178530335426, 0.09220438450574875, 0.19243653118610382, -0.22445718944072723, -0.08594263345003128, 0.1434265524148941, -0.3218824565410614, 0.09209656715393066, -0.03321847319602966, -0.009933934547007084, -0.020256781950592995, 0.038945272564888, -0.02452648989856243, -0.09024465084075928, 0.05491182580590248, 0.26071614027023315, -0.09730357676744461, 0.05162521079182625, 0.2773856222629547, 0.34616878628730774, -0.13209950923919678, -0.008092680014669895, 0.042305681854486465, 0.1823529452085495, -0.03194436803460121, 0.08474140614271164, 0.09578105807304382, -0.3589555025100708, 0.09961215406656265, -0.14620639383792877, -0.11289411038160324, -0.022697634994983673, -0.1113523319363594, -0.059309061616659164, 0.08842965960502625, 0.15699656307697296, -0.07523954659700394, -0.29023268818855286, -0.0016875254223123193, 0.026456022635102272, 0.03291260823607445, 0.06333572417497635, 0.06821867823600769, -0.4527941048145294, -0.19214795529842377, -0.07765907794237137, 0.031518880277872086, 0.2342333048582077, -0.2627313435077667, -0.10260952264070511, -0.12337049841880798, -0.06452964246273041, -0.07715631276369095, -0.11767793446779251, 0.017218997702002525, 0.1594005674123764, 0.11486803740262985, 0.012254633940756321, 0.07861196249723434, 0.4795703887939453, 0.02947053499519825, 0.10706628113985062, -0.01759428344666958, 0.1540793925523758, 0.0929654911160469, -0.15856552124023438, 0.2551560699939728, 0.07305248826742172, -0.1113966777920723, -0.06344563513994217, -0.05053931474685669, -0.39530766010284424, 0.01104258093982935, 0.0422661267220974, -0.082232266664505, 0.08634359389543533, 0.10812555998563766, 0.05937778577208519, 0.09251714497804642, -0.19128988683223724, 0.18723440170288086, 0.08749890327453613, 0.10968226194381714, 0.26007142663002014, -0.018095849081873894, 0.09169822931289673, 0.0760718360543251, -0.5049514174461365, -0.06743574887514114, -0.2058052271604538, -0.20455336570739746, -0.1965126395225525, 0.14378751814365387, 0.01600066013634205, -0.06476129591464996, -0.16895270347595215, -0.09515810757875443, 0.02833854965865612, -0.21509139239788055, -0.040457356721162796, 0.0010667442111298442, 0.002066641813144088, -0.3474946916103363, 0.26365840435028076, -0.03026142530143261, 0.05370914936065674, 0.039145130664110184, -0.15945316851139069, -0.039936456829309464, -0.016497818753123283, 0.036054451018571854, -0.014462712220847607, 0.049358759075403214, -0.21388490498065948, 0.10561102628707886, -0.14261005818843842, 0.08168396353721619, -0.11474183946847916, -0.22365647554397583, -0.006260072346776724, -0.31054171919822693, 0.09996426105499268, -0.13069385290145874, 0.15485920011997223, 0.13154499232769012, -0.005166200455278158, 0.017680030316114426, -0.03128707781434059, -0.11354685574769974, -0.13108688592910767, 0.41879746317863464, -0.08779554814100266, 0.1051475927233696, -0.042454298585653305, -0.07079030573368073, 0.08501368761062622, 0.03231719136238098, 0.03224411606788635, 0.05135186016559601, 0.15914680063724518, 0.031556665897369385, 0.10136399418115616, -0.09972991794347763, -0.15913043916225433, -0.09502028673887253, 0.08810215443372726, 0.04542513191699982, -0.0733562633395195, 0.15465031564235687, 0.05100109800696373, 0.45747697353363037, -0.08799148350954056, 0.02706420235335827, 0.05363796278834343, 0.2281109094619751, 0.027536271139979362, 0.08451550453901291, -0.33080270886421204, 0.09774569422006607, -0.008912318386137486, 0.07469934970140457, -0.13307379186153412, 0.04699639603495598, 0.17041446268558502, 0.21020247042179108, -0.02646609954535961, -0.07661064714193344, 0.2503909766674042, -0.23625420033931732, -0.06444577127695084, -0.12326937913894653, -0.048575010150671005, 0.06561815738677979, -0.12133646011352539, 0.20490898191928864, 0.033235494047403336, -0.12301374226808548, 0.016686081886291504, -0.19498567283153534, -0.006181090604513884, 0.206040620803833, -0.15918774902820587, -0.3062252402305603, -0.0574420727789402, -0.07536352425813675, 0.08656877279281616, 0.006559638772159815, -0.06837005168199539, 0.022848250344395638, 0.16497178375720978, -0.4991041421890259, -0.06276588886976242, -0.2983853816986084, 0.0634799674153328, -0.6910150647163391, 0.0950927808880806, 0.008427694439888, 0.030289478600025177, 0.1161644458770752, 0.0732852891087532, -0.17719782888889313, -0.3039229214191437, 0.1909472793340683, -0.10160215944051743, 0.09096217900514603, -0.18197087943553925, 0.046539057046175, 0.0346406064927578, -0.044165343046188354, 0.17056028544902802, 0.3716953992843628, -0.04750284180045128, 0.03621253743767738, -0.06302597373723984, 0.008790633641183376, 0.21334631741046906, -0.038361553102731705, 0.2512713074684143, -0.11440957337617874, 0.10869427770376205, -0.0891273096203804, 0.1718926578760147, -0.18415582180023193, 0.024957625195384026, -0.010594382882118225, -0.10787180066108704, 0.18803924322128296, -0.02493208460509777, 0.06541908532381058, -0.04305756092071533, 0.24828363955020905, 0.07877176254987717, 0.20807479321956635, -0.09110113978385925, -0.1602480411529541, 0.06081831082701683, 0.07713402062654495, -0.027783453464508057, -0.02310018055140972, -0.28232792019844055, 0.13542760908603668, -0.18051157891750336, -0.16403721272945404, 0.03772497549653053, 0.026304611936211586, 0.32408252358436584, 0.30191096663475037, -0.11967825144529343, -0.07966471463441849, 0.2542303502559662, -0.17471809685230255, 0.05064771696925163, -0.23225022852420807, 0.009312804788351059, 0.28300583362579346, -0.08069873601198196, -0.05351191386580467, 0.17191292345523834, -0.3599787950515747, 0.11114215105772018, 0.10525988787412643, 0.2117835283279419, 0.21468059718608856, -0.0064342389814555645, -0.0403098426759243, -0.031207211315631866, -0.10125184059143066, -0.09822356700897217, -0.009877189062535763, 0.037372950464487076, -0.07536464929580688, -0.033043503761291504, 0.06119370460510254, 0.11011435836553574, -0.1834307312965393, -0.1005488708615303, -0.020217599347233772, 0.10739731043577194, 0.7210841774940491, 0.023366006091237068, -0.049054596573114395, 0.059996262192726135, 0.0855187177658081, 0.11418067663908005, -0.08745444566011429, 0.035117801278829575, 0.15009519457817078, -0.24048270285129547, -0.019837792962789536, 0.22081448137760162, -0.19515252113342285, 0.12342078238725662, -0.03619994968175888, -0.13024874031543732, -0.3748302459716797, -0.2234501987695694, 0.015047796070575714, 0.30409741401672363, -0.01655401475727558, 0.0687880590558052, -0.08622323721647263, -0.3073202073574066, -0.05728084221482277, 0.20257647335529327, -0.225444033741951, 0.13347984850406647, 0.1866360753774643, 0.13588847219944, -0.0509687177836895, 0.18624185025691986, -0.03352991119027138, -0.08762902021408081, 0.1628120392560959, -0.17396672070026398, 0.011611958034336567, -0.15748097002506256, 0.15222680568695068, -0.12603598833084106, 0.125585675239563, -0.1215050145983696, -0.08357401937246323, 0.223968967795372, 0.06538326293230057, -0.09518206864595413, 0.07672079652547836, -0.31640681624412537, 0.007803559768944979, 0.04590054973959923, -0.08350503444671631, -0.1810835748910904, -0.03646046295762062, -0.13283586502075195, 0.041820839047431946, 0.3768714368343353, 0.08839870244264603, 0.12994123995304108, -0.015433572232723236, 0.0014418852515518665, -0.089096300303936, 0.1049070730805397, 0.02483394183218479, -0.08523992449045181, 0.13161420822143555, 0.10782340914011002, 0.24049967527389526, -0.2364102452993393, -0.0008423793478868902, -0.049581024795770645, -0.01665080338716507, -0.4221644103527069, -0.06026274338364601, -0.11623167246580124, -0.08625955134630203, 0.05836303159594536, 0.11144315451383591, 0.0068287900649011135, -0.15032537281513214, -0.13638056814670563, 0.0723024532198906, 0.09287179261445999, -0.37223705649375916, 0.03760239854454994, 0.02833920530974865, 0.014671743847429752, -0.16063617169857025, -0.022183090448379517, 0.3334079086780548, -0.07933639734983444, -0.051469381898641586, 0.0950491651892662, 0.08282125741243362, 0.07743441313505173, 0.11319319158792496, 0.03013211488723755, 0.13674722611904144, 0.03753938898444176, -0.0064782798290252686, 0.35784316062927246, -0.11156965047121048, -0.024697421118617058, -0.3911304175853729, 0.02924635261297226, 0.002063745865598321, 0.03007620759308338, 0.2926601469516754, -0.44725584983825684, -0.03797030821442604, -0.02021115832030773, 0.043067723512649536, 0.22016958892345428, -0.04647285118699074, 0.08372677117586136, 0.17259801924228668, 0.01565081812441349, 0.11355113238096237, -0.06456292420625687, 0.011320172809064388, 0.5995274186134338, 0.039447370916604996, 0.03560701385140419, 0.008653005585074425, -0.5496905446052551, 0.11098384112119675, 0.10263482481241226, 0.3339821994304657, 0.12480279058218002, 0.041070494800806046, -0.049406085163354874, 0.07414022833108902, 0.12444106489419937, -0.11023639887571335, -0.006150730419903994, -0.0946156457066536, -0.34017738699913025, -0.02967241406440735, 0.025301149114966393, -0.04854869470000267, 0.029905930161476135, -0.0682746097445488, 0.16545069217681885, 0.07882151752710342, 0.1665634661912918, 0.12057553976774216, 0.18705247342586517, -0.4131160080432892, 0.46059611439704895, -0.10518062859773636, -0.06473363190889359, 0.19175411760807037, 0.1697566658258438, -0.043662454932928085, -0.04510003700852394, -0.07894393056631088, -0.04096851125359535, -0.1320282369852066, -0.0007934178574942052, -0.0842265859246254, -0.0835435688495636, -0.1658148616552353, 0.11865437775850296, -0.20942191779613495, -0.49436259269714355, 0.10485338419675827, 0.010311164893209934, 0.07924439758062363, 0.12014193087816238, 0.05436853691935539, 0.14909718930721283, 0.08172263205051422, 0.09956733137369156, 0.012397444806993008, -0.060675498098134995, 0.30925673246383667, -0.3538503646850586, 0.0663074180483818, -0.11495662480592728, 0.018847404047846794, -0.048089880496263504, 0.05451503396034241, -0.06184589862823486, 0.20160889625549316, 0.0739290788769722, 0.18522267043590546, 0.14500214159488678, 0.107856385409832, -0.11592629551887512, -0.04357070103287697, 0.015387065708637238, -0.1752309650182724, -0.056957781314849854, -0.06370795518159866, 0.0695924386382103, 0.3121875822544098, -0.11291860789060593, -0.21288514137268066, 0.04233761504292488, -0.11761248856782913, 0.072613425552845, 0.1151200607419014, 0.0586065836250782, 0.024237951263785362, 0.06819117814302444, -0.19911478459835052, 0.05636787414550781, -0.06639218330383301, -0.1278640180826187, 0.008792468346655369, -0.02241857349872589, -0.3414677381515503, -0.02769160084426403, -0.07097966223955154, 0.2811241149902344, 0.13933667540550232, 0.0677538588643074, 0.10419202595949173, -0.17555594444274902, -0.5273788571357727, -0.017537591978907585, -0.013760827481746674, -0.05611957609653473, -0.027327505871653557, -0.047787804156541824, 0.03327500447630882, 0.1164965108036995, -0.01175824273377657, -0.04619329795241356, -0.24422408640384674, -0.1351994127035141, -0.10566718131303787, -0.03485563024878502, 0.14557494223117828, 0.1637229174375534, 0.38643717765808105, 0.02632713131606579, -0.010572166182100773, 0.15931978821754456, 0.1436060518026352, -0.048427168279886246, 0.03258198872208595, -0.05146816372871399, 0.1279568374156952, 0.005789249669760466, 0.08136140555143356, 0.026660220697522163, 0.18000483512878418, -0.04903140291571617, -0.10715087503194809, 0.09290484338998795, 0.2087058424949646, 0.001334129017777741, 0.02756032533943653, 0.36043795943260193, 0.1837133765220642, -0.024114428088068962, -0.1004636362195015, -0.5445749759674072, -0.24515223503112793, -0.007507071364670992, 0.022970983758568764, -0.20087379217147827, 0.312778115272522, -0.029820648953318596, 0.08418024331331253, -0.051763176918029785, 0.5001429915428162, 0.1137768104672432, -0.09360747784376144, 0.09842097014188766, 0.4476252794265747, 0.04217860475182533, 0.11563634127378464, 0.016100339591503143, -0.07789821177721024, -0.06928456574678421, 0.11197365075349808, 0.07590719312429428, -0.09202360361814499, -0.09389639645814896, 0.2741806209087372, -0.020674467086791992, 0.237335205078125, -0.13295377790927887, -0.19033409655094147, -0.23233258724212646, -0.0937182828783989, -0.13383030891418457, 0.027424754574894905, 0.12239889055490494, 0.027131153270602226, -0.038052741438150406, 0.057351235300302505, 0.14240537583827972, -0.7599950432777405, -0.14386294782161713, -0.13480843603610992, 0.02004525624215603, 0.28544166684150696, 0.14140711724758148, -0.0832054540514946, 0.11085400730371475, -0.11851698160171509, -0.09562861919403076, 0.08757496625185013, 0.11238584667444229, 0.16145825386047363, -0.014529288746416569, 0.04760923609137535, 0.08726716041564941, 0.4004085063934326, -0.0034432969987392426, 0.24030660092830658, 0.17950934171676636, 0.4698421061038971, 0.09889931231737137, 0.11031508445739746, 0.12227386236190796, 0.1752488613128662, -0.026639608666300774, 0.0041433838196098804, -0.2632136344909668, 0.27375873923301697, 0.07804679125547409, -0.10957115888595581, -0.02256682701408863, 0.40277576446533203, -0.06813163310289383, 0.08467482775449753, 0.2303922027349472, -0.131577730178833, 0.1276250034570694, -0.15265081822872162, 0.15715238451957703, -0.05624937638640404, -0.14090074598789215, -0.09491444379091263, 0.07418769598007202, 0.08374901860952377, -0.09045767039060593, 0.05151839926838875, 0.23932068049907684, 0.4606781005859375, 0.1276472955942154, -0.18289469182491302, 0.10269695520401001, -0.03353625163435936, 0.18637968599796295, 0.0964127704501152, 0.11353205889463425, 0.1193610206246376, -0.10499855875968933, -0.08580058068037033, -0.080096535384655, -0.0828581303358078, -0.3397202491760254, -0.19762678444385529, -0.12460503727197647, 0.41717028617858887, 0.12911857664585114, 0.12138938903808594, -0.1499926745891571, 0.11224018782377243, -0.045527245849370956, 0.1694013923406601, 0.038050632923841476, -0.04672152176499367, 0.013209833763539791, 0.06103906407952309, -0.08736103028059006, -0.12228120118379593, -0.012089633382856846, -0.07610461860895157, -0.4192265272140503, 0.07346869260072708, 0.057040985673666, -0.08823903650045395, 0.07710819691419601, 0.0009521450265310705, 0.1829683631658554, 0.04220101237297058, -0.41687846183776855, -0.11200297623872757, -0.03970574960112572, 0.24515610933303833, -0.07087662816047668, 0.22874762117862701, 0.15102051198482513, 0.0684080645442009, -0.08026641607284546, -0.03713017329573631, 0.14060138165950775, 0.0703028067946434, 0.17389541864395142, 0.03805283084511757, -0.030330775305628777, 0.13453409075737, 0.38353797793388367, -0.03009730577468872, 0.003586198901757598, -0.16576947271823883, -0.27064183354377747, 0.02925744839012623, 0.03465044125914574, 0.21998433768749237, -0.5032721757888794, 0.07033521682024002, -0.09210372716188431, 0.00717112235724926, -0.2089586853981018, -0.09424955397844315, 0.029398052021861076, -0.05292864143848419, -0.10752806812524796, -0.03279978409409523, -0.08305644243955612, 0.007061982527375221, 0.00488179549574852, -0.013878137804567814, -0.011056937277317047, -0.14757169783115387, 0.16108834743499756, 0.15072844922542572, 0.009312705136835575, -0.08336596935987473, -0.13493835926055908, 0.03281698003411293, -0.009188971482217312, -0.06813868880271912, -0.3649977743625641, 0.0739871934056282, 0.18645308911800385, 0.09865417331457138, -0.0634905993938446, 0.06526381522417068, 0.07531685382127762, 0.12263085693120956, 0.6879081726074219, 0.08537774533033371, 0.15648424625396729, -0.07157919555902481, -0.15005111694335938, -0.12674139440059662, 0.09484847635030746, 0.1207742765545845, 0.05529835820198059, -0.14670990407466888, 0.0146053871139884, 0.045004650950431824, -0.31413474678993225, 0.03857806697487831, -0.11719786375761032, -0.0012554252753034234, -0.1065678820014, 0.07215548306703568, 0.22325825691223145, 0.2139313668012619, 0.49424293637275696, 0.023095866665244102, 0.09579776972532272, -0.21504606306552887, -0.06798379868268967, -0.12109886854887009, 0.23287321627140045, -0.39766594767570496, -0.12994235754013062, -0.015112563967704773, -0.059243444353342056, -0.14874160289764404, -0.19894041121006012, -0.12255323678255081, -0.03950792923569679, -0.1509357988834381, 0.1656099259853363, 0.03404238820075989, 0.2565977871417999, 0.13871370255947113, -0.3545936644077301, -0.009006799198687077, -0.09221255034208298, -0.411508709192276, -0.13219934701919556, 0.026972314342856407, 0.019821597263216972, -0.011544122360646725, 0.19224292039871216, 0.00646200543269515, -0.039419565349817276, 0.17665106058120728, -8.013677870621905e-05, 0.09002924710512161, -0.031188340857625008, 0.12373394519090652, -0.06486254930496216, -0.023730816319584846, -0.07757186144590378, 0.085664302110672, -0.20066513121128082, 0.014957680366933346, -0.016536802053451538, -0.007362125441431999, -0.23064732551574707, -0.13570009171962738, -0.24420712888240814, -0.11610814183950424, 0.28355613350868225, -0.14999030530452728, -0.1773732751607895, -0.029211560264229774, -0.0964834913611412, -0.061062876135110855, -0.07613831013441086, -0.1086428165435791, 0.1799554079771042, -0.03558235988020897, 0.07360636442899704, -0.14837786555290222, 0.17870862782001495, 0.17566154897212982, 0.037897881120443344, 0.27596065402030945, 0.46050381660461426, 0.0618792288005352, -0.1457512080669403, -0.16099582612514496, -0.006232710089534521, -0.03374410420656204, -0.4216573238372803, 0.041137322783470154, 0.26768800616264343, 0.01897197961807251, -0.005590959917753935, 0.32261207699775696, -0.06310290843248367, 0.11489164084196091, 0.48960819840431213, -0.1299126297235489, -0.03297337517142296, 0.10344237089157104, 0.1334267109632492, 0.08676352351903915, 0.2065896838903427, 0.07287120074033737, -0.19664299488067627, 0.12842518091201782, 0.16705010831356049, 0.1277250051498413, -0.18601031601428986, -0.3868691921234131, 0.05704211816191673, 0.04305049404501915, -0.11194989830255508, 0.05085854232311249, 0.15022657811641693, -0.007972165010869503, -0.07471584528684616, 0.04208560287952423, 0.0745706632733345, -0.04518160596489906, 0.3394624888896942, -0.14456649124622345, -0.020243898034095764, 0.005641691852360964, -0.12304452806711197, -0.29392609000205994, 0.07662630081176758, -0.13101540505886078, -0.3335593640804291, -0.46630966663360596, -0.17093156278133392, 0.08696287125349045, -0.026619495823979378, -0.3730261027812958, -0.03576204553246498, 0.08933799713850021, 0.06295473873615265, -0.09653446078300476, 0.0652875229716301, 0.049885448068380356, 0.19846658408641815, -0.2528506815433502, 0.19962002336978912, 0.04274464026093483, 0.14998072385787964, -0.345991849899292, -0.08434342592954636, 0.08316362649202347, 0.1327734887599945, -0.36233213543891907, 0.04318222776055336, -0.017909614369273186, -0.11464815586805344, 0.16009663045406342, 0.19592247903347015, 0.06974291056394577, -0.02067669667303562, 0.0727725699543953, -0.05383836850523949, -0.0735994502902031, -0.02389913983643055, 0.40731045603752136, -0.14277209341526031, 0.1775578409433365, -0.07490039616823196, -0.15126103162765503, -0.0879475548863411, 0.017490146681666374, -0.1174568459391594, -0.10998354107141495, -0.061615582555532455, -0.03456002101302147, 0.047956857830286026, 0.19388771057128906, -0.11932956427335739, -0.12021160870790482, -0.015073721297085285, -0.5200554132461548, -0.08613289147615433, 0.010205469094216824, 0.20620416104793549, 0.5171022415161133, -0.049531761556863785, -0.15465736389160156, 0.11510331183671951, 0.07304579764604568, 0.09899204969406128, -0.007372379768639803, -0.21736811101436615, -0.30172649025917053, -0.0629398301243782, -0.13774921000003815, 0.21295849978923798, 0.30956676602363586, 0.0472220815718174, 0.013661409728229046, 0.08852768689393997, 0.27159878611564636, -0.029405442997813225, -0.07183457165956497, -0.09088239818811417, -0.12935996055603027, -0.042831361293792725, -0.014295040629804134, -0.1839262694120407, 0.17505766451358795, 0.2447643131017685, 0.11855506151914597, -0.28691306710243225, -0.012731493450701237, -0.20618343353271484, -0.08474069833755493, 0.013893377035856247, -0.07147692888975143, 0.12811292707920074, -0.25578734278678894, 0.30447301268577576, -0.06533775478601456, -0.04341703653335571, -0.13526104390621185, 0.20322227478027344, 0.2959803640842438, 0.04789060726761818, -0.029561402276158333, 0.08523479849100113, -0.03480564057826996, -0.038795050233602524, -0.2691197097301483, 0.29366692900657654, -0.021012956276535988, 0.11577450484037399, -0.06077199801802635, -0.20122130215168, -0.10990775376558304, 0.06969380378723145, 0.005828395020216703, 0.2621612250804901, 0.1592635065317154, 0.06351233273744583, 0.039081037044525146, 0.0017838184721767902, -0.334077924489975, -0.14650402963161469, -0.1044764444231987, 0.31507763266563416, 0.5533391833305359, 0.08347047120332718, 0.09086810797452927, 0.05143870785832405, 0.12070444226264954, 0.23152853548526764, 0.03928050026297569, 0.04351329430937767, 0.032286569476127625, 0.0562998503446579, 0.0013734049862250686, -0.11572017520666122, -0.16842155158519745, -0.020887479186058044, -0.06853453069925308, -0.1318729668855667, -0.04730014130473137, -0.013262432999908924, 0.04489321634173393, 0.2509421408176422, 0.07888228446245193, 0.10181289911270142, 0.24025726318359375, -0.07277768850326538, 0.021206675097346306, 0.12621845304965973, 0.0367739237844944, 0.08683013170957565, 0.055065471678972244, -0.01663150079548359, 0.4396531879901886, -0.622488796710968, 0.19970154762268066, -0.022855250164866447, 0.12232810258865356, 0.00818390492349863, -0.20563532412052155, -0.2550843060016632, 0.1353958249092102, 0.03521500900387764, -0.08607184141874313, 0.10536742210388184, 0.12379401177167892, 0.23186743259429932, 0.052492912858724594, -0.05737125501036644, 0.19761766493320465, -0.3850627839565277, 0.09820573776960373, 0.08713681250810623, -0.04075159132480621, 0.645412266254425, 0.059659358114004135, 0.020630089566111565, 0.28020575642585754, -0.18313592672348022, -0.2464921623468399, -0.06476055830717087, -0.1571914553642273, 0.2712433338165283, 0.043473366647958755, -0.06721346825361252, -0.207239031791687, 0.8617475032806396, 0.0033892940264195204, 0.1108386442065239, 0.09655088931322098, 0.3528798818588257, 0.03585213050246239, -0.22792457044124603, -0.19045262038707733, -0.01892300508916378, 0.1283876746892929, -0.13904143869876862, 0.1429840475320816, 0.23461906611919403, 0.001160964253358543, 9.984061034629121e-05, 0.004723341669887304, 0.01685723103582859, -0.1507568508386612, 0.047612667083740234, -0.306730180978775, 0.31388530135154724, -0.09512209892272949, 0.14273642003536224, -0.0813872367143631, 0.010118906386196613, -0.06260795146226883, 0.10481008142232895, -0.08128641545772552, 0.02980632334947586, -0.05451088771224022, 0.10896538943052292, -0.0778656080365181, 0.14930188655853271, -0.13224397599697113, -0.07608617097139359, 0.09730314463376999, -0.15881572663784027, 0.04663439467549324, 0.09156370908021927, -0.22090332210063934, 0.01857837103307247, 0.007376566994935274, 0.18004654347896576, -0.053278129547834396, -0.035082798451185226, -0.06582193821668625, -0.02217281050980091, -0.2599651515483856, 0.1739959716796875, 0.038971658796072006, 0.1161116436123848, -0.08501573652029037, -0.1089736595749855, -0.04701435565948486, -0.20509755611419678, 0.11803653091192245, 0.08641427010297775, -0.05065162852406502, -0.01195510569959879, 0.19429026544094086, -0.025733506307005882, 0.07400370389223099, -0.0920206680893898, 0.002141352044418454, -0.061140622943639755, -0.1514420360326767, 0.05496470257639885, 0.02384992130100727, 0.06628339737653732, 0.04986703768372536, -0.11003228276968002, -0.011941332370042801, -0.03168671950697899, -0.122917540371418, 0.02368880994617939, 0.003320802701637149, -0.07500679045915604, -0.16961060464382172, 0.03168633580207825, 0.15222372114658356, -0.07692623138427734, -0.0032116633374243975, -0.09083353728055954, -0.0448530912399292, -0.11654383689165115, 0.06213032826781273, 0.18108738958835602, 0.19851244986057281, 0.20501886308193207, -0.07641338557004929, -0.05549329146742821, -0.022909706458449364, 0.2726513147354126, 0.08343976736068726, 0.1273956447839737, 0.0007435817387886345, 0.1668681502342224, -0.07188291102647781, -0.017541350796818733, 0.27341359853744507, -0.3024805188179016, 0.06486398726701736, 0.204876109957695, -0.030401645228266716, 0.8779137134552002, -0.09853614121675491, 0.02695918269455433, 0.06200342997908592, -0.04909802973270416, -0.01749691553413868, -0.06623513251543045, 0.3274540603160858, 0.14031843841075897, -0.11311996728181839, 0.0416761077940464, 0.05762586370110512, 0.1170586571097374, 0.2994811236858368, -0.02225922979414463, -0.46164751052856445, -0.3591494858264923, -0.3193671405315399, 0.19632887840270996, -0.0717090293765068, -0.12521745264530182, 0.02997095324099064, 0.05050116777420044, -0.31951770186424255, 0.06081080809235573, 0.04719557240605354, -0.12873457372188568, -0.18588709831237793, -0.18643362820148468, -0.09832549095153809, -0.2014632672071457, 0.01670045219361782, -0.09292542189359665, 0.15605996549129486, -0.07137584686279297, 0.060238149017095566, -0.037111345678567886, 0.04031467065215111, -0.07583565264940262, -0.1653740555047989, -0.07110976427793503, 0.14492309093475342, 0.08708923310041428, 0.058800842612981796, 0.2233884185552597, 0.11307906359434128, -0.07498379796743393, 0.3751298487186432, 0.06548602133989334, -0.060978714376688004, 0.006328843999654055, 0.14320871233940125, -0.11395562440156937, 0.07303845137357712, -0.11788789182901382, 0.32317084074020386, 0.06214332580566406, -0.2111235409975052, 0.13085000216960907, 0.16651518642902374, -0.036649733781814575, 0.02169165201485157, -0.0069973585195839405, 0.2371472269296646, 0.02289530821144581, 0.10455333441495895, 0.18420852720737457, -0.3262168765068054, -0.12287689000368118, 0.08151751011610031, -0.125755175948143, 0.6269951462745667, -0.024470744654536247, -0.025668034330010414, -0.04800527170300484, 0.05535512790083885, -0.2910754382610321, 0.20163726806640625, 0.13893762230873108, -0.0056280228309333324, -0.05542566254734993, -0.09355286508798599, -0.12808065116405487, 0.13341282308101654, -0.13700102269649506, -0.07347852736711502, -0.28717145323753357, 0.047260623425245285, -0.10388016700744629, 0.01647154800593853, -0.07436763495206833, -0.13184155523777008, -0.03085234947502613, -0.08693455904722214, -0.009143364615738392, -0.12778817117214203, 0.044470544904470444, 0.014793128706514835, -0.32097992300987244, -0.08865728974342346, -0.1286264806985855, -0.035141680389642715, 0.09472724050283432, -0.15586289763450623, 0.11759579926729202, -0.10456172376871109, 0.24359695613384247, -0.013217619620263577, -0.11877346783876419, -0.0436643622815609, -0.24511311948299408, 0.002457439200952649, 0.12319790571928024, -0.02715611457824707, 0.44759508967399597, -0.36902907490730286, 0.04286515340209007, -0.008130387403070927, 0.28510811924934387, -0.03909270465373993, -0.032093703746795654, -0.044096413999795914, -0.0009120762697421014, -0.42022982239723206, 0.07345831394195557, 0.04918361082673073, 0.10704859346151352, 0.08039110898971558, -0.08335231989622116, -0.01051719393581152, -0.12558582425117493, 0.3326829969882965, -0.07353656738996506, -0.027017923071980476, 0.20226283371448517, -0.06200803816318512, 0.16926588118076324, 0.019983844831585884, 0.21284343302249908, 0.2505148649215698, 0.09979700297117233, -0.19149555265903473, -0.274290531873703, -0.09395265579223633, -0.10448388010263443, 0.17311178147792816, 0.11059156060218811, 0.1397697478532791, -0.03980189934372902, -0.1975870281457901, -0.23918603360652924, -0.397452712059021, -0.12227488309144974, 0.09218019992113113, -0.04395749047398567, -0.06808983534574509, -0.014669566415250301, -0.03466230258345604, -0.07437819987535477, 0.11906013637781143, 0.07674854248762131, 0.1258111149072647, -0.2927003800868988, -0.7258812785148621, -0.019818244501948357, -0.004276714753359556, 0.07208272069692612, -0.10356486588716507, 0.08131664246320724, -0.061502281576395035, 0.09959717839956284, 0.7204658389091492, 0.1267550140619278, -0.11502670496702194, 0.2283356934785843, 0.015084308572113514, -0.004447270650416613, 0.13101933896541595, -0.09631341695785522, 0.4782100021839142, 0.05202299728989601, 0.261658638715744, 0.0263593140989542, -0.08797188848257065, 0.11809530109167099, 0.058901745826005936, 0.2045316845178604, 0.04003124311566353, 0.0037097285967320204, -0.16315501928329468, 0.2014569789171219, 0.13793571293354034, 0.20426154136657715, -0.18242387473583221, -0.37517061829566956, 0.1039319634437561, -0.15743042528629303, 0.17514771223068237, 0.09740524739027023, -0.00923373457044363, -0.021301792934536934, -0.2775081396102905, -0.04842246696352959, -0.13843776285648346, -0.05381391569972038, 0.10701765865087509, 0.17129123210906982, 0.09447752684354782, -0.11190008372068405, 0.2754289209842682, 0.28206679224967957, -0.08363205939531326, 0.07142721861600876, -0.23177151381969452, 0.039585236459970474, 0.0702143982052803, -0.016696734353899956, -0.07929771393537521, -0.4018274247646332, -0.05822986736893654, -0.04976580664515495, 0.0565539188683033, -0.13841135799884796, 0.07301311939954758, 0.04472702369093895, -0.06480575352907181, -0.07500679045915604, 0.0021839626133441925, 0.03820130601525307, 0.022736569866538048, 0.313443660736084, -0.16577112674713135, 0.09034764021635056, -0.2463080734014511, -0.6740062832832336, -0.07916759699583054, 0.18021346628665924, -0.04159024730324745, -0.3412148952484131, 0.1847863346338272, 0.035974714905023575, 0.13210169970989227, -0.05145912244915962, 0.11280561238527298, 0.020817024633288383, -0.11729689687490463, 0.23983876407146454, 0.013473914004862309, 0.22568915784358978, -0.22384525835514069, -0.20504166185855865, 0.10239104181528091, 0.023156819865107536, 0.011488930322229862, -0.004223732743412256, -0.027797279879450798, -0.015445648692548275, 0.02263011783361435, 0.3357321321964264, 0.18175791203975677, 0.1079154834151268, 0.1898733377456665, 0.6088539361953735, -0.12624822556972504, -0.07439875602722168, 0.061797890812158585, 0.030396362766623497, -0.09453904628753662, -0.07353269308805466, -0.17546100914478302, 0.07949384301900864, -0.08326613157987595, 0.1313072293996811, -0.03797641769051552, 0.0030987542122602463, -0.02062751166522503, 0.06183946505188942, 0.04966453090310097, 0.06818466633558273, 0.1655748039484024, -0.11757909506559372, -0.05309588089585304, 0.11573200672864914, -0.06556499749422073, -0.08936022967100143, 0.15501287579536438, -0.07928235828876495, 0.11423074454069138, -0.06162869557738304, -0.18124942481517792, -0.1585725098848343, 0.06075585260987282, -0.10843626409769058, -0.19541127979755402, 0.2559380531311035, 0.0548052154481411, -0.09570849686861038, -0.0750451609492302, -0.09983714669942856, -0.08132392913103104, -0.007951885461807251, 0.043784450739622116, -0.038468245416879654, -0.1981225162744522, 0.01828649453818798, -0.002267681062221527, 0.05287737026810646, 0.08341062813997269, 0.08623247593641281, 0.11054003983736038, 0.3401438295841217, 0.11896275728940964, 0.013059690594673157, 0.07212986052036285, -0.3680078685283661, -0.14142335951328278, -0.01519011054188013, 0.2633782625198364, -0.3746100962162018, 0.11801575869321823, 0.058280762284994125, 0.2511129081249237, -0.6124244928359985, -0.019588841125369072, -0.12487030774354935, -0.08109370619058609, 0.02474178373813629, -0.014167682267725468, -0.12246561795473099, -0.1898762434720993, -0.24514472484588623, 0.08422673493623734, 0.274809867143631, 0.017390010878443718, 0.299643874168396, -0.09236066788434982, -0.11552918702363968, -0.2704966366291046, -0.41072797775268555, 0.19909478724002838, -0.02121168188750744, 0.25560230016708374, 0.13313846290111542, -0.06915230304002762, 0.015185012482106686, -0.055660877376794815, -0.15271992981433868, 0.12900005280971527, -0.043350253254175186, 0.08947136253118515, -0.29055655002593994, 0.005359590519219637, 0.0796828344464302, 0.1573878973722458, 0.3114316165447235, -0.3342651426792145, 0.0518077053129673, 0.30730587244033813, -0.10318382829427719, 0.11676353961229324, -0.0976497158408165, -0.011245560832321644, 0.20125378668308258, 0.22125579416751862, 0.06274999678134918, 0.1791839748620987, 0.059558507055044174, -0.22747109830379486, 0.005137590225785971, -0.03584980219602585, -0.0257358830422163, 0.015221030451357365, 0.07332826405763626, -0.25524675846099854, 0.04619216546416283, 0.003203421598300338, 0.4214037358760834, 0.2809772193431854, 0.08581029623746872, 0.05142610892653465, 0.07710667699575424, 0.3028927147388458, -0.006907493341714144, -0.16489805281162262, -0.1862512081861496, -0.3334433138370514, 0.021934164687991142, -0.01062211487442255, 0.028322411701083183, 0.3533271253108978, 0.19065354764461517, 0.06282644718885422, 0.05939457193017006, 0.2952357232570648, -0.24729777872562408, -0.03293854370713234, -0.13136635720729828, -0.09563916176557541, -0.06546907871961594, -0.00854631420224905, -0.14297263324260712, 0.02356170304119587, -0.038958851248025894, 0.15875361859798431, 0.15751205384731293, 0.3693108856678009, 0.2840001881122589, -0.057778239250183105, 0.03185170888900757, -0.4558892250061035, 0.1320200115442276, 0.09789079427719116, -0.04972044751048088, -0.06665133684873581, 0.05277416110038757, -0.08560710400342941, -0.006346841808408499, 0.00856067705899477, 0.047465983778238297, -0.06037021055817604, 0.024994105100631714, -0.41632387042045593, -0.0014610652578994632, -0.03390437737107277, -0.1626034528017044, 0.06571397930383682, -0.027266057208180428, -0.0828639343380928, 0.15274196863174438, 0.4091547429561615, 0.12484525889158249, -0.03622424229979515, -0.17696405947208405, -0.019631238654255867, 0.036440785974264145, 0.08538740873336792, -0.0407295860350132, 0.09181129187345505, -0.08956121653318405, -0.07131970673799515, 0.03055466152727604, -0.012596002779901028, -0.088180311024189, 0.06404650956392288, -0.01213562861084938, 0.16220465302467346, -0.011833623051643372, 0.03115600161254406, -0.2799202799797058, -0.11389213055372238, 0.1615598201751709, -0.01727384142577648, 0.16061238944530487, 0.052172720432281494, -0.12173258513212204, 0.2506740391254425, 0.1394079625606537, 0.011233332566916943, 0.11658228188753128, 0.13100551068782806, 0.14129894971847534, 0.008581741712987423, -0.06153344735503197, 0.0564153827726841, 0.1163870096206665, 0.111430823802948, -0.046450261026620865, 0.12720586359500885, -0.13476182520389557, 0.45995453000068665, 0.1469949334859848, -0.07394140213727951, 0.27279430627822876, 0.2328748106956482, -0.05093694105744362, -0.01006572786718607, -0.09189575910568237, -0.020007213577628136, 0.012538800947368145, 0.10571825504302979, 0.27547910809516907, 0.3414745628833771, 0.10930842161178589, -0.05397401377558708, -0.04864569008350372, 0.05330394580960274, 0.04555201902985573, -0.05434548854827881, 0.1696891039609909, 0.05217494070529938, -0.1008320227265358, 0.09975243359804153, 0.08586249500513077, -0.1882675737142563, 0.03840133175253868, 0.11219704896211624, -0.020177334547042847, 0.1346154361963272, -0.028948547318577766, -0.044357750564813614, 0.1480236053466797, -0.038426902145147324, 0.03740603104233742, -0.06393551826477051, -0.06228186562657356, -0.41383376717567444, 0.10298358649015427, -0.07392258197069168, -0.04288734495639801, 0.19301943480968475, -0.10834089666604996, 0.10723782330751419, 0.1486932635307312, -0.17787282168865204, -0.04359087347984314, -0.11744462698698044, -0.07947316765785217, -0.21477924287319183, 0.07249975204467773, -0.1863023042678833, 0.2785796523094177, 0.0768168568611145, -0.31656602025032043, -0.059924546629190445, 0.181203231215477, 0.13701392710208893, -0.10259633511304855, -0.05540229380130768, 0.0684226006269455, 0.12678375840187073, 0.1700126677751541, 0.2047773152589798, 0.03531331196427345, 0.25642356276512146, -0.19514010846614838, -0.18134577572345734, 0.05924447998404503, -0.10207551717758179, -0.017039569094777107, 0.08698630332946777, -0.27038565278053284, -0.05865245684981346, 0.22474098205566406, 0.17422819137573242, 0.012998715043067932, -0.05556594952940941, 0.022931186482310295, 0.03568393737077713, -0.259969562292099, -0.012649030424654484, 0.15836773812770844, 0.043384894728660583, -0.0007638575043529272, -0.07762222737073898, -0.2553658187389374, -0.1835896521806717, -0.3037198483943939, 0.0747460201382637, 0.04726242646574974, -0.11108419299125671, 0.06036313250660896, 0.011271030642092228, 0.028123078867793083, -0.10397215932607651, -0.3363474905490875, 0.08601700514554977, 0.05095783993601799, -0.18917949497699738, -0.08186248689889908, 0.09997505694627762, -0.12169455736875534, -0.060123275965452194, 0.008271063677966595, -0.1234823539853096, 0.0046819341368973255, -0.25396889448165894, 0.42054060101509094, 0.050597187131643295, -0.0033008356112986803, 0.014426968060433865, -0.05750744417309761, -0.04913092032074928, -0.2052648812532425, 0.018861673772335052, 0.0871492549777031, 0.1204834058880806, 0.030638454481959343, 0.001504204235970974, 0.3823988139629364, -0.05651700124144554, 0.06359624117612839, 0.05258815363049507, -0.23102056980133057, -0.12417960911989212, -0.06694734841585159, -0.12497005611658096, -0.25812146067619324, -0.02489415742456913, 0.06540273874998093, 0.25729164481163025, -0.12660634517669678, 0.24661467969417572, 0.027276376262307167, 0.012665773741900921, 0.10147551447153091, 0.1110619381070137, -0.023418409749865532, -0.06179972365498543, -0.1322876363992691, -0.05537211522459984, -0.006428889464586973, -0.0004790178791154176, -0.3591100871562958, 0.12250138074159622, 0.11990488320589066, -0.09700361639261246, -0.35030397772789, 0.0046358187682926655, 0.19957087934017181, 0.13181373476982117, -0.4512501657009125, -0.19481171667575836, -0.019184691831469536, -0.48017606139183044, 0.04530505836009979, -0.02312028594315052, 0.15478993952274323, 0.06997961550951004, 0.11312437057495117, -0.1865823119878769, 0.12506867945194244, -0.21071040630340576, -0.011724322102963924, 0.1534501165151596, -0.022167610004544258, -0.013661562465131283, -0.12521807849407196, 0.024519948288798332, 0.13229908049106598, -0.36249208450317383, -0.4867269694805145, 0.18109296262264252, 0.09962760657072067, 0.14508256316184998, 0.2733146548271179, -0.012216582894325256, -0.0019399375887587667, 0.057570818811655045, 0.1799878031015396, -0.06098419800400734, -0.09051584452390671, 0.20712624490261078, 0.10323691368103027, 0.07840495556592941, -0.16735325753688812, -0.0223279669880867, -0.3430193364620209, 0.06946790963411331, 0.09568964689970016, -0.023206626996397972, -0.11647262424230576, -0.1311710923910141, 0.048254843801259995, 0.09121646732091904, 0.10216758400201797, -0.07696855068206787, 0.017732230946421623, 0.1274038404226303, -0.4894876182079315, 0.05423182621598244, -0.08966737240552902, -0.31800463795661926, 0.10088687390089035, 0.06303954869508743, -0.004277214873582125, -0.2830984890460968, 0.08063260465860367, -0.13788475096225739, 0.13105355203151703, -0.13976643979549408, -0.30767956376075745, 0.10174465924501419, 0.01620107889175415, -0.05229708552360535, -0.3319442868232727, 0.007758944761008024, -0.0038975554052740335, -0.31863173842430115, 0.01872919872403145, -0.060318831354379654, -0.10877691954374313, 0.011183619499206543, -0.10257947444915771, 0.1597694307565689, 0.15435992181301117, -0.15200623869895935, -0.1405005156993866, 0.10299766808748245, -0.18506653606891632, -0.18358828127384186, -0.211776003241539, -0.2415371984243393, -0.26501357555389404, 0.03734457865357399, -0.29291513562202454, -0.2566364109516144, -0.04126184061169624, 0.10327192395925522, 0.11751913279294968, 0.0740695521235466, 0.03395797684788704, 0.014685631729662418, 0.03605115786194801, -0.056405965238809586, 0.293792188167572, 0.03748251497745514, -0.10347295552492142, -0.07357806712388992, -0.27857619524002075, -0.2283215969800949, -0.09778041392564774, -0.16736780107021332, 0.30727776885032654, -0.10628525167703629, 0.21307732164859772, 0.222214475274086, -0.20853620767593384, -0.013659440912306309, 0.03317051753401756, -0.17712174355983734, 0.04544699564576149, 0.009860135614871979, -0.18064679205417633, -0.08714313060045242, 0.23206810653209686, -0.032923340797424316, -0.08420909196138382, 0.0735781118273735, -0.12514859437942505, 0.29661670327186584, -0.08675443381071091, -0.19285307824611664, 0.2557503581047058, 0.3121477961540222, -0.04351199045777321, -0.03749721869826317, -0.001869212370365858, -0.04826372489333153, -0.04319476708769798, -0.15922047197818756, -0.07365971058607101, 0.12113312631845474, -0.0823785588145256, 0.031197132542729378, 0.10622041672468185, -0.4472428262233734, 0.07130897045135498, -0.024817703291773796, 0.061499789357185364, -0.2407558560371399, -0.05809640511870384, 0.02725883387029171, -0.17704015970230103, -0.3096618950366974, 0.03313744440674782, -0.007857673801481724, -0.14760078489780426, 0.18909603357315063, -0.08443146198987961, -0.09283392876386642, 0.10620098561048508, -0.30323663353919983, -0.0010712648509070277, -0.03157883509993553, 0.34862998127937317, -0.5274787545204163, -0.03686779737472534, 0.010743462480604649, 0.0339428149163723, 0.06279002875089645, 0.11192429810762405, -0.11388743668794632, 0.16723065078258514, -0.0916605219244957, 0.061841849237680435, 0.04824152961373329, -0.14393074810504913, 0.14982284605503082, 0.03196292743086815, -0.04559871926903725, -0.060885801911354065, -0.3246235251426697, -0.145455464720726, -0.05934399738907814, -0.2589398920536041, -0.05645604059100151, -0.13390444219112396, 0.01947726495563984, 0.003580530174076557, -0.10576418787240982, -0.020871831104159355, 0.13077805936336517, -0.27975186705589294, -0.24277503788471222, 0.04433083161711693, -0.058385733515024185, 0.09568506479263306, 0.059141505509614944, -0.18575476109981537, 0.014581828378140926, -0.04861423745751381, -0.12179383635520935, 0.14627815783023834, -0.015955179929733276, 0.09075979143381119, 0.4413074254989624, -0.053866270929574966, 0.03535482659935951, 0.028865328058600426, -0.2987229526042938, 0.11303853243589401, 0.01113844569772482, -0.08879826217889786, 0.19670747220516205, 0.102344810962677, 0.018871471285820007, 0.0014392485609278083, 0.24831123650074005, -0.025143412873148918, 0.081328384578228, 0.010712864808738232, 0.1669211983680725, 0.1559629589319229, -0.014763905666768551, 0.029044615104794502, -0.364292174577713, -0.19477294385433197, 0.11611544340848923, -0.11268135905265808, 0.10613017529249191, 0.17515753209590912, -0.0028707568999379873, 0.13908818364143372, -0.29245251417160034, 0.2193567007780075, -0.17603160440921783, 0.2718816101551056, -0.10562103986740112, 0.0892750546336174, 0.050974901765584946, 0.4448251724243164, 0.32648807764053345, 0.10665150731801987, -0.022897420451045036, 0.23130829632282257, 0.4473390281200409, -0.033293187618255615, 0.03604975715279579, 0.1117500439286232, -0.25764214992523193, -0.02578902058303356, -0.07700646668672562, 0.2526695430278778, -0.296238511800766, 0.1605677455663681, -0.008867024444043636, 0.10954445600509644, 0.18443584442138672, 0.03572991117835045, 0.11417665332555771, -0.23547406494617462, 0.20308905839920044, -0.39702108502388, 0.2912459075450897, 0.13636642694473267, -0.06340903788805008, -0.1691633015871048, 0.0887255072593689, -0.2199353575706482, -0.09559159725904465, -0.034836526960134506, -0.00868184119462967, 0.2534627616405487, -0.15615308284759521, -0.03505825623869896, 0.07748527079820633, -0.006001881789416075, -0.009895860217511654, 0.09791906923055649, -0.11826198548078537, 0.18910335004329681, 0.07125388830900192, -0.22516630589962006, 0.14104397594928741, -0.19740323722362518, 0.1328558772802353, 0.019567983224987984, -0.053810473531484604, 0.4349001348018646, 0.08487396687269211, 0.26531603932380676, 0.03449762985110283, 0.5774878859519958, 0.016555102542042732, 0.045012298971414566, -0.21469326317310333, 0.5944950580596924, 0.3844437301158905, -0.014096544124186039, 0.2993386387825012, 0.2685612142086029, 0.21808969974517822, -0.13214148581027985, -0.20967406034469604, -0.2226220965385437, -0.015445097349584103, 0.30203482508659363, -0.0095325643196702, -0.09827938675880432, -0.013416563160717487, 0.01898312382400036, 0.12008783221244812, 0.6519254446029663, -0.2002079337835312, -0.22475861012935638, -0.0686485692858696, -0.14547552168369293, 0.12253154069185257, 0.020084349438548088, -0.1196853294968605, -0.02733483910560608, 0.15061213076114655, 0.09252818673849106, 0.1397666186094284, 0.08939877152442932, -0.06581038981676102, -0.022540288046002388, -0.07924357801675797, 0.23859567940235138, -0.04640892520546913, -0.10297263413667679, -0.42747020721435547, -0.006948763504624367, 0.09242164343595505, 0.007696316111832857, 0.06090615689754486, -0.20802533626556396, 0.10018793493509293, -0.14882276952266693, -0.33014628291130066, -0.23783385753631592, 0.05008500814437866, -0.12479209154844284, 0.20173205435276031, -0.17236967384815216, 0.1246417686343193, -0.08091486245393753, 0.06426161527633667, 0.23159509897232056, 0.08142877370119095, 0.12257158011198044, -0.25239482522010803, -0.07973461598157883, 0.08664704114198685, -0.09836024791002274, 0.003775756573304534, 0.13090068101882935, 0.055650707334280014, -0.12228893488645554, -0.0617217980325222, 0.28728941082954407, 0.15122900903224945, -0.015485494397580624, -0.09230625629425049, -0.22449201345443726, 0.011721118353307247, 0.1517340987920761, 0.007986498065292835, 0.21818900108337402, -0.036952074617147446, 0.009159579873085022, -0.05345435068011284, -0.2651698887348175, 0.07147281616926193, -0.12430881708860397, -0.10039228945970535, 0.053015027195215225, 0.03788774833083153, 0.12203586846590042, 0.04536917433142662, -0.553565502166748, 0.11901522427797318, 0.08146774023771286, 0.006499011535197496, 0.345206618309021, -0.0835576131939888, 0.13347016274929047, -0.1426890343427658, 0.005268844310194254, 0.017353294417262077, 0.14472626149654388, 0.004014977719634771, -0.2648199796676636, -0.026278892531991005, 0.16216696798801422, 0.14985716342926025, 0.07055456191301346, -0.022516785189509392, 0.07242833822965622, -0.0366968996822834, -0.1493270844221115, -0.0922861099243164, -0.02135409228503704, -0.004874908830970526, 0.1645427942276001, 0.0179643202573061, -0.1607220321893692, -0.11033239960670471, -0.10715819150209427, -0.1302405744791031, -0.04471570625901222, -0.010313720442354679, -0.33037069439888, -0.07398880273103714, -0.034718211740255356, -0.03777163103222847, -0.1741349846124649, 0.07042700052261353, -0.013810918666422367, -0.07766168564558029, -0.4360229969024658, 0.20844008028507233, -0.11801517754793167, 0.08604589104652405, -0.04148884490132332, 0.061268266290426254, -0.15614081919193268, 0.2965090870857239, 0.2139328569173813, 0.02146700583398342, 0.03937842324376106, -0.025866081938147545, 0.10945966094732285, -0.27438125014305115, -0.032168757170438766, -0.013509453274309635, 0.3922762870788574, -0.12309053540229797, 0.013762560673058033, -0.3021746873855591, -0.07741009443998337, -0.050506945699453354, 0.13857196271419525, 0.07141008228063583, -0.13357745110988617, 0.08000082522630692, -0.04613792523741722, 0.07135092467069626, 0.19680006802082062, 0.03164529427886009, 0.2308313399553299, -0.060810115188360214, 0.0912419930100441, -0.006999641191214323, 0.19536225497722626, -0.11034765094518661, 0.06401544064283371, 0.2510359585285187, 0.1385508030653, 0.07383102178573608, 0.05950487032532692, 0.12756143510341644, 0.08070141077041626, -0.33686015009880066, 0.1600957065820694, 0.06262660026550293, -0.36193811893463135, -0.15617646276950836, 0.022232994437217712, -0.0017315720906481147, 0.0007269823108799756, -0.38579413294792175, -0.09314101189374924, 0.07258344441652298, 0.1035732850432396, -0.09721478819847107, -0.1972172111272812, 0.08972585946321487, 0.014168478548526764, -0.1623581498861313, -0.17388296127319336, 0.013724193908274174, -0.24906425178050995, -0.3961917459964752, -0.09114284068346024, 0.07840918749570847, 0.19999444484710693, -0.4115467071533203, -0.1492917686700821, 0.0885302945971489, 0.09977364540100098, -0.23172898590564728, 0.05861878767609596, 0.02742713876068592, -0.03605596348643303, -0.0800936371088028, 0.03221786394715309, -0.13360725343227386, 0.0737798735499382, -0.17215877771377563, 0.028162213042378426, 0.22407864034175873, 0.016880672425031662, -0.01401820033788681, 0.07389294356107712, 0.022992195561528206, 0.051589082926511765, -0.3131561577320099, 0.03569262847304344, 0.09199195355176926, -0.00557761499658227, 0.23770584166049957, 0.08631777763366699, 0.19575391709804535, 0.039535846561193466, -0.3677445650100708, -0.22354362905025482, -0.015898512676358223, 0.049612317234277725, -0.4037059247493744, 0.10407334566116333, 0.07487291842699051, 0.14080914855003357, 0.14109674096107483, 0.11916304379701614, -0.10812155157327652, -0.08201134949922562, 0.013507979921996593, -0.029697207733988762, -0.007648364175111055, -0.036673903465270996, -0.20104272663593292, -0.100784532725811, -0.006958514917641878, -0.3028297424316406, -0.11330360919237137, -0.15180517733097076, 0.12298882752656937, 0.07973403483629227, 0.20535142719745636, -0.11995471268892288, -0.0649266168475151, -0.22356580197811127, -0.1650228053331375, 0.2344977706670761, 0.21507428586483002, -0.19110439717769623, 0.2041475623846054, 0.1358008235692978, 0.021433087065815926, -0.3071897327899933, -0.38667306303977966, -0.06789427250623703, 0.025717345997691154, -0.33875322341918945, -0.04436199367046356, 0.0907515212893486, -0.04672926291823387, -0.2856593132019043, 0.10867931693792343, -0.17917585372924805, 