{"structure_edges": [[-1, 0, 1], [-1, 5, 1], [5, 6, 1], [6, 7, 1], [-1, 20, 1], [20, 21, 1], [21, 22, 1], [-1, 30, 1], [30, 33, 1], [33, 34, 1], [-1, 35, 1], [35, 38, 1], [38, 39, 1]], "structure_weights": {"mu": [-2.9444769749248505, -1.3711944320690026, 1.2710802458452999, -2.089896663098781, -1.3274837983033136, 0.0, 0.0, -0.21882099778181313, -1.5523516460498026, 1.6956423248875723, -1.868944703836453, -0.6808463850412593, -0.8182124539307155, 0.007524414006051877, 0.0, 0.0, -1.6768974200955946, 0.6414970113490466, -2.8971750225145643, -0.47806999870029043, 0.35068215049590457, -1.218735170648997, -1.4732771523253418, 0.0, 0.0, 0.2602731601636874, 0.9876198674194454, -2.7433536610431783, -1.2737946272753586, -0.7115648624846377, 0.04056304121197721, -0.055736246754827336, 0.0, 0.0, -0.4984186822733362, 0.023103478082723408, -2.6606317258499677, -0.6873293602132832, -1.256718914121163, -1.5376912226626238, -1.4651376827987646, 0.0, 0.0, 0.03857841512630938, 0.12988788213948413, -1.621971016308296, -1.5717292112969632, 2.903580587510416, -0.36115309405764295, -1.789831736000966, 0.0, 0.0, 0.8602355452468996, 0.29003238432231404, -2.9332476408128736, -1.5279977408060608, 1.8009042894018212, -0.03595026565846762, 0.10767827686353905, 0.0, 0.0, -0.4551592415406921, -0.2023980192990569, -1.6836741787121499, -0.8744258444953391, 2.8966807321533183, -0.4303778567061656, -1.628278963743438, 0.0, 0.0, 1.0848520629377825, 0.009423244859413437, -1.0829865738547162, -0.9464576125340585, -0.4916952919429402, 0.11143924796070802, 0.07341779720964577, 0.0, 0.0, -0.003329003837781, 0.0822538555137379, -1.7804023707740189, -0.8189787713663017, -2.1648842110392255, -0.7907134346374683, -1.4265890541146329, 0.0, 0.0, -0.3715139876711099, -0.3621788765737647, -1.4746707208198047, -0.7284091144182943, 1.402241172579976, -0.3612424399152127, -1.577181095451616, 0.0, 0.0, -0.7275085569045278, -0.7148501571224035, -1.3376083798606293, -0.8310335266184266, -0.6495681236926331, -0.06282456371752963, -0.16645100582423922, 0.0, 0.0, 0.36847530172217063, -0.6662805344462824, -0.7848778701674473, -0.38250992965192104, -1.6427795040108304, 0.4326614958240448, -1.1074303615380359, 0.0, 0.0, -0.2656496923998272, 0.0922543144805715, -0.2916699334102684, -0.8476796484099253, -1.0490015958975147, -0.8268462414614088, 0.47885026128854147, 0.0, 0.0, 0.07807263591849818, -1.0379819338676926, -1.148787844156207, -0.20872705458104726, -2.0318190504492293, -0.31929860526830295, -1.208086552734826, 0.0, 0.0, 0.06410250854572506, -0.08688754739717636, -0.18604470175407098, -1.0355911518898686, -2.293040750589319, 1.1459974149771124, -1.3056102466412192, 0.0, 0.0, -0.7609652784334894, -0.08494955249711646, -0.7625669460799679, -0.9923567546352736, 0.11948505890257467, -0.09451531453630171, 0.18073259457116728, 0.0, 0.0, -0.3100199239783927, 0.3608991194528018, -0.7851860084769473, -0.4503314812706151, -1.1156289472180208, 0.16313681403883956, -1.318529800406376, 0.0, 0.0, -0.11670119430489591, 0.012574080518841783, -0.23186587311122359, -1.4192895336608613, -1.643589997132695, 0.2219587443564255, 0.04885623393881052, 0.0, 0.0, 0.009696534671496296, -0.007523222145021979, -0.6760230736108355, -1.0367164836269653, -2.1771110544549006, 1.0601409773240962, -1.3453939440113116, 0.0, 0.0, -0.08208474799270941, 0.3426588987803155, 0.3016096918519881, -0.5714914439266784, 3.082320947192734, 1.3327910241230925, -0.870618942173441, 0.0, 0.0, 0.535852483674141, 0.0627683897364076, -0.46149200634037085, -0.5653225742957354, 0.9666745746202197, -0.6565922862307919, 0.7969474781885879, 0.0, 0.0, -0.22068830225477082, 1.3443190196999053, -1.468008515701935, -1.1843628082005624, -0.27965613649222565, 1.8778653889771426, -1.0719265371033757, 0.0, 0.0, 1.0272211967036633, -0.20102429913711195, 0.40041249180978467, -1.2340746630675414, -1.1467717439411202, -0.2884545740430172, 0.363130975793958, 0.0, 0.0, -0.29252908415211043, 0.01569222194757011, 0.5230804078746913, -0.49409956441066966, -1.1485029694263489, 1.6676546982137097, -1.3407714599260518, 0.0, 0.0, 0.21312464324073313, -0.2597171971306635, 0.11024203956546794, -2.8614405252082267, -1.8007690183416079, 2.6927960526154577, -1.5593437687452258, 0.0, 0.0, -0.38018075298664705, -1.5051195486743767, -0.028286389081761603, -1.156328120896899, -1.638047829163237, -0.16195675780871288, -0.26317189776986455, 0.0, 0.0, -0.30860150326276253, -0.36493243089970157, 0.520050190031106, -0.8311643482182038, -1.4038219745225207, 1.7279678136616277, -1.7154022665863171, 0.0, 0.0, 0.580667479889772, 0.13532325799309902, 1.3868897026374536, -1.3639062276416531, -2.2013759364823664, 0.0862454300082833, 0.1562232907136012, 0.0, 0.0, -0.09410998096039275, 0.5717289076356352, 0.5384891145495619, -0.5933387844831091, -2.1527341366954684, 1.148854995054756, -1.3381154517301508, 0.0, 0.0, -0.1214202907009377, 0.2679342353419348, 0.775609108235302, -1.1550944219580903, 2.9530601255546403, 2.9538514093864627, -0.7776259103797903, 0.0, 0.0, 0.37586135249205915, -0.37876498582378426, 0.9157261592206609, -1.1923950749935257, -0.4882267697242285, -0.6085941589760471, -0.3037384267205946, 0.0, 0.0, 0.15049025105080077, -0.26137354913621996, 1.2081090622175694, -0.6218597926908177, -1.1668594207425473, 2.18393382922992, -1.2184847731456203, 0.0, 0.0, 0.14169448320788486, -0.6899959932821872, 1.6141732199098489, -0.9026172544373816, 0.43607147797893503, 0.28792624516045084, 0.06657373090089438, 0.0, 0.0, -0.719711188572203, -1.0777350028803663, 2.371325111806636, -1.1945650497224667, 0.038562347971412836, 3.51755411768929, -2.984819247232536, 0.0, 0.0, -0.061539225676606184, -0.8599625032338262, 1.538497967122662, -1.6456591992134038, 0.478435294202047, 3.1250000502921473, -0.9285988536558907, 0.0, 0.0, 0.9621835585122865, 0.22330946236706076, 1.1355944469979877, -1.8526773250425275, -0.9492017523394811, 0.03726012936963971, -0.02046137716524808, 0.0, 0.0, -0.3581219680767764, 0.09066851486841977, 1.5780207138897948, -0.9907413832315192, -2.0523290301148034, -2.1381894815485345, -1.336219301851719, 0.0, 0.0, 0.2538495036813291, 0.532813924684181, 1.494299243718563, -1.636090371199699, 0.033938014246679714, 0.18636798732533422, 0.4784857172146165, 0.0, 0.0, -0.8770494435841654, 0.11779556726149776, 1.5340648121161022, -1.0601337980880994, 1.3644374252065568, -3.566502447423026, -1.652229962890098, 0.0, 0.0, 0.3463118349003504, -0.6822894158024834], "sigma": [0.09999997636713964, 0.028151907056418412, 0.010484200622221716, 0.01, 0.014892886891972044, 0.1, 0.1, 0.01, 0.11653566164791432, 0.1, 0.1, 0.1, 0.1, 0.1, 0.1, 0.1, 0.1, 0.1, 0.1, 0.1, 0.1, 0.1, 0.1, 0.1, 0.1, 0.1, 0.1, 0.1, 0.1, 0.1, 0.1, 0.1, 0.1, 0.1, 0.1, 0.1, 0.1, 0.1, 0.1, 0.1, 0.1, 0.1, 0.1, 0.1, 0.1, 0.02489904216286663, 0.01, 0.09999998019045621, 0.0324371326947436, 0.011146481544339318, 0.1, 0.1, 0.23736830887367616, 0.08355428973785589, 0.01, 0.011785909887835982, 0.12941810651267657, 0.4168672556152577, 0.0253129221516833, 0.1, 0.1, 0.3870881106570147, 0.4209806791745426, 0.013451252480750587, 0.032975334496898066, 0.09999998124117046, 0.010388312818711658, 0.06845407705761845, 0.1, 0.1, 0.20470931296297248, 0.3149159400432563, 0.1, 0.1, 0.1, 0.1, 0.1, 0.1, 0.1, 0.1, 0.1, 0.1, 0.1, 0.1, 0.1, 0.1, 0.1, 0.1, 0.1, 0.1, 0.1, 0.1, 0.1, 0.1, 0.1, 0.1, 0.1, 0.1, 0.1, 0.1, 0.1, 0.1, 0.1, 0.1, 0.1, 0.1, 0.1, 0.1, 0.1, 0.1, 0.1, 0.1, 0.1, 0.1, 0.1, 0.1, 0.1, 0.1, 0.1, 0.1, 0.1, 0.1, 0.1, 0.1, 0.1, 0.1, 0.1, 0.1, 0.1, 0.1, 0.1, 0.1, 0.1, 0.1, 0.1, 0.1, 0.1, 0.1, 0.1, 0.1, 0.1, 0.1, 0.1, 0.1, 0.1, 0.1, 0.1, 0.1, 0.1, 0.1, 0.1, 0.1, 0.1, 0.1, 0.1, 0.1, 0.1, 0.1, 0.1, 0.1, 0.1, 0.1, 0.1, 0.1, 0.1, 0.1, 0.1, 0.1, 0.1, 0.1, 0.1, 0.1, 0.1, 0.1, 0.1, 0.1, 0.1, 0.1, 0.1, 0.1, 0.013199188316526193, 0.014016685368259016, 0.0999999589555884, 0.01, 0.012528845865745328, 0.1, 0.1, 0.2803346599456265, 0.039987832561924556, 0.013175783412599019, 0.05486636680994217, 0.042643041703019385, 0.024069264238119906, 0.04003244637975631, 0.1, 0.1, 0.21125717617626338, 0.322399439806299, 0.029543882194398415, 0.01753125682876421, 0.09176571287481425, 0.016506850880757783, 0.09535769878718041, 0.1, 0.1, 0.3055227344422236, 0.5293816929072117, 0.1, 0.1, 0.1, 0.1, 0.1, 0.1, 0.1, 0.1, 0.1, 0.1, 0.1, 0.1, 0.1, 0.1, 0.1, 0.1, 0.1, 0.1, 0.1, 0.1, 0.1, 0.1, 0.1, 0.1, 0.1, 0.1, 0.1, 0.1, 0.1, 0.1, 0.1, 0.1, 0.1, 0.1, 0.1, 0.1, 0.1, 0.1, 0.1, 0.1, 0.1, 0.1, 0.1, 0.1, 0.1, 0.1, 0.1, 0.1, 0.1, 0.1, 0.1, 0.1, 0.1, 0.1, 0.1, 0.1, 0.1, 0.1, 0.1, 0.1, 0.1, 0.1, 0.1, 0.01, 0.013969139390626628, 0.09999997461472555, 0.09999997517767459, 0.012436387601322006, 0.1, 0.1, 0.05464263138246393, 0.0778795198331209, 0.1, 0.1, 0.1, 0.1, 0.1, 0.1, 0.1, 0.1, 0.1, 0.1, 0.1, 0.1, 0.1, 0.1, 0.1, 0.1, 0.1, 0.1, 0.01, 0.023456019908043208, 0.14589492854824035, 0.16106950164183, 0.027072890143021246, 0.1, 0.1, 0.13447288649640685, 0.2822269782622678, 0.029516168273341994, 0.010478265714996087, 0.0728463984353492, 0.09999987034184743, 0.09999997174657274, 0.1, 0.1, 0.3910282978510674, 0.44827093527003037, 0.01, 0.011855731074179927, 0.06841489586874992, 0.09999995153143655, 0.029109976998187615, 0.1, 0.1, 0.05303864425902776, 0.01, 0.1, 0.1, 0.1, 0.1, 0.1, 0.1, 0.1, 0.1, 0.1, 0.1, 0.1, 0.1, 0.1, 0.1, 0.1, 0.1, 0.1, 0.1, 0.01, 0.019722089904048352, 0.04627135718796494, 0.03944982601830724, 0.02987892844019423, 0.1, 0.1, 0.28080784450801993, 0.5186741505846421, 0.019806794676796868, 0.01, 0.10998466253898878, 0.09999985744397885, 0.019997779633429094, 0.1, 0.1, 0.015010364308485057, 0.11514142475322293]}, "policy_weights": [-0.0718894749879837, 0.2379865050315857, 0.05805247649550438, -0.0634918287396431, 0.19115136563777924, -0.07803917676210403, -0.19178350269794464, -0.09003520756959915, 0.3529391586780548, -0.5916605591773987, 0.12819184362888336, -0.019483597949147224, 0.09683378785848618, 0.7394810318946838, -0.13240587711334229, -0.10862969607114792, 0.04294544830918312, 0.07890022546052933, -0.03815626725554466, 0.05933183804154396, -0.1938491016626358, 0.7429041266441345, -0.030955610796809196, -0.1203768327832222, 0.20746810734272003, 0.3628513514995575, 0.040192846208810806, -0.013282583095133305, 0.11288011819124222, -0.7032503485679626, -0.06461197882890701, -0.11073911935091019, 0.16769371926784515, 0.41810545325279236, -0.03881830349564552, 0.016745714470744133, -0.37563756108283997, 0.10429096966981888, 0.11859167367219925, 0.10275708884000778, -0.12947380542755127, 0.3717034161090851, -0.04447931423783302, 0.191345676779747, -0.034647468477487564, 0.02527785487473011, 0.06162482127547264, 0.021996332332491875, -0.13371028006076813, -0.20559954643249512, -0.10433709621429443, -0.16433288156986237, -0.021390261128544807, 0.28013208508491516, -0.09513788670301437, -0.10158050805330276, 0.056947942823171616, 0.5137051939964294, -0.13408111035823822, 0.2974705398082733, -0.18996168673038483, -0.05069374665617943, 0.08934693783521652, 0.01698140986263752, -0.05011431500315666, 0.4394831955432892, -0.026384184136986732, -0.10694969445466995, -0.060832079499959946, 0.14936496317386627, -0.11724983900785446, 0.10914360731840134, 0.27525565028190613, 0.35570621490478516, 0.1542438268661499, 0.08498173207044601, 0.3135702311992645, 0.2756042778491974, -0.10760844498872757, -0.014258130453526974, 0.5433626770973206, 2.0319361686706543, 0.1526871770620346, 0.19958949089050293, -0.14394627511501312, -0.3964052200317383, 0.006775724235922098, 0.0023360515478998423, -0.2954385578632355, 0.09894870966672897, -0.006377922836691141, 0.027719048783183098, -0.05267233029007912, -0.2552199065685272, -0.18065454065799713, -0.022485537454485893, 0.09264392405748367, 0.22659684717655182, 0.06256705522537231, 0.14977861940860748, -0.2671057879924774, -0.04315725341439247, -0.027382967993617058, -0.02285526879131794, 0.048214416950941086, -0.3135964572429657, 0.18500502407550812, 0.118880994617939, 0.12399768084287643, 0.022123293951153755, -0.14777874946594238, -0.1292640119791031, 0.10026439279317856, 0.33768248558044434, -0.08996463567018509, 0.005764565896242857, -0.17816554009914398, 0.012023036368191242, -0.10028258711099625, -0.286284476518631, 0.013841976411640644, 0.5506433248519897, 0.0034182220697402954, 0.029136834666132927, 0.030297664925456047, -0.6932277083396912, 0.14845381677150726, 0.05909186601638794, -0.33971163630485535, -0.31458476185798645, -0.031691160053014755, 0.022662339732050896, -0.1818908005952835, 0.10847245901823044, 0.14380909502506256, 0.06199752911925316, 0.3013375401496887, -0.32182639837265015, 0.23255445063114166, -0.08079826086759567, -0.06863116472959518, -0.11132729798555374, -0.18116413056850433, 0.09383951872587204, -0.17971085011959076, 0.2272488921880722, -0.15042604506015778, 0.261264830827713, 0.07737142592668533, 0.15474273264408112, -0.062460724264383316, 0.07014299184083939, 0.06057993695139885, 0.6365985870361328, -0.03772559389472008, 0.20818136632442474, -0.30797702074050903, -0.2781272232532501, 0.12996865808963776, 0.0459788478910923, -0.11611052602529526, -0.083229199051857, 0.00394052267074585, 0.1680576652288437, 0.3441316783428192, 0.17189998924732208, 0.43622907996177673, 0.1588989645242691, -0.7809963822364807, 1.4552429914474487, 0.3283819556236267, 0.14746937155723572, -0.38028642535209656, 0.03412678465247154, -0.02496844343841076, 0.1575263887643814, -0.05262957140803337, 0.13564585149288177, 0.174666628241539, 0.11053026467561722, -0.5002289414405823, -0.052984077483415604, -0.037881676107645035, -0.073123037815094, 0.12427639216184616, 0.10212243348360062, 0.03658634424209595, 0.3469085395336151, 0.25145670771598816, -0.01825711317360401, 0.21182791888713837, -0.21201260387897491, 0.02024918608367443, 0.12470114976167679, -0.029358265921473503, 0.0339016355574131, -1.1094657182693481, 0.03301742672920227, 0.02126323990523815, -0.1388254016637802, -0.03892349824309349, 0.16665004193782806, -0.28902626037597656, 0.05388382077217102, 0.14043210446834564, 0.24904845654964447, 0.08773719519376755, -0.2784373462200165, 0.4636687934398651, 0.045785222202539444, -0.03020551986992359, -0.06041019782423973, 0.3336391746997833, 0.01982090063393116, -0.12032925337553024, -0.17456412315368652, 0.0809977725148201, 0.04216933622956276, 0.07655036449432373, -0.039475176483392715, -0.017245708033442497, -0.13380597531795502, 0.0013675278751179576, 0.0284652728587389, -0.664802610874176, -0.03860434889793396, -0.03648906946182251, 0.39284947514533997, 0.5267568230628967, -0.060603026300668716, -0.20988829433918, -0.013967410661280155, -0.023577401414513588, 0.05730437859892845, -0.10301323980093002, 0.1322699785232544, 0.2545122802257538, 0.07570724934339523, 0.13096167147159576, 0.1445469707250595, 0.09951550513505936, 0.04797518625855446, -0.13508011400699615, -0.15355108678340912, 0.004521303344517946, 0.1485593467950821, 0.06986480206251144, 0.12727488577365875, 0.2603926658630371, 0.05680340901017189, -0.059966620057821274, -0.3235463798046112, -0.3848121464252472, 0.10190462321043015, -0.17316104471683502, -0.5731911659240723, 0.16165326535701752, -0.1290234476327896, 0.20651642978191376, -0.18274523317813873, -0.17937280237674713, -0.062305692583322525, -0.03615868464112282, 0.05287468805909157, 0.157844677567482, -0.15397417545318604, 0.17254091799259186, 0.14298845827579498, -0.3017154037952423, -0.007599123287945986, 0.08069104701280594, 0.09413035959005356, 0.32703688740730286, -0.07157932966947556, -0.15462161600589752, 0.046039167791604996, 0.20785658061504364, 0.0648161843419075, -0.1672760397195816, -0.3738371431827545, -0.42993274331092834, 0.0569380484521389, 0.14269673824310303, 0.32132217288017273, -0.1849265843629837, -0.08749978989362717, 0.08953201025724411, -0.04985571280121803, 0.24101664125919342, 0.10980892926454544, -0.004954793024808168, -0.5171356201171875, -0.22675347328186035, 0.08048183470964432, -0.12212289124727249, 0.20948012173175812, 0.26563575863838196, 0.14026273787021637, -0.08287274837493896, -0.1294778734445572, -0.26010963320732117, -0.12862063944339752, 0.19579267501831055, -0.1791926473379135, 0.9532929062843323, -0.06780188530683517, -0.0036287906114012003, 0.09852062910795212, -0.4261293113231659, -0.04464277997612953, -0.06829798966646194, 0.1698193997144699, 0.05263561010360718, -0.0022217032965272665, 0.17209364473819733, -0.09270238131284714, 0.07972531765699387, -0.07824968546628952, 0.06344520300626755, 0.014088482595980167, -0.3234078586101532, -0.006040140986442566, -0.03590526804327965, -0.1799098402261734, 0.6820068359375, 0.05940217152237892, 0.024752290919423103, 0.34882378578186035, 0.5818944573402405, 0.03352498635649681, 0.0686570480465889, -0.36480188369750977, 0.023799804970622063, -0.9481045603752136, 0.05247111991047859, 0.7245693802833557, -0.22032785415649414, 0.7829638123512268, 0.15979407727718353, -0.21263329684734344, -0.11515461653470993, 0.16374197602272034, 0.4365692436695099, 0.20055149495601654, 0.016813727095723152, 0.08479040116071701, -0.23849798738956451, -0.14091326296329498, 0.012582509778439999, -0.04512685164809227, 0.10880962759256363, 0.0633707121014595, -0.029726387932896614, -0.13126517832279205, 0.2707631289958954, -0.3020789325237274, -0.09624820202589035, -0.05046403780579567, -0.04245886579155922, -0.24443866312503815, -0.038549717515707016, -0.028932927176356316, -0.06249235197901726, -0.0709221288561821, -0.010973350144922733, -0.10675667971372604, 0.3864000141620636, -0.3446495234966278, 0.14299844205379486, -0.03581094741821289, 0.26923462748527527, 0.3843704164028168, -0.015614359639585018, -0.1687157303094864, 0.26969456672668457, -0.5769676566123962, 0.1654428392648697, 0.08020252734422684, -0.1986253410577774, 0.30202123522758484, -0.031084148213267326, 0.153963103890419, 0.09551382064819336, 0.14397643506526947, 0.10246872156858444, -0.07912873476743698, 0.21493904292583466, 0.43717923760414124, 0.017251087352633476, 0.025561748072504997, -0.053122278302907944, 0.14790882170200348, -0.10720368474721909, 0.017938656732439995, 0.07830525189638138, 0.2111697942018509, 0.045984651893377304, -0.020863233134150505, -0.2598831355571747, 0.19909213483333588, -0.16510523855686188, 0.16559936106204987, -0.17184709012508392, -0.23895619809627533, -0.03706153854727745, 0.11501406878232956, -0.2196989208459854, -0.3570959270000458, 0.12695811688899994, 0.09398538619279861, 0.0998716950416565, -0.4294683039188385, 0.0133237699046731, 0.012602568604052067, -0.18019606173038483, 0.3257097899913788, -0.10031187534332275, 0.12958289682865143, -0.06548409909009933, -0.5120630860328674, 0.20482562482357025, 0.11752044409513474, -0.3936949670314789, -0.41494229435920715, 0.06727360934019089, 0.14184798300266266, 0.45752063393592834, 0.27587243914604187, 0.015542627312242985, 0.09734988957643509, -0.02180311642587185, -0.020752817392349243, -0.0419161356985569, 0.04514667019248009, 0.4439692199230194, -0.05473816767334938, -0.06878561526536942, 0.0887606218457222, -0.010732525028288364, -0.4018711745738983, -0.09937810152769089, 0.004320953506976366, -0.2544572353363037, 0.20841477811336517, 0.017777161672711372, -0.038254234939813614, 0.1436922401189804, -0.01587693579494953, 0.025272248312830925, 0.171981081366539, -0.44530436396598816, -0.9464063048362732, -0.1187823936343193, 0.045436445623636246, 0.0035294147673994303, -0.11687446385622025, 0.0117094861343503, 0.23386286199092865, 0.0845627710223198, 0.4472598731517792, 0.19929610192775726, 0.13291741907596588, -0.34253165125846863, 1.0998855829238892, 0.08290653675794601, 0.12635459005832672, 0.02407008223235607, 0.1529688686132431, -0.04887252673506737, 0.0056692552752792835, -0.1264515072107315, -0.1692669540643692, 0.07524090260267258, -0.2016913741827011, -0.14775004982948303, 0.30173614621162415, 0.07742507010698318, -0.18681226670742035, -0.011991389095783234, 0.3641262948513031, 0.0036581752356141806, 0.030615657567977905, -0.25863316655158997, 0.02291223593056202, -0.0636143609881401, -0.027960987761616707, 0.04153928533196449, 0.19148002564907074, 0.1437472105026245, 0.07168949395418167, -0.03513529524207115, -0.031409475952386856, 0.17767180502414703, -0.04369330033659935, 0.4527682960033417, -1.0244874954223633, -0.07907574623823166, 0.06442809849977493, 0.09594137221574783, 0.08009964972734451, -0.13494490087032318, -0.04952118173241615, -0.14515087008476257, -0.3200207054615021, 0.20260365307331085, -0.45790526270866394, -0.23054218292236328, -0.5791736245155334, -0.1866455227136612, 0.8162583708763123, 0.24490617215633392, -0.7225771546363831, -0.6370721459388733, 0.2902328372001648, -0.45087340474128723, 0.05482916161417961, -0.06012433394789696, -0.19564926624298096, 0.5785021781921387, 0.1451519876718521, -0.1707637459039688, -0.0036532876547425985, -0.15795160830020905, -0.10533154755830765, -0.17089533805847168, -0.2021963745355606, -0.20902372896671295, 0.045270297676324844, 0.02617262862622738, -0.20029784739017487, -0.2297966331243515, -0.07258342951536179, -0.08338392525911331, -0.17446936666965485, -0.6590105295181274, -0.007636077236384153, 0.10776162892580032, -0.22495867311954498, -2.3787271976470947, 0.054314617067575455, 0.022094158455729485, 0.43099674582481384, 0.2632143199443817, 0.14482034742832184, 0.15382669866085052, -0.1783662885427475, -0.8602256178855896, 0.09311322122812271, -0.08906757086515427, 0.16049502789974213, -0.05445766821503639, 0.10973752290010452, 0.08496075868606567, 0.19045543670654297, -0.31778860092163086, -0.038510292768478394, -0.006833349820226431, 0.35338065028190613, 0.4386591911315918, -0.027430221438407898, 0.11519216746091843, -0.24611018598079681, 0.06451375037431717, 0.047710154205560684, -0.023088810965418816, 0.3161669075489044, -0.1393977552652359, 0.1733572632074356, -0.18674404919147491, -0.26948311924934387, 0.28310897946357727, -0.07702671736478806, 0.0008261706680059433, -0.1659097522497177, -0.03422537446022034, 0.06358509510755539, 0.03717857971787453, -0.035065118223428726, -0.5297521948814392, 0.10595165938138962, 0.021788807585835457, -0.14761434495449066, -0.7772297859191895, -0.07732696086168289, 0.13345147669315338, 0.20706240832805634, 0.49495741724967957, 0.01760147325694561, 0.07082885503768921, 0.12128425389528275, 0.2191365510225296, 0.018634112551808357, 0.06623225659132004, -0.3517317473888397, -0.40876469016075134, 0.06184595450758934, 0.22113895416259766, -0.24296170473098755, -0.4703766107559204, -0.0747571513056755, 0.12568126618862152, 0.09723623842000961, -0.07705987244844437, -0.09657049179077148, -0.12330294400453568, -0.10874120146036148, 0.3151383697986603, 0.09427940100431442, 0.10009630769491196, -0.10547495633363724, -0.18239466845989227, 0.02297709695994854, -0.12305761128664017, 0.05180519446730614, -0.3210310637950897, 0.07918012142181396, -0.09516286104917526, 0.03332650288939476, -0.4142150580883026, -0.048164840787649155, 0.17191599309444427, 0.18845175206661224, -0.1752939373254776, 0.036433663219213486, 0.08634866029024124, 0.11399126797914505, 0.08895134180784225, -0.08878255635499954, -0.10941588133573532, 0.0033692095894366503, -0.11699617654085159, -0.13252998888492584, -0.17929841578006744, -0.0816686674952507, -0.0984424576163292, -0.15810967981815338, -0.0762365534901619, 0.10918915271759033, -0.5434226393699646, 0.12871672213077545, 0.13489983975887299, -0.2288210242986679, -0.0028467702213674784, -0.055270951241254807, -0.09449458867311478, 0.028688957914710045, -0.19494982063770294, -0.02683562971651554, 0.23120473325252533, -0.4620865285396576, -0.09853128343820572, 0.16187594830989838, -0.042535100132226944, -0.15631379187107086, -0.49910226464271545, 0.10382545739412308, 0.011124037206172943, 0.30017349123954773, 0.004862253088504076, 0.2680874168872833, 0.005726379808038473, 0.00011644873302429914, 0.3870876729488373, -0.07227928191423416, -0.1282416582107544, 0.01685844548046589, 0.46453380584716797, 0.11721300333738327, 0.019383354112505913, 0.2517924904823303, 0.4628223180770874, -0.14153943955898285, -0.020860446617007256, -0.3628652095794678, -0.2051822394132614, -0.36876359581947327, 0.013923137448728085, 0.5543161630630493, 0.005622778553515673, 0.9155903458595276, -0.6717029213905334, -0.3313385844230652, 0.39552924036979675, -0.6234712600708008, 0.15876631438732147, 0.5981683135032654, 0.046852800995111465, 0.06895870715379715, 0.46003058552742004, 0.8182082176208496, 0.08406548947095871, -0.01692040078341961, 0.1187681034207344, -0.5074887871742249, 0.08793468028306961, -0.05799853429198265, 0.11700355261564255, 0.2075149267911911, -0.04969465360045433, 0.09646614640951157, 0.1903381198644638, -0.3453555405139923, 0.1796724796295166, -0.1208864375948906, -0.45977461338043213, 0.5094566941261292, 0.012159980833530426, -0.11370671540498734, 0.32243186235427856, 0.5785692930221558, 0.07592201977968216, -0.15062223374843597, -0.4050913155078888, -0.3163377642631531, 0.06587065011262894, -0.058505889028310776, 0.11282456666231155, 0.1510077565908432, -0.08595740050077438, 0.05873512849211693, 0.31093594431877136, -0.24760128557682037, -0.003176033264026046, 0.1045057401061058, -0.05759859085083008, -0.4974208176136017, 0.056600574404001236, -0.07432205229997635, -0.0896250531077385, 0.4089546501636505, -0.13737080991268158, -0.11660600453615189, 0.17951475083827972, 0.32311007380485535, -0.17409707605838776, 0.1883312463760376, 0.2997153103351593, 1.3085824251174927, 0.11330354958772659, 0.07122785598039627, 0.015553251840174198, -0.11719990521669388, -0.13385272026062012, -0.028798073530197144, -0.26986023783683777, 0.30942538380622864, 0.028639910742640495, 0.038251277059316635, 0.046494271606206894, -0.08765483647584915, -0.09171272069215775, 0.10115651041269302, -0.4033336341381073, -0.7109680771827698, 0.0043899682350456715, -0.04340178146958351, 0.20305965840816498, 0.500941276550293, 0.009211092256009579, 0.1753300577402115, 0.02598261646926403, -0.03438660129904747, -0.010597900487482548, 0.04562464356422424, -0.11599600315093994, 0.14222276210784912, -0.09987825155258179, -0.02090938203036785, -0.33853915333747864, -0.3886588513851166, -0.01857130415737629, 0.004747103434056044, -0.6043086647987366, -0.6259432435035706, -0.06889701634645462, 0.2721441090106964, -0.2944340407848358, -0.20268084108829498, 0.09631079435348511, 0.19090868532657623, -0.028600124642252922, 0.5755566954612732, 0.1583692878484726, -0.12732098996639252, -0.12978731095790863, 0.08452647179365158, 0.26888158917427063, -0.032013360410928726, 0.17359258234500885, 0.24630476534366608, -0.0960654690861702, 0.17615796625614166, -0.6734132170677185, 0.050675828009843826, 0.1370541900396347, 0.0673896074295044, 0.09592049568891525, -0.10752225667238235, 0.15335725247859955, -0.15900908410549164, 0.0024418996181339025, 0.05730581656098366, 0.022532863542437553, 0.2217753678560257, 0.27721551060676575, 0.14280261099338531, 0.10412324219942093, 0.20690204203128815, -0.14446519315242767, -0.15253494679927826, -0.05275428295135498, -0.14557813107967377, 0.0975838303565979, 0.04983280226588249, 0.12987399101257324, 0.0031117741018533707, 0.5066084861755371, 0.40431103110313416, -0.07205582410097122, 0.02103695087134838, 0.3990192711353302, -0.05865810438990593, -0.07836955040693283, 0.062034670263528824, -0.031408216804265976, -0.03389289602637291, 0.0032934125047177076, -0.14073537290096283, -0.1724700778722763, 0.46969035267829895, 0.12503230571746826, -0.025691566988825798, -0.0417218841612339, -0.30993106961250305, -0.1871156543493271, -0.01622389256954193, 0.141037717461586, 0.25096437335014343, 0.017021430656313896, 0.07466644048690796, 0.3305101692676544, 0.280100554227829, -0.05430470034480095, -0.03179759159684181, -0.25175246596336365, -0.39463797211647034, 0.12659648060798645, -0.14107201993465424, -0.15446814894676208, -0.2838132977485657, -1.1265649795532227, -0.051177557557821274, 0.6307300925254822, 0.2127845287322998, 0.6080737709999084, 0.3937682807445526, 0.27871033549308777, 0.07815670222043991, -0.007246329914778471, -0.1822993904352188, -1.0334416627883911, -0.04509400948882103, 0.07436143606901169, -0.24782942235469818, -0.04918438568711281, -0.18698750436306, 0.12223614007234573, 0.12457989901304245, -0.39963313937187195, 0.0638081356883049, -0.29370567202568054, 0.14242996275424957, 0.12632964551448822, -0.19134771823883057, 0.05608701333403587, 0.4865122139453888, 0.7260652184486389, -0.07154124230146408, -0.1462240219116211, 0.3156284987926483, 0.22446487843990326, -0.022242845967411995, -0.12546251714229584, 0.05644727125763893, 0.030425064265727997, -0.10210942476987839, -0.03843802586197853, 0.09634768962860107, 0.3284018039703369, -0.062465544790029526, -0.058650728315114975, 0.015013798139989376, -0.29651567339897156, -0.07608139514923096, -0.10239075869321823, 0.23971416056156158, 0.19003035128116608, 0.029771624132990837, -0.029629496857523918, 0.010072014294564724, -0.03611424192786217, 0.16430102288722992, 0.0287857037037611, -0.35480114817619324, -0.3245343863964081, -0.16855476796627045, 0.05728166922926903, 0.02631608583033085, -0.4050755202770233, -0.16824473440647125, -0.05135367438197136, -0.026680847629904747, -0.3512434661388397, 0.026475826278328896, -0.07938861101865768, -0.06409704685211182, -0.3310599625110626, -0.08259253948926926, 0.08015459030866623, 0.02228073962032795, -0.3811245262622833, 0.16698767244815826, -0.11220847815275192, -0.18376339972019196, 0.4867977797985077, -0.09619700908660889, 0.0004195243527647108, 0.08526962250471115, 0.3390633761882782, 0.03794678673148155, -0.05596357583999634, 0.09770015627145767, 0.1454705148935318, -0.06083410605788231, -0.0003498675941955298, -0.13415823876857758, -0.48943236470222473, 0.018943192437291145, -0.007628329563885927, 0.05594146251678467, -0.05509382486343384, 0.026825925335288048, -0.03447980061173439, -0.34055352210998535, -0.21803872287273407, 0.07945441454648972, -0.012498623691499233, 0.07612036913633347, -0.44782450795173645, 0.27674242854118347, 0.1795903593301773, -0.10244942456483841, -0.3831667900085449, -0.014775156043469906, -0.0157660823315382, 0.1783369928598404, 0.13350379467010498, -0.22994516789913177, -0.05342715606093407, -0.22989727556705475, -0.9319829344749451, 0.13093985617160797, -0.03437026962637901, -0.24907730519771576, 0.37953659892082214, 0.1357250064611435, 0.028138218447566032, -0.14324891567230225, 0.7474175095558167, 0.09737347811460495, 0.03188001736998558, 0.032213982194662094, -0.8565607070922852, 0.022681476548314095, 0.12549914419651031, -0.1550976186990738, 0.12052714824676514, 0.028865722939372063, 0.03003370575606823, -0.09126504510641098, -0.373658150434494, -0.2657490074634552, 0.07254505902528763, 0.025432707741856575, -0.19169962406158447, 0.17396403849124908, -0.0976022407412529, 0.05569261685013771, -0.25302907824516296, -0.16535340249538422, 0.07344358414411545, 0.06701130419969559, -0.0031571725849062204, -0.007969521917402744, -0.06298179179430008, 0.4257926642894745, -0.19787909090518951, 0.14177049696445465, 0.0894041582942009, -0.1113419458270073, -0.1649581342935562, 0.10470014810562134, -0.07669376581907272, -0.40615323185920715, -0.42851290106773376, 0.11841917783021927, 0.0703592374920845, 0.4885281026363373, 0.07942552864551544, -0.09151757508516312, -0.07862377911806107, 0.03913233056664467, -0.48883354663848877, 0.2345726490020752, -0.18529736995697021, -0.40267515182495117, -0.36447063088417053, -0.16021208465099335, -0.21585845947265625, 0.5325020551681519, 0.13115069270133972, -0.04844970628619194, -0.6533956527709961, 0.046159546822309494, 0.9768155217170715, -0.46019503474235535, 0.41555115580558777, -0.3818790018558502, 0.059084538370370865, 0.16520430147647858, -0.3961181938648224, -0.3122291564941406, -0.056992169469594955, 0.08601284772157669, -0.17751121520996094, -0.6954955458641052, 0.049162860959768295, -0.1447117179632187, 0.11892211437225342, 0.8358176350593567, 0.18008042871952057, 0.04843354597687721, 0.1946900635957718, 0.04838180914521217, 0.02922922559082508, -0.00487099913880229, 0.16715283691883087, -0.3347017467021942, -0.09988618642091751, 0.02019655890762806, 0.007718859240412712, -0.12187493592500687, -0.031187864020466805, 0.09110570698976517, 0.17060132324695587, -0.5787072777748108, -0.24849151074886322, -0.038042787462472916, -0.345035582780838, -1.0255193710327148, -0.10336613655090332, 0.027880700305104256, -0.046839769929647446, 0.5936499238014221, -0.0437811054289341, -0.017169132828712463, 0.2750237286090851, 0.33319661021232605, -0.07892513275146484, 0.11914419382810593, 0.253360778093338, 0.9918070435523987, -0.1690363734960556, -0.0053170244209468365, -0.09199047833681107, 0.2318124920129776, 0.03104635886847973, 0.19811545312404633, 0.10130716115236282, 0.07888162136077881, 0.09218687564134598, 0.004785590339452028, 0.07208334654569626, 0.5303773283958435, 0.03937142714858055, 0.05013133957982063, -0.19045008718967438, 0.6628727316856384, 0.015433340333402157, 0.007428228389471769, -0.07361560314893723, 0.10528074949979782, -0.014286861754953861, 0.060289859771728516, 0.23771096765995026, 0.1781759411096573, -0.0569988489151001, 0.07509446889162064, -0.24054409563541412, -0.2890641689300537, -0.2322382777929306, -0.23360134661197662, -0.11508417874574661, -0.2916278541088104, -0.04332831874489784, 0.13123668730258942, -0.17098726332187653, -0.2232217788696289, -0.04106367006897926, -0.18176482617855072, -0.07001275569200516, -0.7174825072288513, -0.12060617655515671, -0.010053946636617184, 0.44315096735954285, 0.8426447510719299, 0.11460196226835251, -0.013221890665590763, -0.03218144550919533, -0.8531491160392761, 0.004141754936426878, 0.12644147872924805, 0.17172275483608246, 0.11480700224637985, -0.05154549703001976, 0.014095366932451725, -0.13480734825134277, -0.9187135100364685, 0.04978352412581444, -0.062016550451517105, 0.03390542045235634, 0.04740665480494499, 0.069489486515522, 0.15038682520389557, -0.05599009618163109, 0.13620589673519135, 0.1640254259109497, -0.13410650193691254, -0.15513907372951508, -0.15356527268886566, 0.027260025963187218, 0.1615908294916153, 0.640449583530426, -0.013828436844050884, -0.2591197192668915, 0.020733416080474854, -0.07942355424165726, 0.050882939249277115, -0.07802944630384445, 0.04121032729744911, 0.11643802374601364, 0.09142350405454636, 0.028886737301945686, 0.11526834219694138, 0.0828372910618782, 0.020606128498911858, 0.01108712051063776, -0.12958623468875885, 0.4631127119064331, 0.1461765319108963, -0.1443634182214737, 0.10749994963407516, -0.04639929160475731, 0.4531751871109009, -0.09446543455123901, 0.08414728194475174, 0.34352245926856995, -0.01980668492615223, -0.04229259118437767, 0.14407207071781158, -0.18474571406841278, 0.24343682825565338, 0.10637172311544418, 0.07200806587934494, 0.04073155298829079, 0.2982577979564667, -0.07042121887207031, 0.07158268243074417, -0.07296214997768402, 0.04398247227072716, 0.0007080980576574802, -0.010520369745790958, -0.4305475652217865, -0.5861784219741821, -0.0423693023622036, -0.03067329339683056, 0.09120095521211624, 0.17902125418186188, -0.3562123477458954, -0.2751772999763489, 0.6222491264343262, -0.23607580363750458, 0.21103046834468842, 1.2061030864715576, 0.10343766957521439, -0.34462735056877136, 0.8423209190368652, 0.17444489896297455, 0.1624877005815506, -0.00876657571643591, -0.12229668349027634, -0.1431102752685547, -0.054523348808288574, -0.156553253531456, 0.28832122683525085, 0.037029627710580826, 0.10947633534669876, -0.013086955063045025, 0.1947496086359024, 0.20142138004302979, 0.06796001642942429, -0.13104881346225739, -0.04635488614439964, -0.209376260638237, 0.3458738625049591, 0.1272670179605484, 0.08073950558900833, 0.29062801599502563, -0.1687387377023697, -0.10110176354646683, -0.009604930877685547, 0.1602403074502945, -0.6554065346717834, 0.00742321414873004, 0.06593340635299683, 0.7519054412841797, -0.2767045795917511, -0.18240953981876373, 0.004057742655277252, -0.05490143969655037, -0.47452303767204285, 0.19543753564357758, 0.01788625307381153, 0.16519655287265778, -0.03594506159424782, 0.045578692108392715, 0.009792395867407322, 0.04336341843008995, -0.2883298099040985, 0.034088198095560074, 0.16024495661258698, 0.29879334568977356, 0.28488877415657043, 0.0664835050702095, 0.00799547042697668, -0.27576664090156555, -0.42905154824256897, 0.07943426817655563, 0.08968966454267502, 0.04819265007972717, 0.4484277069568634, -0.027696028351783752, 0.03455210104584694, -0.26598790287971497, -0.40100622177124023, -0.1258932501077652, -0.008628769777715206, -0.06377624720335007, -0.11377739161252975, 0.06553124636411667, -0.048547353595495224, 0.4503636062145233, 0.29669734835624695, -0.010935350321233273, 0.0027951335068792105, -0.08835709095001221, 0.050398070365190506, 0.0018443259177729487, -0.2767431437969208, 0.36869552731513977, -0.7246007919311523, 0.038794394582509995, -0.040237244218587875, 0.15000522136688232, 0.16812647879123688, -0.24895571172237396, 0.03229561820626259, -0.47074902057647705, -0.8872604966163635, 0.07756942510604858, 0.02459113486111164, 0.22852937877178192, 0.2620382606983185, 0.023949233815073967, 0.06893832236528397, 0.7187113165855408, 0.5586413145065308, 0.0786212608218193, -0.11383592337369919, -0.07539773732423782, -0.31812742352485657, 0.23903463780879974, -0.023392466828227043, -0.09926234930753708, -0.337903767824173, 0.02880472131073475, -0.0033764417748898268, 0.2986867129802704, -0.6366929411888123, 0.2149191051721573, 0.013078154064714909, 0.276995450258255, -0.34101104736328125, 0.07387953251600266, 0.07803791016340256, -0.16699446737766266, 0.09451421350240707, 0.16584385931491852, 0.05892175808548927, 0.3078417479991913, 0.03148936852812767, 0.18987266719341278, -0.147636279463768, -0.3852027356624603, -0.3672897517681122, -0.07274056226015091, 0.10537727922201157, 0.10829686373472214, 0.06985003501176834, 0.02196374349296093, 0.04027703031897545, 0.2029155045747757, 0.5803108811378479, 0.07418357580900192, -0.026127545163035393, -0.4768719971179962, -0.026321055367588997, 0.025501957163214684, 0.14292024075984955, 0.6770582795143127, 0.529096245765686, 0.005751143675297499, -0.06848417967557907, -0.5722070336341858, 0.233303964138031, 0.1457158476114273, 0.0488511361181736, -0.7892871499061584, 0.9643132090568542, -0.13116014003753662, -0.08383785933256149, 0.2186492681503296, -0.2750243842601776, 0.041793342679739, -0.18902064859867096, 0.2000054121017456, -0.2056206911802292, 0.11738253384828568, 0.2331090122461319, -0.19704152643680573, 0.07107935845851898, 0.042251020669937134, 0.03255227208137512, -0.6083841919898987, 0.18871831893920898, -0.007353015709668398, -0.20101173222064972, -0.33351776003837585, -0.07678906619548798, -0.2777567505836487, -0.16159601509571075, 0.5230126976966858, -0.16275502741336823, 0.21260236203670502, -0.0189509280025959, -0.571590781211853, -0.43518194556236267, 0.3179957866668701, 0.04944240674376488, -0.23933690786361694, 0.10109841078519821, -0.11434613913297653, 0.22992660105228424, 0.1752375215291977, 0.052291661500930786, 0.12989209592342377, -0.40567824244499207, -0.009297304786741734, 0.03172456845641136, 0.011404282413423061, -0.20940792560577393, -0.24188734591007233, -0.10396326333284378, -0.18508093059062958, -0.10907363146543503, 0.8077229857444763, -0.09502487629652023, -0.0022490175906568766, 0.014240683056414127, 0.6863736510276794, 0.024535568431019783, 0.025619754567742348, 0.27620866894721985, 0.7324285507202148, -0.018111959099769592, -0.00580888194963336, -0.10538474470376968, 0.22110365331172943, 0.033723775297403336, -0.03382909670472145, 0.01728464849293232, -0.3625459372997284, 0.09516938775777817, 0.05482655391097069, -0.3293605148792267, -0.48201701045036316, -0.03128954395651817, -0.15049730241298676, -0.3095238506793976, 0.22327564656734467, -0.03248482570052147, 0.053558822721242905, -0.4537672698497772, -0.8183695673942566, -9.959714225260541e-05, -0.08681868761777878, 0.30775949358940125, 0.14357160031795502, 0.12671734392642975, -0.024289162829518318, -0.15016865730285645, 0.363250732421875, 0.028790267184376717, -0.04420090094208717, -0.13721884787082672, 0.0200633704662323, 0.03379678726196289, -0.005696653854101896, -0.1528477817773819, 0.6093234419822693, 0.057551149278879166, 0.10783100873231888, -0.0038461682852357626, 0.7278445363044739, 0.04001602903008461, 0.07543105632066727, 0.33936527371406555, -0.5968566536903381, -0.02924594096839428, 0.15994931757450104, 0.25446394085884094, 0.23324917256832123, -0.0002555257815402001, 0.09751098603010178, 0.07679230719804764, 0.15775300562381744, -0.06173044070601463, 0.07011746615171432, -0.38121476769447327, 0.43294557929039, -0.00048039478133432567, -0.14009393751621246, 0.22218012809753418, -0.5144591927528381, 0.04162197932600975, -0.11952947825193405, -0.3158571422100067, 0.7852875590324402, 0.0075291176326572895, 0.005833353381603956, 0.17194081842899323, 0.231888547539711, 0.2868005931377411, 0.06564449518918991, 0.13625001907348633, -0.10126912593841553, -0.02488643117249012, 0.16785943508148193, 0.22235606610774994, -0.4907383620738983, 0.06680161505937576, 0.01275815162807703, 0.49392130970954895, 1.0248888731002808, 0.13042034208774567, -0.053687866777181625, -0.016119031235575676, -0.055517736822366714, 0.2563786208629608, 0.18086431920528412, -0.14942122995853424, -0.12983344495296478, -0.1414724737405777, 0.10717908293008804, 0.09277117997407913, 0.10949605703353882, 0.0940927192568779, -0.12212801724672318, -0.1469404548406601, -0.13751593232154846, 0.0028931573033332825, 0.051965147256851196, 0.19687378406524658, 0.35802698135375977, 0.15414024889469147, -0.0033620300237089396, 0.12737631797790527, 0.003425935283303261, 0.04925733432173729, -0.04931694641709328, 0.33906981348991394, -0.2850649654865265, 0.024594007059931755, -0.011681373231112957, -0.6896533370018005, 0.6068267822265625, -0.2110907882452011, 0.06897812336683273, 0.0760003849864006, -0.22765995562076569, 0.06002914533019066, 0.29469868540763855, 0.13435910642147064, -0.14524246752262115, 0.18297125399112701, 0.025398990139365196, -0.09302973002195358, 0.026676664128899574, -0.03859600052237511, 0.048939112573862076, 0.1419581025838852, 0.3298197388648987, -0.06751071661710739, 0.003717307234182954, -0.011478033848106861, 0.13999637961387634, 0.08056246489286423, -0.17128418385982513, -0.01642666384577751, -0.15813802182674408, 0.20023871958255768, -0.1550620049238205, -0.07157351076602936, -0.1634366512298584, -0.08085315674543381, 0.01848234422504902, 0.11230253428220749, -0.1969846487045288, 0.3917984962463379, 0.38939595222473145, -0.005504293832927942, 0.23847006261348724, 0.07899213582277298, -0.026388755068182945, -0.22713683545589447, 0.027218608185648918, -0.03862473741173744, 0.5412006974220276, 0.833625853061676, -0.01799430139362812, 0.10088467597961426, 0.08856994658708572, -0.1360750049352646, 0.10217491537332535, -0.04465574398636818, -0.08037608116865158, 0.04531952366232872, -0.14530672132968903, 0.022741777822375298, 0.29732367396354675, -0.27496665716171265, 0.2510094940662384, 0.1673063188791275, 0.1377711445093155, 0.6732987761497498, 0.04843779280781746, 0.09462123364210129, 0.03396376594901085, 0.24097006022930145, -0.11701082438230515, 0.005437477957457304, 0.29285383224487305, 0.46214917302131653, 0.15433646738529205, 0.12762142717838287, -0.05465000495314598, 0.5682501196861267, -0.003796894336119294, 0.21085809171199799, -0.30939772725105286, -0.3868124186992645, -0.05153181031346321, -0.07660459727048874, 0.1570364087820053, 1.0636826753616333, 0.06316208094358444, -0.07017987221479416, 0.18486584722995758, 0.1793205589056015, -0.09237097948789597, 0.14676333963871002, -0.008356048725545406, 0.36971691250801086, -0.08325476199388504, -0.10660063475370407, 0.043806735426187515, -0.3132934272289276, 0.1489896923303604, 0.0054522608406841755, -0.24358557164669037, -0.20909635722637177, 0.004377502482384443, 0.02644619159400463, 0.4024491608142853, 0.11895751953125, -0.10039293020963669, -0.09961050003767014, 0.17530836164951324, 0.8395147919654846, -0.14162693917751312, 0.02358326129615307, -0.009351245127618313, 0.2814531624317169, -0.18534350395202637, -0.07606232911348343, 0.0946347787976265, -0.2252349704504013, -0.09112066775560379, -0.05325790122151375, -0.691929280757904, -0.6941942572593689, 0.02115003578364849, 0.01716543547809124, 0.42552295327186584, 0.4411630630493164, 0.09807205945253372, -0.008133546449244022, 0.4514136016368866, -0.3038395941257477, 0.1283782571554184, 0.09079336374998093, 0.2557508647441864, -0.0009392760111950338, 0.07981806248426437, -0.12073075026273727, -0.12326753884553909, 0.4896802604198456, 0.10773062705993652, 0.047850463539361954, -0.2534361183643341, -0.24280621111392975, 0.21206976473331451, -0.04706484451889992, -0.22579719126224518, -0.29050424695014954, 0.15703262388706207, -0.04393082484602928, -0.14026688039302826, -0.0889955684542656, 0.05341922864317894, -0.058845218271017075, -0.03649202361702919, 0.4549989700317383, -0.02181863971054554, 0.005281559657305479, 0.03873801603913307, -0.1086050346493721, 0.02658560685813427, 0.06821364909410477, -0.19481171667575836, -0.845470130443573, -0.11915696412324905, 0.046366747468709946, -0.19658853113651276, -0.06489305943250656, 0.1575697511434555, 0.0795174241065979, -0.08593536168336868, 0.5994759202003479, 0.09664302319288254, -0.09542196244001389, 0.2991480529308319, 0.28267285227775574, 0.03991958498954773, -0.02523786760866642, -0.03623800724744797, -0.5593635439872742, -0.038376059383153915, -0.21802090108394623, -0.049879103899002075, 0.22353364527225494, 0.27338191866874695, 0.20439814031124115, 0.23000167310237885, -0.14897046983242035, 0.06935333460569382, 0.03471100330352783, -0.0004485789395403117, -0.5274754166603088, -0.06779998540878296, 0.05169033631682396, 0.43745139241218567, -0.21288220584392548, 0.101634182035923, -0.0799633264541626, -0.33182665705680847, -0.21480178833007812, -0.07316052168607712, 0.3188032805919647, -0.36230039596557617, -0.33622923493385315, 0.6939478516578674, -0.5529769659042358, -0.5763658881187439, -0.14214813709259033, -0.47733691334724426, -0.8962754607200623, 0.10038482397794724, 0.11736607551574707, 0.028091885149478912, 0.3258865475654602, 0.3938450515270233, 0.23772738873958588, -0.12353945523500443, -0.3781997859477997, 0.2302241176366806, 0.04074486717581749, 0.11883354932069778, 0.15944935381412506, -0.5810242295265198, 0.13055191934108734, -0.13183675706386566, 0.19440732896327972, 0.06779324263334274, 0.1597437709569931, -0.017769696190953255, -0.45254752039909363, -0.21022860705852509, 0.13216732442378998, 0.1272873729467392, -0.0794101431965828, -0.11803940683603287, -0.18064294755458832, 0.021493880078196526, -0.17078138887882233, -1.4221256971359253, 0.132301464676857, -0.12140869349241257, 0.3672013580799103, 0.7182450890541077, 0.06320380419492722, -0.10912171751260757, -0.06061488762497902, 0.06717425584793091, -0.056990381330251694, -0.06513256579637527, 0.03631708398461342, 0.3021245300769806, -0.05086866021156311, 0.07801581174135208, -0.31161049008369446, -0.08605301380157471, -0.05520438775420189, 0.08513761311769485, -0.2815999686717987, -0.32523778080940247, -0.04213178530335426, 0.09220438450574875, 0.2540760338306427, -0.21949665248394012, -0.08594263345003128, 0.1434265524148941, -0.3742680251598358, 0.034798648208379745, -0.03321847319602966, -0.009933934547007084, 0.0025529006961733103, 0.0042656962759792805, -0.02452648989856243, -0.09024465084075928, -0.05015057697892189, 0.16306662559509277, -0.09730357676744461, 0.05162521079182625, 0.3247818648815155, 0.5195255875587463, -0.13209950923919678, -0.008092680014669895, 0.0522463284432888, 0.3705558776855469, -0.03194436803460121, 0.08474140614271164, 0.16328977048397064, -0.42036011815071106, 0.09961215406656265, -0.14620639383792877, -0.054494064301252365, 0.15609274804592133, -0.1113523319363594, -0.059309061616659164, -0.14211300015449524, 0.517583966255188, -0.07523954659700394, -0.29023268818855286, 0.29676195979118347, 0.3738083839416504, 0.03291260823607445, 0.06333572417497635, 0.12255605310201645, -0.5484851598739624, -0.19214795529842377, -0.07765907794237137, 0.07109420746564865, 0.2552483379840851, -0.2627313435077667, -0.10260952264070511, -0.09950502961874008, -0.0545693002641201, -0.07715631276369095, -0.11767793446779251, 0.03606883063912392, 0.2776481807231903, 0.11486803740262985, 0.012254633940756321, 0.1652473360300064, 0.5818052887916565, 0.02947053499519825, 0.10706628113985062, 0.033830199390649796, 0.15305735170841217, 0.0929654911160469, -0.15856552124023438, 0.30252835154533386, 0.11094187945127487, -0.1113966777920723, -0.06344563513994217, -0.0940924808382988, -0.43994298577308655, 0.01104258093982935, 0.0422661267220974, -0.11629500985145569, 0.06650714576244354, 0.10812555998563766, 0.05937778577208519, 0.14777709543704987, -0.22908948361873627, 0.18723440170288086, 0.08749890327453613, 0.0746578499674797, 0.31134653091430664, -0.018095849081873894, 0.09169822931289673, 0.40137961506843567, -1.207749605178833, -0.06743574887514114, -0.2058052271604538, -0.419551819562912, -0.7310799956321716, 0.14378751814365387, 0.01600066013634205, -0.020776348188519478, -0.10102856159210205, -0.09515810757875443, 0.02833854965865612, -0.1935466080904007, -0.004905428737401962, 0.0010667442111298442, 0.002066641813144088, -0.33475354313850403, 0.2841220200061798, -0.03026142530143261, 0.05370914936065674, -0.01039363257586956, -0.24897415935993195, -0.039936456829309464, -0.016497818753123283, -0.050230685621500015, -0.35584020614624023, 0.049358759075403214, -0.21388490498065948, -0.26567891240119934, -0.4411450922489166, 0.2423485964536667, -0.2997453212738037, -0.4022078812122345, -0.4103744924068451, -0.7169671654701233, 0.061418574303388596, -0.04156699404120445, 0.1887112706899643, 0.2873744070529938, 0.023475220426917076, 0.07397694885730743, -0.03128707781434059, -0.11354685574769974, -0.4856681525707245, 1.053801417350769, -0.08779554814100266, 0.1051475927233696, 0.05858546867966652, 0.03162101283669472, 0.08501368761062622, 0.03231719136238098, 0.06347339600324631, -0.10099565237760544, 0.15914680063724518, 0.031556665897369385, 0.049672480672597885, -0.10090402513742447, -0.15913043916225433, -0.09502028673887253, 0.30475085973739624, -0.07552390545606613, -0.0733562633395195, 0.15465031564235687, 0.19401539862155914, 0.7058939337730408, -0.08799148350954056, 0.02706420235335827, 0.25592827796936035, 0.8882532715797424, 0.027536271139979362, 0.08451550453901291, -0.38444754481315613, 0.09635432809591293, -0.008912318386137486, 0.07469934970140457, -0.06321846693754196, 0.07946907728910446, 0.17041446268558502, 0.21020247042179108, -0.054689664393663406, -0.33418533205986023, 0.2503909766674042, -0.23625420033931732, 0.016861720010638237, -0.18338410556316376, -0.048575010150671005, 0.06561815738677979, -0.055855508893728256, 0.26664111018180847, 0.033235494047403336, -0.12301374226808548, 0.11354304105043411, -0.3323681652545929, -0.006181090604513884, 0.206040620803833, -0.1352466344833374, -0.41489502787590027, -0.0574420727789402, -0.07536352425813675, 0.006235867273062468, 0.10263419151306152, -0.06837005168199539, 0.022848250344395638, 0.2870487868785858, -0.5056294798851013, -0.06276588886976242, -0.2983853816986084, 0.17339517176151276, -1.0249520540237427, 0.0950927808880806, 0.008427694439888, 0.12158001214265823, 0.1775515228509903, 0.0732852891087532, -0.17719782888889313, -0.23240520060062408, 0.1630103439092636, -0.10160215944051743, 0.09096217900514603, -0.6119803786277771, -0.3044619858264923, 0.0346406064927578, -0.044165343046188354, 0.47721052169799805, 0.9232569336891174, -0.04750284180045128, 0.03621253743767738, 0.39296552538871765, -0.21356236934661865, 0.21334631741046906, -0.038361553102731705, 0.4105529487133026, -0.2703721523284912, 0.10869427770376205, -0.0891273096203804, 0.2546243965625763, -0.28270193934440613, 0.024957625195384026, -0.010594382882118225, 0.03279358148574829, 0.19831526279449463, -0.02493208460509777, 0.06541908532381058, -0.07104950398206711, 0.5561085343360901, 0.07877176254987717, 0.20807479321956635, -0.09727811068296432, -0.2344813197851181, 0.06081831082701683, 0.07713402062654495, 0.063827745616436, -0.03353709354996681, -0.28232792019844055, 0.13542760908603668, -0.30193403363227844, -0.23421312868595123, 0.03772497549653053, 0.026304611936211586, 0.3755476474761963, 0.01746254786849022, -0.11967825144529343, -0.07966471463441849, 0.3849431574344635, -0.23662136495113373, 0.05064771696925163, -0.23225022852420807, 0.026080289855599403, 0.3352696895599365, -0.08069873601198196, -0.05351191386580467, 0.6250597238540649, -0.6703121066093445, 0.11114215105772018, 0.10525988787412643, -0.028548894450068474, 0.32483047246932983, -0.0064342389814555645, -0.0403098426759243, -0.3379082977771759, -0.27151089906692505, -0.09822356700897217, -0.009877189062535763, 0.04143679514527321, -0.050555404275655746, -0.033043503761291504, 0.06119370460510254, 0.21221016347408295, -0.33700063824653625, -0.1005488708615303, -0.020217599347233772, 0.36121389269828796, 0.8078718781471252, 0.023366006091237068, -0.049054596573114395, -0.2102244645357132, -0.06775986403226852, 0.11418067663908005, -0.08745444566011429, -0.0622188001871109, 0.16195622086524963, -0.24381422996520996, -0.043946415185928345, 0.41435304284095764, -0.6109503507614136, 0.9962473511695862, -0.04474100098013878, -0.6242509484291077, -1.1011427640914917, -0.49455559253692627, 0.22851751744747162, 0.1661583036184311, -0.01655401475727558, 0.0687880590558052, -0.46453526616096497, -0.37069079279899597, -0.05728084221482277, 0.20257647335529327, -0.2795243561267853, -0.0397031344473362, 0.1866360753774643, 0.13588847219944, 0.026270121335983276, 0.348775178194046, -0.03352991119027138, -0.08762902021408081, 0.1419520229101181, -0.15801940858364105, 0.011611958034336567, -0.15748097002506256, 0.5467047095298767, 0.12156463414430618, 0.125585675239563, -0.1215050145983696, 0.11617966741323471, 0.500153124332428, 0.06538326293230057, -0.09518206864595413, 0.3787470757961273, -0.3452438414096832, 0.007803559768944979, 0.04590054973959923, -0.10584091395139694, -0.14776061475276947, -0.03646046295762062, -0.13283586502075195, 0.14002014696598053, 0.3959987163543701, 0.08839870244264603, 0.12994123995304108, 0.044557567685842514, 0.012120471335947514, -0.089096300303936, 0.1049070730805397, 0.10381614416837692, -0.12289131432771683, 0.13161420822143555, 0.10782340914011002, 0.2515368163585663, -0.22561858594417572, -0.0008423793478868902, -0.049581024795770645, -0.10183840990066528, -0.7263898253440857, -0.06026274338364601, -0.11623167246580124, -0.14973391592502594, 0.10274673253297806, 0.11144315451383591, 0.0068287900649011135, -0.28721144795417786, -0.2152860015630722, 0.0723024532198906, 0.09287179261445999, -0.43450358510017395, -0.032146748155355453, 0.02833920530974865, 0.014671743847429752, -0.12130188196897507, -0.21222637593746185, 0.3334079086780548, -0.07933639734983444, 0.0055411942303180695, 0.2024407535791397, 0.08282125741243362, 0.07743441313505173, 0.20433366298675537, 0.11065233498811722, 0.13674722611904144, 0.03753938898444176, -0.11725293844938278, 1.3170998096466064, -0.11156965047121048, -0.024697421118617058, -0.1101311445236206, 0.3509729206562042, 0.002063745865598321, 0.03007620759308338, 0.6757021546363831, -0.6703857779502869, -0.03797030821442604, -0.02021115832030773, 0.14342071115970612, 0.32324671745300293, -0.04647285118699074, 0.08372677117586136, 0.31981924176216125, -0.03732415661215782, 0.11355113238096237, -0.06456292420625687, 0.29424288868904114, 1.087931513786316, 0.039447370916604996, 0.03560701385140419, -0.010452567599713802, -0.5511078238487244, 0.11098384112119675, 0.10263482481241226, 0.3533139228820801, 0.2044043391942978, 0.041070494800806046, -0.049406085163354874, 0.18847262859344482, 0.2904853820800781, -0.11023639887571335, -0.006150730419903994, -0.08012212067842484, -0.4044961631298065, -0.02967241406440735, 0.025301149114966393, -0.11163211613893509, -0.1457618772983551, -0.0682746097445488, 0.16545069217681885, 0.23824812471866608, 0.21109771728515625, 0.12057553976774216, 0.18705247342586517, -0.37260961532592773, 0.440816730260849, -0.10518062859773636, -0.06473363190889359, 0.29213643074035645, 0.2882511615753174, -0.043662454932928085, -0.04510003700852394, -0.28378960490226746, -0.3004594147205353, -0.1320282369852066, -0.0007934178574942052, 0.1137327030301094, -0.5341509580612183, -0.1658148616552353, 0.11865437775850296, -0.22268198430538177, -0.7041049599647522, 0.10485338419675827, 0.010311164893209934, 0.18500934541225433, 0.34722039103507996, 0.05436853691935539, 0.14909718930721283, 0.548782229423523, 0.09524109214544296, 0.012397444806993008, -0.060675498098134995, 0.13456013798713684, -0.6988887786865234, 0.0663074180483818, -0.11495662480592728, -0.14571131765842438, -0.2996901869773865, 0.18329237401485443, -0.3104715943336487, 0.06565212458372116, -0.1871127039194107, 0.27022960782051086, -0.03416934981942177, 0.3035552203655243, -0.3556807339191437, -0.37845441699028015, -0.0003292099863756448, -0.746927797794342, -0.056957781314849854, -0.06370795518159866, 0.1576068252325058, 0.057485464960336685, -0.11291860789060593, -0.21288514137268066, -0.2497708648443222, -0.2038142830133438, 0.072613425552845, 0.1151200607419014, 0.11443818360567093, -0.03728916868567467, 0.06819117814302444, -0.19911478459835052, 0.09121402353048325, 0.006959714461117983, -0.1278640180826187, 0.008792468346655369, -0.05816088244318962, -0.505989134311676, -0.02769160084426403, -0.07097966223955154, 0.2382058948278427, 0.550282895565033, 0.0677538588643074, 0.10419202595949173, -0.3881625831127167, -0.6422733068466187, -0.017537591978907585, -0.013760827481746674, -0.11062649637460709, -0.044985417276620865, -0.047787804156541824, 0.03327500447630882, 0.2819824516773224, 0.08638238161802292, -0.04619329795241356, -0.24422408640384674, 0.0773005411028862, -0.23913981020450592, -0.03485563024878502, 0.14557494223117828, 0.14928756654262543, 0.7769036889076233, 0.02632713131606579, -0.010572166182100773, 0.16542504727840424, 0.22735190391540527, -0.048427168279886246, 0.03258198872208595, -0.10006558150053024, 0.28328731656074524, 0.005789249669760466, 0.08136140555143356, 0.0958448275923729, 0.2133878469467163, -0.04903140291571617, -0.10715087503194809, 0.021087421104311943, -0.056873735040426254, 0.001334129017777741, 0.02756032533943653, 0.3423936367034912, 0.2126430720090866, -0.024114428088068962, -0.1004636362195015, -0.5492883324623108, -0.4178503453731537, -0.007507071364670992, 0.022970983758568764, -0.26651617884635925, 0.45943787693977356, -0.029820648953318596, 0.08418024331331253, 0.0007099066860973835, 0.7992604374885559, 0.1137768104672432, -0.09360747784376144, 0.8647498488426208, 1.8398176431655884, 0.04217860475182533, 0.11563634127378464, 0.005877866875380278, 0.24549555778503418, -0.06928456574678421, 0.11197365075349808, -0.169478639960289, -0.08596407622098923, -0.09389639645814896, 0.2741806209087372, 0.018097354099154472, 0.31557199358940125, -0.13295377790927887, -0.19033409655094147, -0.28809306025505066, -0.13204096257686615, -0.13383030891418457, 0.027424754574894905, 0.2874581515789032, -0.05336630344390869, -0.038052741438150406, 0.057351235300302505, 0.07501018792390823, -0.9654808640480042, -0.14386294782161713, -0.13480843603610992, -0.0104752779006958, 0.3413567841053009, 0.14140711724758148, -0.0832054540514946, 0.17286549508571625, -0.1470264345407486, -0.09562861919403076, 0.08757496625185013, 0.1530122607946396, 0.18484258651733398, -0.014529288746416569, 0.04760923609137535, 0.11644383519887924, 0.9361361861228943, -0.0034432969987392426, 0.24030660092830658, 0.2104053497314453, 0.5648322701454163, 0.09889931231737137, 0.11031508445739746, 0.18805111944675446, 0.21591217815876007, -0.026639608666300774, 0.0041433838196098804, -0.5507153868675232, 0.7335848808288574, 0.07804679125547409, -0.10957115888595581, 0.1931559294462204, 0.7246990203857422, -0.06813163310289383, 0.08467482775449753, 0.3253045380115509, -0.11997032910585403, 0.1276250034570694, -0.15265081822872162, 0.20975267887115479, -0.044768065214157104, -0.14090074598789215, -0.09491444379091263, 0.1795327514410019, 0.1865120679140091, -0.09045767039060593, 0.05151839926838875, 0.44231465458869934, 0.8451725840568542, 0.1276472955942154, -0.18289469182491302, 0.1728367954492569, 0.009572796523571014, 0.18637968599796295, 0.0964127704501152, 0.07489712536334991, 0.01226933766156435, 0.320417195558548, 0.14521192014217377, -0.4805075228214264, -0.23181205987930298, -1.3794727325439453, -0.4206102788448334, -0.36347922682762146, 0.719118058681488, 0.34267422556877136, 0.6746965050697327, -0.4426531493663788, 0.11224018782377243, -0.045527245849370956, 0.25792554020881653, 0.15249229967594147, -0.04672152176499367, 0.013209833763539791, 0.3248443901538849, -0.013969437219202518, -0.12228120118379593, -0.012089633382856846, 0.07956212013959885, -0.6265421509742737, 0.07346869260072708, 0.057040985673666, -0.08658379316329956, 0.19334900379180908, 0.0009521450265310705, 0.1829683631658554, -0.011196181178092957, -0.5100948214530945, -0.11200297623872757, -0.03970574960112572, 0.8326523900032043, -0.24389170110225677, 0.22874762117862701, 0.15102051198482513, -0.0056442092172801495, -0.1747434288263321, -0.03713017329573631, 0.14060138165950775, 0.2074321061372757, 0.2521643340587616, 0.03805283084511757, -0.030330775305628777, 0.37641116976737976, 0.5558471083641052, -0.03009730577468872, 0.003586198901757598, -0.16425587236881256, -0.4521508514881134, 0.02925744839012623, 0.03465044125914574, 0.3085431754589081, -0.7189058661460876, 0.07033521682024002, -0.09210372716188431, 0.073945052921772, -0.20624077320098877, -0.09424955397844315, 0.029398052021861076, -0.0640491172671318, -0.2071341723203659, -0.03279978409409523, -0.08305644243955612, 0.07833128422498703, 0.027869222685694695, -0.013878137804567814, -0.011056937277317047, -0.4105815589427948, 0.33729931712150574, 0.15072844922542572, 0.009312705136835575, -0.07744420319795609, -0.14470253884792328, 0.03281698003411293, -0.009188971482217312, -0.0009733913466334343, -0.4989566504955292, 0.0739871934056282, 0.18645308911800385, -0.02034558169543743, -0.10038598626852036, 0.06526381522417068, 0.07531685382127762, 0.24303555488586426, 0.8273144364356995, 0.08537774533033371, 0.15648424625396729, -0.4823450744152069, 0.3157654106616974, -0.12674139440059662, 0.09484847635030746, 0.33117273449897766, 0.09478002041578293, -0.14670990407466888, 0.0146053871139884, 0.10714017599821091, -0.6556058526039124, 0.03857806697487831, -0.11719786375761032, -0.015209765173494816, -0.1981257051229477, 0.07215548306703568, 0.22325825691223145, 0.1779555231332779, 0.6132592558860779, 0.023095866665244102, 0.09579776972532272, -0.27193620800971985, -0.14094994962215424, -0.12109886854887009, 0.23287321627140045, -0.3745388686656952, -0.0807688757777214, -0.015112563967704773, -0.059243444353342056, -0.25391438603401184, -0.25211307406425476, -0.12255323678255081, -0.03950792923569679, -0.2245306819677353, 0.16990898549556732, 0.03404238820075989, 0.2565977871417999, 0.009325920604169369, -0.4046311676502228, -0.009006799198687077, -0.09221255034208298, -1.0717202425003052, -0.13247860968112946, 0.026972314342856407, 0.019821597263216972, -0.0715448334813118, 0.29192426800727844, 0.00646200543269515, -0.039419565349817276, 0.30629751086235046, -0.04491863027215004, 0.09002924710512161, -0.031188340857625008, 0.021116478368639946, 0.0870976448059082, -0.023730816319584846, -0.07757186144590378, 0.14309343695640564, -1.0429011583328247, 0.014957680366933346, -0.016536802053451538, 0.08349352329969406, -0.018832027912139893, -0.13570009171962738, -0.24420712888240814, -0.2261655330657959, 0.3164704144001007, -0.14999030530452728, -0.1773732751607895, 0.09682732820510864, -0.11830150336027145, -0.061062876135110855, -0.07613831013441086, -0.17879557609558105, 0.31152960658073425, -0.03558235988020897, 0.07360636442899704, 0.007532001007348299, 0.5843538641929626, 0.17566154897212982, 0.037897881120443344, 0.6091417074203491, 0.42150577902793884, -0.07472716271877289, -0.6357635855674744, 0.03158196434378624, -0.36501193046569824, -0.23188258707523346, -0.8478545546531677, 0.23169229924678802, 0.46540263295173645, 0.2925254702568054, -0.00704696960747242, 0.366958886384964, -0.06310290843248367, 0.11489164084196091, 0.37708762288093567, -0.26647356152534485, -0.03297337517142296, 0.10344237089157104, 0.03680592402815819, 0.19789598882198334, 0.2065896838903427, 0.07287120074033737, -0.21963167190551758, 0.3137359321117401, 0.16705010831356049, 0.1277250051498413, -0.21219183504581451, -0.46652600169181824, 0.05704211816191673, 0.04305049404501915, -0.0372469462454319, -0.12376073002815247, 0.15022657811641693, -0.007972165010869503, -0.08435089141130447, 0.17424382269382477, 0.0745706632733345, -0.04518160596489906, 0.46207329630851746, -0.16133584082126617, -0.020243898034095764, 0.005641691852360964, -0.1533653885126114, -0.4230952262878418, 0.07662630081176758, -0.13101540505886078, -0.41929754614830017, -0.6306939721107483, -0.17093156278133392, 0.08696287125349045, 0.05580109730362892, -0.7032928466796875, -0.03576204553246498, 0.08933799713850021, 0.06662208586931229, -0.37293365597724915, 0.0652875229716301, 0.049885448068380356, 0.23483417928218842, -0.3376751244068146, 0.19962002336978912, 0.04274464026093483, 0.21460922062397003, -0.536356508731842, -0.08434342592954636, 0.08316362649202347, 0.04023251309990883, -0.34484195709228516, 0.04318222776055336, -0.017909614369273186, -0.13372980058193207, 0.5112418532371521, 0.19592247903347015, 0.06974291056394577, 0.0022007969673722982, 0.16980768740177155, -0.05383836850523949, -0.0735994502902031, 0.014933689497411251, 0.7614437937736511, -0.14277209341526031, 0.1775578409433365, -0.04966634884476662, -0.22025465965270996, -0.0879475548863411, 0.017490146681666374, -0.08775723725557327, -0.23989176750183105, -0.061615582555532455, -0.03456002101302147, -0.06743829697370529, 0.9450302720069885, -0.11932956427335739, -0.12021160870790482, 0.01837298274040222, -1.0583536624908447, -0.08613289147615433, 0.010205469094216824, 0.4998666048049927, 1.228551983833313, -0.049531761556863785, -0.15465736389160156, 0.22215937077999115, -0.01828657276928425, 0.09899204969406128, -0.007372379768639803, -0.2259664684534073, -0.3984985649585724, -0.0629398301243782, -0.13774921000003815, 0.37099316716194153, 0.36949393153190613, 0.0472220815718174, 0.013661409728229046, 0.1267467886209488, 0.42252829670906067, -0.029405442997813225, -0.07183457165956497, -0.04987749829888344, -0.13426290452480316, -0.042831361293792725, -0.014295040629804134, -0.15963007509708405, 0.12937496602535248, 0.2447643131017685, 0.11855506151914597, -0.36060717701911926, -0.027833789587020874, -0.20618343353271484, -0.08474069833755493, 0.010759861208498478, 0.04346824064850807, 0.12811292707920074, -0.25578734278678894, 0.3903482258319855, -0.09898292273283005, -0.04341703653335571, -0.13526104390621185, 0.22936798632144928, 0.40732619166374207, 0.04789060726761818, -0.029561402276158333, 0.16143926978111267, 0.24658013880252838, -0.038795050233602524, -0.2691197097301483, 0.37545159459114075, -0.36282721161842346, 0.11577450484037399, -0.06077199801802635, -0.33269399404525757, -0.41023144125938416, 0.06969380378723145, 0.005828395020216703, 0.3820357024669647, 0.14000584185123444, 0.06351233273744583, 0.039081037044525146, 0.00523277698084712, -0.6026358008384705, -0.14650402963161469, -0.1044764444231987, 0.7991666197776794, 1.032286524772644, 0.08347047120332718, 0.09086810797452927, 0.06264396011829376, 0.17829962074756622, 0.23152853548526764, 0.03928050026297569, -0.12141350656747818, -0.030161647126078606, 0.03574309125542641, -0.029823394492268562, -0.05390280857682228, -0.6664465665817261, 0.5349358320236206, 0.012935145758092403, -0.5337838530540466, -0.22747184336185455, -0.25760477781295776, 0.31202414631843567, 0.18195988237857819, 0.07888228446245193, 0.10181289911270142, 0.2968006134033203, -0.3790472447872162, 0.021206675097346306, 0.12621845304965973, 0.04131147265434265, 0.1721412092447281, 0.055065471678972244, -0.01663150079548359, 0.45734837651252747, -0.600861132144928, 0.19970154762268066, -0.022855250164866447, 0.16698075830936432, 0.034594181925058365, -0.20563532412052155, -0.2550843060016632, 0.0832872986793518, 0.35454532504081726, -0.08607184141874313, 0.10536742210388184, 0.38478711247444153, 0.29748937487602234, 0.052492912858724594, -0.05737125501036644, 0.22996719181537628, -0.5489104986190796, 0.09820573776960373, 0.08713681250810623, 0.05025329068303108, 0.847550094127655, 0.059659358114004135, 0.020630089566111565, 0.44000592827796936, -0.26805374026298523, -0.2464921623468399, -0.06476055830717087, -0.2789897620677948, 0.3268873393535614, 0.043473366647958755, -0.06721346825361252, -0.2147001475095749, 1.356119155883789, 0.0033892940264195204, 0.1108386442065239, 0.13074292242527008, 0.47522875666618347, 0.03585213050246239, -0.22792457044124603, -0.22578002512454987, 0.14268578588962555, 0.1283876746892929, -0.13904143869876862, 0.22681023180484772, 0.28380706906318665, 0.001160964253358543, 9.984061034629121e-05, -0.14532269537448883, -0.22721506655216217, -0.1507568508386612, 0.047612667083740234, -0.31309178471565247, 0.44211578369140625, -0.09512209892272949, 0.14273642003536224, -0.05972981080412865, 0.07778412103652954, -0.06260795146226883, 0.10481008142232895, -0.04460921511054039, 0.07717608660459518, -0.05451088771224022, 0.10896538943052292, -0.04433146119117737, 0.35825395584106445, -0.13224397599697113, -0.07608617097139359, -0.03186320886015892, 0.05616438016295433, 0.04663439467549324, 0.09156370908021927, -0.44441819190979004, 0.05639958754181862, 0.007376566994935274, 0.18004654347896576, -0.19723667204380035, -0.020710378885269165, -0.06582193821668625, -0.02217281050980091, -0.3142874538898468, 0.16298186779022217, 0.038971658796072006, 0.1161116436123848, -0.1385136991739273, -0.12136412411928177, -0.04701435565948486, -0.20509755611419678, 0.1973661631345749, -0.052735451608896255, -0.05065162852406502, -0.01195510569959879, 0.24768637120723724, 0.004680540878325701, 0.07400370389223099, -0.0920206680893898, -0.06437497586011887, -0.07685720175504684, -0.1514420360326767, 0.05496470257639885, 0.10711749643087387, 0.12803004682064056, 0.04986703768372536, -0.11003228276968002, -0.05057137832045555, -0.10984361171722412, -0.122917540371418, 0.02368880994617939, -0.0994228795170784, 0.10784729570150375, -0.16961060464382172, 0.03168633580207825, 0.10960603505373001, -0.10622004419565201, -0.0032116633374243975, -0.09083353728055954, 0.03128635510802269, -0.0458950437605381, 0.06213032826781273, 0.18108738958835602, 0.07173072546720505, 0.4416990280151367, -0.07641338557004929, -0.05549329146742821, 0.07076472789049149, 0.5790819525718689, 0.08343976736068726, 0.1273956447839737, 0.10083023458719254, 0.1274268925189972, -0.07188291102647781, -0.017541350796818733, 0.18697626888751984, -0.46591952443122864, 0.06486398726701736, 0.204876109957695, 0.01763838343322277, 1.2640904188156128, -0.09853614121675491, 0.02695918269455433, -0.10220729559659958, 0.04295843467116356, -0.01749691553413868, -0.06623513251543045, 0.4040388762950897, 0.24839885532855988, -0.11311996728181839, 0.0416761077940464, -0.12325075268745422, -0.14266297221183777, 0.5304707288742065, -0.2518438994884491, -0.8398541808128357, -0.6506189703941345, -0.8738791346549988, 0.1739140897989273, 0.07230577617883682, -0.08097179234027863, 0.155898317694664, 0.23820598423480988, -0.3495679795742035, 0.06081080809235573, 0.04719557240605354, -0.4278292655944824, -0.4670381546020508, -0.18643362820148468, -0.09832549095153809, -0.2792796790599823, -0.00432994170114398, -0.09292542189359665, 0.15605996549129486, -0.00916259828954935, 0.040590379387140274, -0.037111345678567886, 0.04031467065215111, -0.07567823678255081, -0.08126711845397949, -0.07110976427793503, 0.14492309093475342, 0.4442008435726166, 0.13007959723472595, 0.2233884185552597, 0.11307906359434128, 0.12818674743175507, 0.6666908860206604, 0.06548602133989334, -0.060978714376688004, 0.39310184121131897, 0.16306960582733154, -0.11395562440156937, 0.07303845137357712, -0.17237891256809235, 0.49886032938957214, 0.06214332580566406, -0.2111235409975052, 0.20184065401554108, 0.19049279391765594, -0.036649733781814575, 0.02169165201485157, 0.10606467723846436, 0.28442075848579407, 0.02289530821144581, 0.10455333441495895, 0.2744273841381073, -0.5376347899436951, -0.12287689000368118, 0.08151751011610031, -0.12460421770811081, 0.7362044453620911, -0.024470744654536247, -0.025668034330010414, -0.1329299360513687, 0.26661446690559387, -0.2910754382610321, 0.20163726806640625, 0.1651434749364853, -0.08967865258455276, -0.05542566254734993, -0.09355286508798599, -0.23553037643432617, 0.3963441848754883, -0.13700102269649506, -0.07347852736711502, -0.3956991732120514, 0.046626001596450806, -0.10388016700744629, 0.01647154800593853, 0.03037753887474537, -0.11183667927980423, -0.03085234947502613, -0.08693455904722214, 0.0938301756978035, -0.06941784173250198, 0.044470544904470444, 0.014793128706514835, -0.2463517040014267, -0.04049887880682945, -0.1286264806985855, -0.035141680389642715, -0.3994344174861908, -0.7447064518928528, 0.11759579926729202, -0.10456172376871109, 0.5174597501754761, 0.20689962804317474, -0.11877346783876419, -0.0436643622815609, -0.15374866127967834, 0.09968560189008713, 0.12319790571928024, -0.02715611457824707, 0.5230445861816406, -0.39475056529045105, 0.04286515340209007, -0.008130387403070927, 0.3688230812549591, -0.046014245599508286, -0.032093703746795654, -0.044096413999795914, 0.12056911736726761, -0.5083054900169373, 0.07345831394195557, 0.04918361082673073, 0.08304458111524582, 0.04766085743904114, -0.08335231989622116, -0.01051719393581152, -0.16715405881404877, 0.3382439613342285, -0.07353656738996506, -0.027017923071980476, 0.2270517498254776, -0.13305355608463287, 0.16926588118076324, 0.019983844831585884, 0.2409217208623886, 0.327191561460495, 0.09979700297117233, -0.19149555265903473, -0.3538648784160614, -0.10954388231039047, -0.10448388010263443, 0.17311178147792816, 0.22428680956363678, 0.16137312352657318, -0.03980189934372902, -0.1975870281457901, -0.25518181920051575, -0.5323029160499573, -0.12227488309144974, 0.09218019992113113, 0.3733620345592499, -0.04346673563122749, -0.014669566415250301, -0.03466230258345604, -0.46027615666389465, 0.3186121881008148, 0.07674854248762131, 0.1258111149072647, -0.26433897018432617, -1.1773293018341064, -0.019818244501948357, -0.004276714753359556, 0.20118200778961182, -0.04577380046248436, 0.08131664246320724, -0.061502281576395035, 0.19148363173007965, 0.9518002867698669, 0.1267550140619278, -0.11502670496702194, 0.6057590246200562, -0.09665209800004959, -0.004447270650416613, 0.13101933896541595, -0.3580648899078369, 1.1075268983840942, 0.05202299728989601, 0.261658638715744, -0.19364120066165924, -0.32524558901786804, 0.4006875455379486, -0.2659831643104553, 0.00917903520166874, -0.4512422978878021, -0.24387811124324799, -0.2666291296482086, 0.5005220174789429, -0.14468742907047272, 0.5201001763343811, 0.14640508592128754, -0.9502725601196289, 0.1039319634437561, -0.15743042528629303, 0.3094535171985626, 0.1553952544927597, -0.00923373457044363, -0.021301792934536934, -0.24923084676265717, 0.08576757460832596, -0.13843776285648346, -0.05381391569972038, 0.2082267552614212, 0.20395900309085846, 0.09447752684354782, -0.11190008372068405, 0.27252843976020813, 0.3846871554851532, -0.08363205939531326, 0.07142721861600876, -0.37563154101371765, -0.14583683013916016, 0.0702143982052803, -0.016696734353899956, 0.24393264949321747, -1.0270073413848877, -0.05822986736893654, -0.04976580664515495, -0.03247103467583656, -0.4967406690120697, 0.07301311939954758, 0.04472702369093895, 0.039421197026968, -0.1386808156967163, 0.0021839626133441925, 0.03820130601525307, 0.09137403219938278, 0.40427255630493164, -0.16577112674713135, 0.09034764021635056, -0.264497309923172, -1.038486361503601, -0.07916759699583054, 0.18021346628665924, 0.06902562826871872, -0.688323974609375, 0.1847863346338272, 0.035974714905023575, 0.2704446017742157, -0.09422989934682846, 0.11280561238527298, 0.020817024633288383, -0.10107421875, 0.328339546918869, 0.013473914004862309, 0.22568915784358978, -0.21829915046691895, -0.29946425557136536, 0.10239104181528091, 0.023156819865107536, -0.12510478496551514, 0.03805047646164894, -0.027797279879450798, -0.015445648692548275, 0.14300142228603363, 0.42072510719299316, 0.18175791203975677, 0.1079154834151268, 0.4022420346736908, 1.0710734128952026, -0.12624822556972504, -0.07439875602722168, 0.037925783544778824, -0.06598060578107834, -0.09453904628753662, -0.07353269308805466, -0.11472713202238083, 0.008306928910315037, -0.08326613157987595, 0.1313072293996811, -0.24928158521652222, -0.046341631561517715, -0.02062751166522503, 0.06183946505188942, -0.0639650821685791, 0.18658573925495148, 0.1655748039484024, -0.11757909506559372, -0.2004408985376358, 0.4812523126602173, -0.06556499749422073, -0.08936022967100143, 0.13220570981502533, -0.14247919619083405, 0.11423074454069138, -0.06162869557738304, -0.21767304837703705, -0.12748001515865326, 0.06075585260987282, -0.10843626409769058, -0.3446703255176544, 0.39037957787513733, 0.0548052154481411, -0.09570849686861038, -0.06271309405565262, -0.13803745806217194, -0.08132392913103104, -0.007951885461807251, 0.05591810122132301, -0.06907689571380615, -0.1981225162744522, 0.01828649453818798, -0.05616122856736183, 0.15277515351772308, 0.08341062813997269, 0.08623247593641281, 0.07325392216444016, 0.38088372349739075, 0.11896275728940964, 0.013059690594673157, -0.3185139000415802, -0.5562893152236938, -0.14142335951328278, -0.01519011054188013, 0.21280167996883392, -0.44627806544303894, 0.11801575869321823, 0.058280762284994125, 0.2939557731151581, -0.7271595597267151, -0.019588841125369072, -0.12487030774354935, -0.022991925477981567, -0.1085585430264473, -0.014167682267725468, -0.12246561795473099, -0.14722253382205963, -0.5061410665512085, 0.08422673493623734, 0.274809867143631, -0.04932102560997009, 0.43657031655311584, -0.09236066788434982, -0.11552918702363968, -0.43970629572868347, -0.5367364287376404, 0.19909478724002838, -0.02121168188750744, 0.3818586766719818, 0.09101159125566483, -0.06915230304002762, 0.015185012482106686, -0.3519451320171356, -0.06553912907838821, 0.12900005280971527, -0.043350253254175186, 0.027733108028769493, -0.2330329418182373, 0.005359590519219637, 0.0796828344464302, 0.36146092414855957, 0.3366663157939911, -0.8205347061157227, -0.1903977394104004, 1.2344093322753906, -0.6862325072288513, 0.5898393988609314, -0.0838281586766243, 0.22930026054382324, 0.6729240417480469, 0.9688215851783752, 0.255170077085495, 0.5902357697486877, 0.059558507055044174, -0.22747109830379486, 0.07590430229902267, -0.4460964500904083, -0.0257358830422163, 0.015221030451357365, 0.07169825583696365, -0.6996225714683533, 0.04619216546416283, 0.003203421598300338, 0.5983763337135315, 0.3774220645427704, 0.08581029623746872, 0.05142610892653465, 0.14687275886535645, 0.4168553650379181, -0.006907493341714144, -0.16489805281162262, -0.33751198649406433, -0.42511096596717834, 0.021934164687991142, -0.01062211487442255, 0.24382059276103973, 0.6555057168006897, 0.19065354764461517, 0.06282644718885422, 0.0659683421254158, 0.7385163307189941, -0.24729777872562408, -0.03293854370713234, -0.13448737561702728, -0.14055655896663666, -0.06546907871961594, -0.00854631420224905, -0.012501849792897701, 0.14693330228328705, -0.038958851248025894, 0.15875361859798431, 0.46653321385383606, 0.5170050263404846, 0.2840001881122589, -0.057778239250183105, -0.0833929255604744, -0.6689372658729553, 0.1320200115442276, 0.09789079427719116, -0.08849119395017624, -0.14708302915096283, 0.05277416110038757, -0.08560710400342941, -0.10660172253847122, 0.018612997606396675, 0.047465983778238297, -0.06037021055817604, 0.02807280234992504, -0.40620169043540955, -0.0014610652578994632, -0.03390437737107277, -0.1681218296289444, -0.03901582583785057, -0.027266057208180428, -0.0828639343380928, 0.11581789702177048, 0.5491999983787537, 0.12484525889158249, -0.03622424229979515, -0.1292186826467514, 0.015389411710202694, 0.036440785974264145, 0.08538740873336792, -0.15129099786281586, 0.0857657864689827, -0.08956121653318405, -0.07131970673799515, 0.0990447923541069, 0.06453686952590942, -0.088180311024189, 0.06404650956392288, 0.22565124928951263, 1.0810545682907104, -0.011833623051643372, 0.03115600161254406, -0.6824678778648376, 0.0778568759560585, 0.1615598201751709, -0.01727384142577648, -0.22734856605529785, 0.30380749702453613, -0.12173258513212204, 0.2506740391254425, 0.07843185216188431, 0.03820708766579628, 0.11658228188753128, 0.13100551068782806, 0.0930631086230278, -0.051116663962602615, -0.06153344735503197, 0.0564153827726841, 0.06986629217863083, 0.10207589715719223, -0.046450261026620865, 0.12720586359500885, -0.1232907846570015, 0.7785734534263611, 0.1469949334859848, -0.07394140213727951, 0.2723042666912079, 0.2914983928203583, -0.05093694105744362, -0.01006572786718607, -0.16917501389980316, 0.018655704334378242, 0.012538800947368145, 0.10571825504302979, 0.3451235592365265, 0.40211471915245056, 0.10930842161178589, -0.05397401377558708, -0.5088033676147461, -0.12811051309108734, 0.04555201902985573, -0.05434548854827881, 0.08251117914915085, 0.07443069666624069, -0.1008320227265358, 0.09975243359804153, 0.1314920037984848, -0.27807947993278503, 0.03840133175253868, 0.11219704896211624, -0.39864984154701233, -0.050894323736429214, -0.028948547318577766, -0.044357750564813614, 0.6736111044883728, -0.09180732816457748, 0.03740603104233742, -0.06393551826477051, 0.18304289877414703, -0.6744059920310974, 0.10298358649015427, -0.07392258197069168, -0.14532984793186188, 0.30133911967277527, -0.10834089666604996, 0.10723782330751419, 0.19370268285274506, -0.30310937762260437, -0.04359087347984314, -0.11744462698698044, 0.2385922074317932, -0.3616087734699249, 0.07249975204467773, -0.1863023042678833, 0.6356834769248962, -0.09582560509443283, -0.31656602025032043, -0.059924546629190445, -0.015331808477640152, -0.08902166038751602, -0.36397460103034973, -0.08853917568922043, 0.3335767686367035, 0.0368742011487484, 0.5639433264732361, 0.22542168200016022, -0.16767369210720062, 0.9373700618743896, -0.39842483401298523, 0.04406100884079933, 0.29633447527885437, -0.10207551717758179, -0.017039569094777107, 0.3242941200733185, -0.2777847945690155, -0.05865245684981346, 0.22474098205566406, 0.48468878865242004, 0.15736208856105804, -0.05556594952940941, 0.022931186482310295, 0.1077275201678276, -0.24083782732486725, -0.012649030424654484, 0.15836773812770844, 0.03403449431061745, 0.0037469009403139353, -0.07762222737073898, -0.2553658187389374, -0.3970972001552582, -0.6254386305809021, 0.0747460201382637, 0.04726242646574974, 0.19952605664730072, 0.5423856377601624, 0.011271030642092228, 0.028123078867793083, -0.20062969624996185, -0.5483404397964478, 0.08601700514554977, 0.05095783993601799, -0.07948540896177292, -0.03660300001502037, 0.09997505694627762, -0.12169455736875534, -0.005133721511811018, -0.16144798696041107, -0.1234823539853096, 0.0046819341368973255, -0.46762558817863464, 0.31815746426582336, 0.050597187131643295, -0.0033008356112986803, 0.030514298006892204, -0.07658208161592484, -0.04913092032074928, -0.2052648812532425, 0.12562023103237152, 0.15779425203800201, 0.1204834058880806, 0.030638454481959343, 0.05676591023802757, 0.5393947958946228, -0.05651700124144554, 0.06359624117612839, 0.16957426071166992, -0.2412233203649521, -0.12417960911989212, -0.06694734841585159, -0.2954736053943634, -0.4582085907459259, -0.02489415742456913, 0.06540273874998093, 0.3409624397754669, -0.04477861896157265, 0.24661467969417572, 0.027276376262307167, 0.10506554692983627, 0.37419983744621277, 0.1110619381070137, -0.023418409749865532, -0.10418223589658737, -0.13684631884098053, -0.05537211522459984, -0.006428889464586973, 0.08564561605453491, -0.35851171612739563, 0.12250138074159622, 0.11990488320589066, -0.2471737116575241, -0.8785151839256287, 0.0046358187682926655, 0.19957087934017181, -0.05308132991194725, -0.6701555848121643, -0.19481171667575836, -0.019184691831469536, -0.5422765016555786, 0.12214267253875732, -0.02312028594315052, 0.15478993952274323, 0.03168570622801781, 0.10882008820772171, -0.1865823119878769, 0.12506867945194244, -0.18623553216457367, -0.04828682169318199, 0.1534501165151596, -0.022167610004544258, -0.1522984653711319, 0.059660907834768295, 0.024519948288798332, 0.13229908049106598, -0.24595476686954498, -0.5178771615028381, 0.18109296262264252, 0.09962760657072067, 0.06798189133405685, 0.3768058121204376, -0.012216582894325256, -0.0019399375887587667, -0.02980971522629261, 0.2904464900493622, -0.06098419800400734, -0.09051584452390671, 0.08686745911836624, 0.044760193675756454, 0.07840495556592941, -0.16735325753688812, 0.049083221703767776, -0.24301530420780182, 0.06946790963411331, 0.09568964689970016, -0.10596394538879395, -0.13472749292850494, -0.1311710923910141, 0.048254843801259995, 0.1119457557797432, 0.13969109952449799, -0.07696855068206787, 0.017732230946421623, 0.31559136509895325, -0.8703879714012146, 0.05423182621598244, -0.08966737240552902, -0.46046674251556396, 0.12311717122793198, 0.06303954869508743, -0.004277214873582125, -0.25180408358573914, 0.23424936830997467, -0.13788475096225739, 0.13105355203151703, -0.32198765873908997, -0.3611402213573456, 0.10174465924501419, 0.01620107889175415, 0.02063147909939289, -0.35276222229003906, 0.007758944761008024, -0.0038975554052740335, -0.9377269744873047, -0.18796677887439728, -0.060318831354379654, -0.10877691954374313, 0.13397231698036194, -0.0735679641366005, 0.1597694307565689, 0.15435992181301117, -0.25191324949264526, -0.2986936569213867, 0.11848830431699753, -0.3804778754711151, -0.2965206801891327, -0.21025730669498444, -0.02052116207778454, -0.11070889234542847, 0.3972277343273163, -0.702860414981842, -0.6361526846885681, 0.23798292875289917, 0.3826049268245697, 0.11751913279294968, 0.0740695521235466, 0.203033909201622, -0.08778899908065796, 0.03605115786194801, -0.056405965238809586, 0.34766003489494324, 0.026187090203166008, -0.10347295552492142, -0.07357806712388992, -0.16483809053897858, -0.5289129614830017, -0.09778041392564774, -0.16736780107021332, 0.3115634620189667, -0.13490773737430573, 0.21307732164859772, 0.222214475274086, -0.6556888222694397, 0.09984756261110306, 0.03317051753401756, -0.17712174355983734, 0.3121662437915802, -0.08590652793645859, -0.18064679205417633, -0.08714313060045242, 0.11359516531229019, -0.02619166113436222, -0.08420909196138382, 0.0735781118273735, -0.10240591317415237, 0.37320777773857117, -0.08675443381071091, -0.19285307824611664, 0.3473203182220459, 0.5411557555198669, -0.04351199045777321, -0.03749721869826317, 0.09408783167600632, -0.13484202325344086, -0.04319476708769798, -0.15922047197818756, -0.08611928671598434, 0.09146148711442947, -0.0823785588145256, 0.031197132542729378, 0.19518326222896576, -0.6285014748573303, 0.07130897045135498, -0.024817703291773796, -0.02791714482009411, -0.3490469753742218, -0.05809640511870384, 0.02725883387029171, -0.13612224161624908, -0.35470297932624817, 0.03313744440674782, -0.007857673801481724, -0.37283608317375183, 0.505978524684906, -0.08443146198987961, -0.09283392876386642, 0.07854045182466507, -0.42766138911247253, -0.0010712648509070277, -0.03157883509993553, 0.4051680862903595, -0.7342438697814941, -0.03686779737472534, 0.010743462480604649, -0.041479531675577164, 0.04558798298239708, 0.11192429810762405, -0.11388743668794632, 0.2516636848449707, -0.09634721279144287, 0.061841849237680435, 0.04824152961373329, -0.35176417231559753, 0.3383779525756836, 0.03196292743086815, -0.04559871926903725, -0.38717344403266907, -0.4734269678592682, -0.145455464720726, -0.05934399738907814, -0.5691691637039185, -0.1613883674144745, -0.13390444219112396, 0.01947726495563984, -0.10970424860715866, -0.2156350463628769, -0.020871831104159355, 0.13077805936336517, -0.3726349174976349, -0.34760525822639465, 0.04433083161711693, -0.058385733515024185, 0.030349968001246452, -0.012417708523571491, -0.18575476109981537, 0.014581828378140926, -0.17289210855960846, -0.10098015516996384, 0.14627815783023834, -0.015955179929733276, 0.10518025606870651, 0.5116958022117615, -0.053866270929574966, 0.03535482659935951, -0.03240496292710304, -0.36516284942626953, 0.11303853243589401, 0.01113844569772482, -0.04536190256476402, 0.22455571591854095, 0.102344810962677, 0.018871471285820007, -0.23679281771183014, 0.5048261284828186, -0.025143412873148918, 0.081328384578228, -0.06944788247346878, 0.24788238108158112, 0.1559629589319229, -0.014763905666768551, 0.0841558501124382, -0.4456820785999298, -0.19477294385433197, 0.11611544340848923, -0.5252590179443359, 0.23058082163333893, 0.17515753209590912, -0.0028707568999379873, 0.34538695216178894, -0.12304332852363586, 0.2193567007780075, -0.17603160440921783, 0.45916128158569336, 0.09859324246644974, 0.0892750546336174, 0.050974901765584946, 0.48014262318611145, 0.5490356087684631, 0.10665150731801987, -0.022897420451045036, 0.2999098002910614, 0.6863632798194885, -0.033293187618255615, 0.03604975715279579, 0.17017148435115814, -0.9787501692771912, -0.02578902058303356, -0.07700646668672562, 0.5011159181594849, -0.31429484486579895, 0.1605677455663681, -0.008867024444043636, -0.26502519845962524, -0.17446863651275635, -0.01711857132613659, -0.11601719260215759, -0.32536035776138306, -0.1011582538485527, -0.7604885697364807, 0.8284521102905273, 0.17070059478282928, -0.05293695256114006, -0.8493624329566956, 0.35767653584480286, -0.14205361902713776, -0.09559159725904465, -0.034836526960134506, 0.25953200459480286, 0.6526308655738831, -0.15615308284759521, -0.03505825623869896, 0.2628316581249237, -0.1450752168893814, -0.009895860217511654, 0.09791906923055649, -0.01282027829438448, 0.3621985912322998, 0.07125388830900192, -0.22516630589962006, 0.17490102350711823, -0.2391371876001358, 0.1328558772802353, 0.019567983224987984, 0.11271312832832336, 1.0888702869415283, 0.08487396687269211, 0.26531603932380676, 0.3516370952129364, 1.5687646865844727, 0.016555102542042732, 0.045012298971414566, -0.4948197901248932, 1.0948456525802612, 0.3844437301158905, -0.014096544124186039, 0.47893956303596497, 0.3692631721496582, 0.21808969974517822, -0.13214148581027985, -0.1478932946920395, -0.324178010225296, -0.015445097349584103, 0.30203482508659363, -0.15032483637332916, -0.11920713633298874, -0.013416563160717487, 0.01898312382400036, 0.23578880727291107, 0.9535933136940002, -0.2002079337835312, -0.22475861012935638, -0.053280893713235855, -0.1528557389974594, 0.12253154069185257, 0.020084349438548088, -0.1954665184020996, 0.014846398495137691, 0.15061213076114655, 0.09252818673849106, 0.12761522829532623, 0.2043483406305313, -0.06581038981676102, -0.022540288046002388, -0.22001980245113373, 0.5454278588294983, -0.04640892520546913, -0.10297263413667679, -0.49425598978996277, -0.0745764896273613, 0.09242164343595505, 0.007696316111832857, 0.12665881216526031, -0.4086039960384369, 0.10018793493509293, -0.14882276952266693, -0.4109244644641876, -0.32655957341194153, 0.05008500814437866, -0.12479209154844284, 0.26440978050231934, -0.28297021985054016, 0.1246417686343193, -0.08091486245393753, 0.09144485741853714, 0.562786877155304, 0.08142877370119095, 0.12257158011198044, -0.3386244475841522, -0.16686417162418365, 0.08664704114198685, -0.09836024791002274, -0.16920100152492523, -0.04275214672088623, 0.055650707334280014, -0.12228893488645554, -0.13515137135982513, 0.3410756289958954, 0.15122900903224945, -0.015485494397580624, -0.08824067562818527, -0.2511272728443146, 0.011721118353307247, 0.1517340987920761, -0.09416349977254868, 0.34825897216796875, -0.036952074617147446, 0.009159579873085022, -0.1467761993408203, -0.3062191307544708, 0.07147281616926193, -0.12430881708860397, -0.17849387228488922, 0.09686041623353958, 0.03788774833083153, 0.12203586846590042, -0.032387346029281616, -0.7398347854614258, 0.11901522427797318, 0.08146774023771286, 0.01290686521679163, 0.4004574120044708, -0.0835576131939888, 0.13347016274929047, -0.32273998856544495, 0.11610233038663864, 0.017353294417262077, 0.14472626149654388, -0.09039682894945145, -0.3285541236400604, -0.026278892531991005, 0.16216696798801422, 0.2478623241186142, 0.05758411064743996, -0.022516785189509392, 0.07242833822965622, -0.3543286621570587, -0.45131728053092957, -0.0922861099243164, -0.02135409228503704, 0.09189475327730179, 0.5573773384094238, 0.0179643202573061, -0.1607220321893692, -0.15975870192050934, -0.15255068242549896, -0.1302405744791031, -0.04471570625901222, -0.11784351617097855, -0.474152535200119, -0.07398880273103714, -0.034718211740255356, -0.021541910246014595, -0.34979483485221863, 0.07042700052261353, -0.013810918666422367, -0.4216456711292267, -0.8328028321266174, 0.20844008028507233, -0.11801517754793167, 0.27700501680374146, 0.23283034563064575, 0.061268266290426254, -0.15614081919193268, 0.5555464029312134, 0.10104147344827652, 0.30986616015434265, -0.19551058113574982, -0.44408509135246277, 0.20944000780582428, -0.9959955811500549, -0.014062182046473026, 0.01811925880610943, 0.6568161249160767, -0.6718245148658752, 0.2786002457141876, -0.7075756192207336, -0.07741009443998337, -0.050506945699453354, 0.04485645517706871, -0.12827815115451813, -0.13357745110988617, 0.08000082522630692, -0.20065833628177643, 0.11857164651155472, 0.19680006802082062, 0.03164529427886009, 0.3173058331012726, -0.09291502088308334, 0.0912419930100441, -0.006999641191214323, 0.21537898480892181, -0.18955446779727936, 0.06401544064283371, 0.2510359585285187, 0.22286368906497955, 0.07126610726118088, 0.05950487032532692, 0.12756143510341644, 0.28996187448501587, -0.35442402958869934, 0.1600957065820694, 0.06262660026550293, -0.381498783826828, -0.23060943186283112, 0.022232994437217712, -0.0017315720906481147, -0.008635423146188259, -0.5585179924964905, -0.09314101189374924, 0.07258344441652298, 0.09828988462686539, -0.22224022448062897, -0.1972172111272812, 0.08972585946321487, 0.09606778621673584, -0.249953493475914, -0.17388296127319336, 0.013724193908274174, -0.1823410838842392, -0.6607852578163147, -0.09114284068346024, 0.07840918749570847, 0.22746731340885162, -0.4643583595752716, -0.1492917686700821, 0.0885302945971489, 0.028140487149357796, -0.41887617111206055, 0.05861878767609596, 0.02742713876068592, -0.05174655094742775, -0.15092779695987701, 0.03221786394715309, -0.13360725343227386, -0.22385598719120026, -0.3896341621875763, 0.028162213042378426, 0.22407864034175873, 0.0823899507522583, 0.0124370651319623, 0.07389294356107712, 0.022992195561528206, 0.06078040972352028, -0.6243638396263123, 0.03569262847304344, 0.09199195355176926, -0.01132661197334528, 0.359801322221756, 0.08631777763366699, 0.19575391709804535, 0.08974630385637283, -0.5855578780174255, -0.22354362905025482, -0.015898512676358223, -0.5252508521080017, -1.3958653211593628, 0.10407334566116333, 0.07487291842699051, 0.1643986701965332, 0.38821181654930115, 0.11916304379701614, -0.10812155157327652, 0.021459398791193962, 0.35677191615104675, -0.029697207733988762, -0.007648364175111055, -0.07324779778718948, -0.24462701380252838, -0.100784532725811, -0.006958514917641878, -0.2924652397632599, -0.11362039297819138, -0.15180517733097076, 0.12298882752656937, 0.17003558576107025, 0.20612652599811554, -0.11995471268892288, -0.0649266168475151, -0.2727343738079071, -0.3105461895465851, 0.2344977706670761, 0.21507428586483002, -0.24006198346614838, 0.2537684142589569, 0.1358008235692978, 0.021433087065815926, -0.43655160069465637, -0.4779495894908905, -0.06789427250623703, 0.025717345997691154, -0.3080766499042511, -0.10999828577041626, 0.0907515212893486, -0.04672926291823387, -0.6028576493263245, 0.10080548375844955, -0.17917585372924805, 0.02496039681136608, -0.15178465843200684, 0.1451033502817154, -0.21856452524662018, -0.0037851708475500345, -0.0754089280962944, -0.07849424332380295, -0.1793612241744995, -0.01973670907318592, -0.33529290556907654, -0.330703467130661, 0.061532143503427505, 0.1111595556139946, 0.010353722609579563, -0.47999194264411926, -0.048739586025476456, -0.0032108400482684374, -0.1496584117412567, -0.25038954615592957, -0.04698833450675011, -0.11588739603757858, -0.11562419682741165, -0.7634125351905823, 0.0404626689851284, -0.005318731535226107, 0.2022993415594101, 0.17519532144069672, -0.24221181869506836, 0.14576993882656097, 0.2976216673851013, -0.5346969366073608, 0.091446153819561, -0.1938430517911911, -0.16476139426231384, 0.6660575270652771, -0.12126005440950394, 0.13651706278324127, 0.2678103744983673, 0.15844738483428955, -0.1863548755645752, -0.34137392044067383, 0.7048621773719788, -0.38987424969673157, 0.8498230576515198, -0.4142344892024994, -1.0767825841903687, -0.9834728837013245, -0.7881479859352112, 0.0025638232473284006, 0.2127523422241211, -0.02449384145438671, 0.1731664091348648, 0.14021575450897217, 0.30252453684806824, -0.0020451692398637533, -0.13173209130764008, 0.11440681666135788, 0.5578598380088806, -0.0205280352383852, 0.05008217692375183, 0.07883047312498093, -0.022721128538250923, 0.005795839708298445, -0.0519571490585804, -0.049727290868759155, -0.1947336047887802, -0.12058674544095993, 0.19926907122135162, -0.2350771278142929, 0.43486276268959045, -0.0037869883235543966, 0.1708456128835678, -0.1654122918844223, -0.06583958119153976, 0.12824343144893646, 0.003444105153903365, -0.25654086470603943, 0.02532999776303768, 0.043928083032369614, 0.048313792794942856, 0.07865870743989944, 0.0966944769024849, -0.22414851188659668, 0.16039015352725983, 0.3014579117298126, 0.508265495300293, 0.13410256803035736, -0.03462687134742737, -0.04872054234147072, 0.16651929914951324, 0.06150895729660988, -0.06883174180984497, -0.2953190803527832, -0.3608703315258026, 0.016310645267367363, -0.19017110764980316, -0.09635890275239944, -0.45780423283576965, -0.03778267279267311, 0.048232968896627426, -0.07671404629945755, -0.6578202843666077, 0.06292391568422318, 0.031223980709910393, -0.40607789158821106, 0.01845450885593891, -0.03969699516892433, 0.009322800673544407, 0.14644362032413483, 0.420886367559433, -0.12800049781799316, -0.05378969386219978, 0.029256848618388176, -0.14284931123256683, -0.2075224071741104, 0.22298026084899902, 0.29569175839424133, 0.33483001589775085, 0.12645719945430756, -0.20879842340946198, -0.03129717335104942, -0.47110602259635925, 0.04562172666192055, 0.0574602447450161, -0.034066349267959595, 0.5407885909080505, -0.1060020849108696, -0.07678926736116409, -0.3360345661640167, -0.010124645195901394, 0.13972260057926178, -0.011964217759668827, -0.005343161057680845, -0.6000514030456543, 0.07035035640001297, -0.2246844619512558, -0.06521235406398773, 0.4095931351184845, 0.1372140496969223, 0.0306644756346941, 0.15335632860660553, 0.7216740250587463, -0.03271693363785744, 0.024395601823925972, 0.12288498133420944, -0.16422782838344574, 0.18420980870723724, 0.05511721968650818, 0.29521703720092773, 0.32886430621147156, -0.07039500027894974, 0.12941382825374603, 0.14390252530574799, -0.09402144700288773, -0.03264254704117775, -0.12463057786226273, 0.09443037956953049, -0.28194358944892883, 0.15748073160648346, -0.06200713291764259, -0.03831666335463524, 0.2306830734014511, -0.08955364674329758, 0.0330238975584507, 0.2721734344959259, -0.007804498542100191, -0.10020207613706589, -0.09180235862731934, -0.3323782980442047, -0.22745324671268463, 0.10570014268159866, 0.10034442692995071, 0.24613453447818756, 0.0345943309366703, 0.03936189040541649, -0.05106258764863014, 0.18484871089458466, 0.05579304322600365, 0.18319909274578094, 