{"structure_edges": [[-1, 0, 1], [0, 1, 1], [1, 2, 1], [-1, 5, 1], [5, 6, 1], [6, 7, 1], [-1, 10, 1], [-1, 15, 1], [-1, 20, 1], [20, 21, 1], [21, 22, 1], [-1, 25, 1], [-1, 30, 1], [30, 33, 1], [33, 34, 1], [-1, 35, 1], [35, 38, 1], [38, 39, 1]], "structure_weights": {"mu": [-2.8035857304784373, -1.5002622386793245, 1.4714178672201073, -1.6910555624065728, -1.3813419933017652, 0.0, 0.0, 0.21812075312252718, -0.42845327258419574, 1.831452292995222, -1.2031645863720153, -0.6836153575269838, -0.13473904145175764, -0.13188670587726006, 0.0, 0.0, -0.27831977589965246, 0.13292035214479955, -2.8971750081154983, -0.3883306835102719, -0.03769622723412057, -1.306907524993843, -1.5560410715419348, 0.0, 0.0, -0.30364951251391864, 0.1534415800078011, -2.7433536610431783, -1.2737946272753586, -0.7115648624846377, 0.04056304121197721, -0.055736246754827336, 0.0, 0.0, -0.4984186822733362, 0.023103478082723408, -2.6606317258499677, -0.6873293602132832, -1.256718914121163, -1.5376912226626238, -1.4651376827987646, 0.0, 0.0, 0.03857841512630938, 0.12988788213948413, -1.6982267379940936, -1.5077042293084626, 0.9878252421311203, -0.8786188428053868, -1.4632794558527524, 0.0, 0.0, 0.23088745441535016, 0.24161243909298077, -2.7934803011593843, -1.4693673034060517, -0.9829267501585894, -0.17343753064581802, 0.045323433423589105, 0.0, 0.0, -0.167713191633862, 0.3825543474414987, -2.176687278182557, -0.871322802266256, 0.22995947530363428, -1.0956860137636875, -1.0538574346341214, 0.0, 0.0, 0.41755771106584116, -0.12221815501984758, -1.0829865738547162, -0.9464576125340585, -0.4916952919429402, 0.11143924796070802, 0.07341779720964577, 0.0, 0.0, -0.003329003837781, 0.0822538555137379, -1.7804023707740189, -0.8189787713663017, -2.1648842110392255, -0.7907134346374683, -1.4265890541146329, 0.0, 0.0, -0.3715139876711099, -0.3621788765737647, -1.6031033247578639, -0.8198508424950555, 0.9170818812578039, -0.7191246385313464, -1.2920845373186172, 0.0, 0.0, -0.8046871466179504, -0.7368436992113464, -1.3376083798606293, -0.8310335266184266, -0.6495681236926331, -0.06282456371752963, -0.16645100582423922, 0.0, 0.0, 0.36847530172217063, -0.6662805344462824, -0.7848778701674473, -0.38250992965192104, -1.6427795040108304, 0.4326614958240448, -1.1074303615380359, 0.0, 0.0, -0.2656496923998272, 0.0922543144805715, -0.2916699334102684, -0.8476796484099253, -1.0490015958975147, -0.8268462414614088, 0.47885026128854147, 0.0, 0.0, 0.07807263591849818, -1.0379819338676926, -1.148787844156207, -0.20872705458104726, -2.0318190504492293, -0.31929860526830295, -1.208086552734826, 0.0, 0.0, 0.06410250854572506, -0.08688754739717636, -0.3896608728831447, -0.8827232798185228, -0.6470375135552102, 1.3222495767531057, -0.9777110820010078, 0.0, 0.0, -0.6318116187042352, 0.049639688449196875, -0.7625669460799679, -0.9923567546352736, 0.11948505890257467, -0.09451531453630171, 0.18073259457116728, 0.0, 0.0, -0.3100199239783927, 0.3608991194528018, -0.7851860084769473, -0.4503314812706151, -1.1156289472180208, 0.16313681403883956, -1.318529800406376, 0.0, 0.0, -0.11670119430489591, 0.012574080518841783, -0.23186587311122359, -1.4192895336608613, -1.643589997132695, 0.2219587443564255, 0.04885623393881052, 0.0, 0.0, 0.009696534671496296, -0.007523222145021979, -0.6760230736108355, -1.0367164836269653, -2.1771110544549006, 1.0601409773240962, -1.3453939440113116, 0.0, 0.0, -0.08208474799270941, 0.3426588987803155, 0.2181426971997916, -0.7251485380502692, 1.7102728020508458, 1.3925241903252452, -1.0904562396909325, 0.0, 0.0, 0.24280099527569715, -0.4190538525135622, -0.5144935224543169, -0.7607026104803244, 0.2423214374766455, -0.355568140340763, 0.6722737915636332, 0.0, 0.0, -0.005102974910961174, 0.1440449548830164, -1.1508714576263759, -0.2873053890938417, -0.567780080874211, 1.7556277761650776, -1.2072481922506653, 0.0, 0.0, 0.5018815384960882, -0.4166898127411725, 0.40041249180978467, -1.2340746630675414, -1.1467717439411202, -0.2884545740430172, 0.363130975793958, 0.0, 0.0, -0.29252908415211043, 0.01569222194757011, 0.5230804078746913, -0.49409956441066966, -1.1485029694263489, 1.6676546982137097, -1.3407714599260518, 0.0, 0.0, 0.21312464324073313, -0.2597171971306635, 0.19590193973575032, -2.153934772414997, -0.2911532171692409, 2.3256976622820122, -1.6012081287276507, 0.0, 0.0, -0.25386365392697385, -1.130304768993874, -0.028286389081761603, -1.156328120896899, -1.638047829163237, -0.16195675780871288, -0.26317189776986455, 0.0, 0.0, -0.30860150326276253, -0.36493243089970157, 0.520050190031106, -0.8311643482182038, -1.4038219745225207, 1.7279678136616277, -1.7154022665863171, 0.0, 0.0, 0.580667479889772, 0.13532325799309902, 1.3868897026374536, -1.3639062276416531, -2.2013759364823664, 0.0862454300082833, 0.1562232907136012, 0.0, 0.0, -0.09410998096039275, 0.5717289076356352, 0.5384891145495619, -0.5933387844831091, -2.1527341366954684, 1.148854995054756, -1.3381154517301508, 0.0, 0.0, -0.1214202907009377, 0.2679342353419348, 0.913333514754129, -1.0682971843940694, 1.2489084538249917, 2.8953097388524474, -1.1607007883275047, 0.0, 0.0, 0.23860549212786006, -0.008072914243082962, 0.9157261592206609, -1.1923950749935257, -0.4882267697242285, -0.6085941589760471, -0.3037384267205946, 0.0, 0.0, 0.15049025105080077, -0.26137354913621996, 1.2081090622175694, -0.6218597926908177, -1.1668594207425473, 2.18393382922992, -1.2184847731456203, 0.0, 0.0, 0.14169448320788486, -0.6899959932821872, 1.713111842852434, -1.0786549484096772, -0.6156872270641757, 0.9605163057282549, 0.07679036214280215, 0.0, 0.0, -0.08575907275318462, -0.39439435344027346, 1.996568168030385, -0.8084161566502515, -0.6188679956031128, 3.04603072109486, -1.7881072980059072, 0.0, 0.0, -0.04109045198121178, -0.27949493238280665, 1.667574119820754, -1.527326544149747, 0.5557522289749259, 3.125000021773559, -1.0450445682616416, 0.0, 0.0, -0.1476875035821769, 0.2830492497293262, 1.1355944469979877, -1.8526773250425275, -0.9492017523394811, 0.03726012936963971, -0.02046137716524808, 0.0, 0.0, -0.3581219680767764, 0.09066851486841977, 1.5780207138897948, -0.9907413832315192, -2.0523290301148034, -2.1381894815485345, -1.336219301851719, 0.0, 0.0, 0.2538495036813291, 0.532813924684181, 1.6696983292450587, -1.5246406341635819, -0.663527569282783, 0.0457661619060836, 0.20470853101115882, 0.0, 0.0, -0.3594248655950379, -0.5478788061569516, 1.553258014252527, -1.2458178337607984, 0.3699319558540875, -2.7227965364675324, -1.2494171362768822, 0.0, 0.0, 0.15948892546363844, -0.7795966833039034], "sigma": [0.07342061404499521, 0.026980980805959353, 0.3470903253046773, 0.05669028096801209, 0.01, 0.1, 0.1, 0.1695709845122209, 0.2197467490403827, 0.06134675970823965, 0.08199911922758904, 0.2742738995661537, 0.29723915722700056, 0.10438097978149728, 0.1, 0.1, 0.7282407682330129, 0.5879902566543673, 0.09999997405676403, 0.036249623111119525, 0.27466089355443096, 0.06743578187043449, 0.12623522647133364, 0.1, 0.1, 1.043823077157224, 0.8371443179355827, 0.1, 0.1, 0.1, 0.1, 0.1, 0.1, 0.1, 0.1, 0.1, 0.1, 0.1, 0.1, 0.1, 0.1, 0.1, 0.1, 0.1, 0.1, 0.01, 0.041637564536381455, 0.30500905607979484, 0.07816537962637196, 0.04696043307086861, 0.1, 0.1, 0.22583041789785338, 0.1496529517826264, 0.07250519879398312, 0.1545912832289339, 0.2870982873850499, 0.9886869294534448, 0.16057330796492825, 0.1, 0.1, 0.3474381724069545, 0.9517010679591725, 0.07341126662198481, 0.14363648464435255, 0.35009194743928174, 0.1115430584743638, 0.1336498331990582, 0.1, 0.1, 0.6106477721532135, 0.28574398394578093, 0.1, 0.1, 0.1, 0.1, 0.1, 0.1, 0.1, 0.1, 0.1, 0.1, 0.1, 0.1, 0.1, 0.1, 0.1, 0.1, 0.1, 0.1, 0.0637444760599103, 0.07215198345968607, 0.17209561935535125, 0.18694509721114064, 0.110722754040659, 0.1, 0.1, 0.1770853877028571, 0.20750284664645557, 0.1, 0.1, 0.1, 0.1, 0.1, 0.1, 0.1, 0.1, 0.1, 0.1, 0.1, 0.1, 0.1, 0.1, 0.1, 0.1, 0.1, 0.1, 0.1, 0.1, 0.1, 0.1, 0.1, 0.1, 0.1, 0.1, 0.1, 0.1, 0.1, 0.1, 0.1, 0.1, 0.1, 0.1, 0.1, 0.1, 0.035002741258336564, 0.3312992180036574, 0.5793631648091391, 0.3023250945308814, 0.2677596106394251, 0.1, 0.1, 0.5743673444356461, 0.07600076354351247, 0.1, 0.1, 0.1, 0.1, 0.1, 0.1, 0.1, 0.1, 0.1, 0.1, 0.1, 0.1, 0.1, 0.1, 0.1, 0.1, 0.1, 0.1, 0.1, 0.1, 0.1, 0.1, 0.1, 0.1, 0.1, 0.1, 0.1, 0.1, 0.1, 0.1, 0.1, 0.1, 0.1, 0.1, 0.1, 0.1, 0.032968765579395765, 0.04265983339886797, 0.30559507751259823, 0.040441474651739646, 0.10427705561253808, 0.1, 0.1, 0.20934808941158528, 0.015540839091341904, 0.1094449839390803, 0.03093929355618233, 0.3307501543637058, 0.09851759340749436, 0.12621024470074732, 0.1, 0.1, 0.7535308145194595, 0.6372634388980856, 0.21844156341716717, 0.034933549103623236, 0.11467513899048293, 0.0659077154056093, 0.3186348066073018, 0.1, 0.1, 1.0581259201942932, 0.3618136832038373, 0.1, 0.1, 0.1, 0.1, 0.1, 0.1, 0.1, 0.1, 0.1, 0.1, 0.1, 0.1, 0.1, 0.1, 0.1, 0.1, 0.1, 0.1, 0.6559725372803978, 0.32371004841721196, 0.3678213940650755, 0.5426396921569219, 0.6633349489756203, 0.1, 0.1, 0.27792520700749196, 0.3524742256611689, 0.1, 0.1, 0.1, 0.1, 0.1, 0.1, 0.1, 0.1, 0.1, 0.1, 0.1, 0.1, 0.1, 0.1, 0.1, 0.1, 0.1, 0.1, 0.1, 0.1, 0.1, 0.1, 0.1, 0.1, 0.1, 0.1, 0.1, 0.1, 0.1, 0.1, 0.1, 0.1, 0.1, 0.1, 0.1, 0.1, 0.036517496772189004, 0.019629661770392277, 0.17968147638646065, 0.01, 0.014459944852760502, 0.1, 0.1, 0.314136797670182, 0.06198298142839833, 0.1, 0.1, 0.1, 0.1, 0.1, 0.1, 0.1, 0.1, 0.1, 0.1, 0.1, 0.1, 0.1, 0.1, 0.1, 0.1, 0.1, 0.1, 0.0567604538590978, 0.027818754542087865, 0.16639503980563722, 0.7447852488249086, 0.03910667609217785, 0.1, 0.1, 0.8031217777271233, 0.8055036396753958, 0.028139129970834908, 0.03301902020054177, 0.14615456039997995, 0.29719508889869006, 0.08644274585331377, 0.1, 0.1, 0.9350893736139065, 1.2929726398159598, 0.015493729513134116, 0.038326347382041756, 0.058443165700297575, 0.09999993247303839, 0.010438618110941064, 0.1, 0.1, 0.4536833557668945, 0.20990550176426997, 0.1, 0.1, 0.1, 0.1, 0.1, 0.1, 0.1, 0.1, 0.1, 0.1, 0.1, 0.1, 0.1, 0.1, 0.1, 0.1, 0.1, 0.1, 0.010872861078797313, 0.11863144754986325, 0.12983028818971018, 0.30761433131061716, 0.07509373727534742, 0.1, 0.1, 0.9440151788649322, 0.9555587563369317, 0.010001545613157643, 0.0953901823712304, 0.2223778908805686, 0.4153311503029981, 0.10592153350923574, 0.1, 0.1, 0.9496499975940947, 0.714206704346393]}, "policy_weights": [-0.0941678062081337, 0.3370903730392456, 0.05805247649550438, -0.0634918287396431, 0.09280907362699509, 0.036083366721868515, -0.19178350269794464, -0.09003520756959915, 0.22204025089740753, -0.24159729480743408, 0.12819184362888336, -0.019483597949147224, 0.09683378785848618, 0.7394810318946838, -0.13240587711334229, -0.10862969607114792, 0.04294544830918312, 0.07890022546052933, -0.03815626725554466, 0.05933183804154396, -0.306295782327652, 0.4298928678035736, -0.030955610796809196, -0.1203768327832222, 0.22026962041854858, 0.2129715234041214, 0.040192846208810806, -0.013282583095133305, 0.09815780073404312, -0.6138891577720642, -0.06461197882890701, -0.11073911935091019, 0.16769371926784515, 0.41810545325279236, -0.03881830349564552, 0.016745714470744133, -0.37563756108283997, 0.10429096966981888, 0.11859167367219925, 0.10275708884000778, -0.2093372941017151, 0.29718342423439026, -0.04447931423783302, 0.191345676779747, -0.034647468477487564, 0.02527785487473011, 0.06162482127547264, 0.021996332332491875, -0.13371028006076813, -0.20559954643249512, -0.10433709621429443, -0.16433288156986237, -0.021390261128544807, 0.28013208508491516, -0.09513788670301437, -0.10158050805330276, 0.056947942823171616, 0.5137051939964294, -0.13408111035823822, 0.2974705398082733, -0.19825880229473114, -0.1133875623345375, 0.08934693783521652, 0.01698140986263752, -0.05011431500315666, 0.4394831955432892, -0.026384184136986732, -0.10694969445466995, -0.060832079499959946, 0.14936496317386627, -0.11724983900785446, 0.10914360731840134, 0.27525565028190613, 0.35570621490478516, 0.1542438268661499, 0.08498173207044601, 0.3135702311992645, 0.2756042778491974, -0.10760844498872757, -0.014258130453526974, 0.14845700562000275, 1.2951844930648804, 0.1526871770620346, 0.19958949089050293, 0.004611553158611059, -0.3932640254497528, 0.006775724235922098, 0.0023360515478998423, -0.1765686422586441, 0.02647494710981846, -0.006377922836691141, 0.027719048783183098, -0.05267233029007912, -0.2552199065685272, -0.18065454065799713, -0.022485537454485893, 0.09264392405748367, 0.22659684717655182, 0.06256705522537231, 0.14977861940860748, -0.1608150601387024, -0.034762512892484665, -0.027382967993617058, -0.02285526879131794, 0.048214416950941086, -0.3135964572429657, 0.18500502407550812, 0.118880994617939, 0.12399768084287643, 0.022123293951153755, -0.14777874946594238, -0.1292640119791031, 0.10026439279317856, 0.33768248558044434, -0.08996463567018509, 0.005764565896242857, -0.17816554009914398, 0.012023036368191242, -0.10028258711099625, -0.286284476518631, -0.00793481431901455, 0.43327343463897705, 0.0034182220697402954, 0.029136834666132927, 0.030297664925456047, -0.6932277083396912, 0.14845381677150726, 0.05909186601638794, -0.33971163630485535, -0.31458476185798645, -0.031691160053014755, 0.022662339732050896, 0.06351882219314575, -0.031533610075712204, 0.14380909502506256, 0.06199752911925316, 0.13886865973472595, -0.05294482037425041, 0.23255445063114166, -0.08079826086759567, -0.30052071809768677, 0.031247146427631378, -0.18116413056850433, 0.09383951872587204, -0.17971085011959076, 0.2272488921880722, -0.15042604506015778, 0.261264830827713, 0.07737142592668533, 0.15474273264408112, -0.062460724264383316, 0.07014299184083939, 0.007244276348501444, 0.3384534418582916, -0.03772559389472008, 0.20818136632442474, -0.31916365027427673, -0.13946093618869781, 0.12996865808963776, 0.0459788478910923, -0.11134877055883408, -0.020605850964784622, 0.00397510826587677, 0.03368334099650383, 0.15670214593410492, -0.0628843605518341, 0.23335082828998566, 0.3558817207813263, -0.6188965439796448, 0.9719893336296082, -0.007970725186169147, 0.1799151748418808, -0.1250215321779251, 0.03412678465247154, -0.02496844343841076, 0.060895904898643494, -0.04655789956450462, 0.13564585149288177, 0.174666628241539, -0.05150160565972328, -0.33645185828208923, -0.052984077483415604, -0.037881676107645035, -0.073123037815094, 0.12427639216184616, 0.10212243348360062, 0.03658634424209595, 0.3469085395336151, 0.25145670771598816, -0.01825711317360401, 0.21182791888713837, 0.019352862611413002, -0.0407753549516201, 0.12470114976167679, -0.029358265921473503, 0.01200170535594225, -0.9454212784767151, 0.03301742672920227, 0.02126323990523815, -0.02036905474960804, -0.21818672120571136, 0.16665004193782806, -0.28902626037597656, 0.05388382077217102, 0.14043210446834564, 0.24904845654964447, 0.08773719519376755, -0.2784373462200165, 0.4636687934398651, 0.045785222202539444, -0.03020551986992359, -0.10228222608566284, 0.3466508388519287, 0.01982090063393116, -0.12032925337553024, -0.17456412315368652, 0.0809977725148201, 0.04216933622956276, 0.07655036449432373, -0.039475176483392715, -0.017245708033442497, -0.13380597531795502, 0.0013675278751179576, 0.0284652728587389, -0.664802610874176, -0.03860434889793396, -0.03648906946182251, 0.39284947514533997, 0.5267568230628967, -0.060603026300668716, -0.20988829433918, -0.023275943472981453, -0.013703501783311367, 0.05730437859892845, -0.10301323980093002, 0.1322699785232544, 0.2545122802257538, 0.07570724934339523, 0.13096167147159576, 0.1445469707250595, 0.09951550513505936, 0.04797518625855446, -0.13508011400699615, -0.15355108678340912, 0.004521303344517946, 0.1485593467950821, 0.06986480206251144, 0.12727488577365875, 0.2603926658630371, 0.05680340901017189, -0.059966620057821274, -0.3653661906719208, -0.1816098690032959, 0.10190462321043015, -0.17316104471683502, -0.2822398841381073, 0.1498284935951233, -0.1290234476327896, 0.20651642978191376, -0.06564111262559891, -0.03372950106859207, -0.062305692583322525, -0.03615868464112282, 0.05287468805909157, 0.157844677567482, -0.15397417545318604, 0.17254091799259186, 0.14298845827579498, -0.3017154037952423, -0.007599123287945986, 0.08069104701280594, 0.10229125618934631, 0.2825714647769928, -0.07157932966947556, -0.15462161600589752, 0.046039167791604996, 0.20785658061504364, 0.0648161843419075, -0.1672760397195816, -0.3738371431827545, -0.42993274331092834, 0.0569380484521389, 0.14269673824310303, 0.32132217288017273, -0.1849265843629837, -0.08749978989362717, 0.08953201025724411, -0.04985571280121803, 0.24101664125919342, 0.10980892926454544, -0.004954793024808168, -0.1763993501663208, -0.10213176161050797, 0.08048183470964432, -0.12212289124727249, 0.20948012173175812, 0.26563575863838196, 0.14026273787021637, -0.08287274837493896, -0.1294778734445572, -0.26010963320732117, -0.12862063944339752, 0.19579267501831055, 0.08866176009178162, 0.5557634234428406, -0.06780188530683517, -0.0036287906114012003, -0.125003844499588, -0.4246818721294403, -0.04464277997612953, -0.06829798966646194, 0.05578935146331787, -0.018413914367556572, -0.0022217032965272665, 0.17209364473819733, -0.09270238131284714, 0.07972531765699387, -0.07824968546628952, 0.06344520300626755, 0.014088482595980167, -0.3234078586101532, -0.006040140986442566, -0.03590526804327965, -0.048928309231996536, 0.5063037872314453, 0.05940217152237892, 0.024752290919423103, 0.2190416306257248, 0.4645659029483795, 0.03352498635649681, 0.0686570480465889, -0.30259621143341064, 0.057269010692834854, -0.8146979212760925, 0.07512659579515457, 0.7346596717834473, -0.1972128301858902, 0.6104860305786133, 0.3415631055831909, -0.028415320441126823, -0.09735346585512161, 0.2139831930398941, 0.3155015707015991, 0.20253580808639526, 0.016813727095723152, 0.08479040116071701, -0.052124977111816406, -0.01971340738236904, 0.012582509778439999, -0.04512685164809227, 0.12890590727329254, 0.035186152905225754, -0.029726387932896614, -0.13126517832279205, 0.2707631289958954, -0.3020789325237274, -0.09624820202589035, -0.05046403780579567, -0.04245886579155922, -0.24443866312503815, -0.038549717515707016, -0.028932927176356316, 0.10545430332422256, -0.08296430110931396, -0.010973350144922733, -0.10675667971372604, 0.25950169563293457, -0.2880108058452606, 0.14299844205379486, -0.03581094741821289, 0.21714834868907928, 0.2968079745769501, -0.015614359639585018, -0.1687157303094864, 0.26969456672668457, -0.5769676566123962, 0.1654428392648697, 0.08020252734422684, -0.1986253410577774, 0.30202123522758484, -0.031084148213267326, 0.153963103890419, 0.10277634114027023, 0.1003771647810936, 0.10246872156858444, -0.07912873476743698, 0.21493904292583466, 0.43717923760414124, 0.017251087352633476, 0.025561748072504997, -0.053122278302907944, 0.14790882170200348, -0.10720368474721909, 0.017938656732439995, 0.07830525189638138, 0.2111697942018509, 0.045984651893377304, -0.020863233134150505, -0.2598831355571747, 0.19909213483333588, -0.16510523855686188, 0.16559936106204987, -0.13581690192222595, -0.2583673298358917, -0.03706153854727745, 0.11501406878232956, -0.2196989208459854, -0.3570959270000458, 0.12695811688899994, 0.09398538619279861, 0.0998716950416565, -0.4294683039188385, 0.0133237699046731, 0.012602568604052067, -0.18019606173038483, 0.3257097899913788, -0.10031187534332275, 0.12958289682865143, -0.06548409909009933, -0.5120630860328674, 0.20482562482357025, 0.11752044409513474, -0.22827833890914917, -0.290949285030365, 0.06727360934019089, 0.14184798300266266, 0.5180549025535583, 0.09872355312108994, 0.015542627312242985, 0.09734988957643509, 0.1197323426604271, -0.009045328013598919, -0.0419161356985569, 0.04514667019248009, 0.4439692199230194, -0.05473816767334938, -0.06878561526536942, 0.0887606218457222, -0.010732525028288364, -0.4018711745738983, -0.09937810152769089, 0.004320953506976366, -0.23546747863292694, 0.20604389905929565, 0.017777161672711372, -0.038254234939813614, 0.1436922401189804, -0.01587693579494953, 0.025272248312830925, 0.171981081366539, -0.44530436396598816, -0.9464063048362732, -0.1187823936343193, 0.045436445623636246, 0.0035294147673994303, -0.11687446385622025, 0.0117094861343503, 0.23386286199092865, 0.0845627710223198, 0.4472598731517792, 0.19929610192775726, 0.13291741907596588, -0.2346416711807251, 0.8838026523590088, 0.08290653675794601, 0.12635459005832672, 0.02407008223235607, 0.1529688686132431, -0.04887252673506737, 0.0056692552752792835, -0.1264515072107315, -0.1692669540643692, 0.07524090260267258, -0.2016913741827011, 0.012053809128701687, 0.3068324029445648, 0.07742507010698318, -0.18681226670742035, -0.21318858861923218, 0.20906953513622284, 0.0036581752356141806, 0.030615657567977905, -0.2569442391395569, -0.04013362154364586, -0.0636143609881401, -0.027960987761616707, 0.04153928533196449, 0.19148002564907074, 0.1437472105026245, 0.07168949395418167, -0.03513529524207115, -0.031409475952386856, 0.17767180502414703, -0.04369330033659935, 0.28957706689834595, -0.5712175965309143, -0.07907574623823166, 0.06442809849977493, 0.1183706745505333, 0.10427341610193253, -0.13494490087032318, -0.04952118173241615, -0.05588863417506218, -0.17367255687713623, 0.2783830463886261, -0.33715584874153137, -0.25822606682777405, -0.3542240560054779, -0.08348248153924942, 0.5837922692298889, 0.35359394550323486, -0.5123502016067505, -0.4759082794189453, 0.14872467517852783, -0.48675811290740967, 0.05482916161417961, -0.06012433394789696, -0.026654429733753204, 0.2611159384250641, 0.1451519876718521, -0.1707637459039688, 0.011293475516140461, -0.1579945981502533, -0.10533154755830765, -0.17089533805847168, -0.2021963745355606, -0.20902372896671295, 0.045270297676324844, 0.02617262862622738, -0.20029784739017487, -0.2297966331243515, -0.07258342951536179, -0.08338392525911331, -0.07531922310590744, -0.43321582674980164, -0.007636077236384153, 0.10776162892580032, -0.37286290526390076, -1.628861904144287, 0.054314617067575455, 0.022094158455729485, 0.3271486759185791, 0.2973006069660187, 0.14482034742832184, 0.15382669866085052, -0.1783662885427475, -0.8602256178855896, 0.09311322122812271, -0.08906757086515427, 0.16049502789974213, -0.05445766821503639, 0.10973752290010452, 0.08496075868606567, 0.13564331829547882, -0.22571785748004913, -0.038510292768478394, -0.006833349820226431, 0.35338065028190613, 0.4386591911315918, -0.027430221438407898, 0.11519216746091843, -0.24611018598079681, 0.06451375037431717, 0.047710154205560684, -0.023088810965418816, 0.3161669075489044, -0.1393977552652359, 0.1733572632074356, -0.18674404919147491, -0.26948311924934387, 0.28310897946357727, -0.07702671736478806, 0.0008261706680059433, -0.05288258567452431, -0.05032479390501976, 0.06358509510755539, 0.03717857971787453, -0.035065118223428726, -0.5297521948814392, 0.10595165938138962, 0.021788807585835457, -0.14761434495449066, -0.7772297859191895, -0.07732696086168289, 0.13345147669315338, 0.20706240832805634, 0.49495741724967957, 0.01760147325694561, 0.07082885503768921, 0.12128425389528275, 0.2191365510225296, 0.018634112551808357, 0.06623225659132004, -0.12765270471572876, -0.3305557072162628, 0.06184595450758934, 0.22113895416259766, -0.20245003700256348, -0.2613476514816284, -0.0747571513056755, 0.12568126618862152, -0.08482182770967484, -0.0010190821485593915, -0.09657049179077148, -0.12330294400453568, -0.10874120146036148, 0.3151383697986603, 0.09427940100431442, 0.10009630769491196, -0.10547495633363724, -0.18239466845989227, 0.02297709695994854, -0.12305761128664017, -0.046920452266931534, -0.2331574708223343, 0.07918012142181396, -0.09516286104917526, 0.03332650288939476, -0.4142150580883026, -0.048164840787649155, 0.17191599309444427, 0.18845175206661224, -0.1752939373254776, 0.036433663219213486, 0.08634866029024124, 0.11399126797914505, 0.08895134180784225, -0.08878255635499954, -0.10941588133573532, 0.0033692095894366503, -0.11699617654085159, -0.13252998888492584, -0.17929841578006744, 0.029055839404463768, 0.1843288093805313, -0.15810967981815338, -0.0762365534901619, 0.10918915271759033, -0.5434226393699646, 0.12871672213077545, 0.13489983975887299, -0.2288210242986679, -0.0028467702213674784, -0.055270951241254807, -0.09449458867311478, -0.08089494705200195, -0.20527929067611694, -0.02683562971651554, 0.23120473325252533, -0.21924681961536407, -0.059833426028490067, 0.16187594830989838, -0.042535100132226944, -0.005837916862219572, -0.36653077602386475, 0.10382545739412308, 0.011124037206172943, 0.30017349123954773, 0.004862253088504076, 0.2680874168872833, 0.005726379808038473, 0.00011644873302429914, 0.3870876729488373, -0.07227928191423416, -0.1282416582107544, -0.03519482910633087, 0.5383370518684387, 0.11721300333738327, 0.019383354112505913, 0.31971535086631775, 0.3951592743396759, -0.14153943955898285, -0.020860446617007256, -0.1351909339427948, -0.018299410119652748, -0.2986699640750885, 0.15995347499847412, 0.5218371748924255, 0.09639779478311539, 0.5214049816131592, -0.4884053170681, -0.2718823552131653, 0.4530525505542755, -0.020498795434832573, -0.022146672010421753, 0.2502824366092682, 0.046852800995111465, 0.06895870715379715, 0.4339691400527954, 0.38673290610313416, 0.08406548947095871, -0.01692040078341961, 0.02351861447095871, -0.21599887311458588, 0.08793468028306961, -0.05799853429198265, 0.11700355261564255, 0.2075149267911911, -0.04969465360045433, 0.09646614640951157, 0.1903381198644638, -0.3453555405139923, 0.1796724796295166, -0.1208864375948906, -0.44858238101005554, 0.3221360743045807, 0.012159980833530426, -0.11370671540498734, 0.19939370453357697, 0.2933013141155243, 0.07592201977968216, -0.15062223374843597, -0.2770632207393646, -0.23927831649780273, 0.06587065011262894, -0.058505889028310776, 0.11282456666231155, 0.1510077565908432, -0.08595740050077438, 0.05873512849211693, 0.31093594431877136, -0.24760128557682037, -0.003176033264026046, 0.1045057401061058, -0.043876152485609055, -0.4183749854564667, 0.056600574404001236, -0.07432205229997635, -0.0896250531077385, 0.4089546501636505, -0.13737080991268158, -0.11660600453615189, 0.17951475083827972, 0.32311007380485535, -0.17409707605838776, 0.1883312463760376, 0.2997153103351593, 1.3085824251174927, 0.11330354958772659, 0.07122785598039627, 0.015553251840174198, -0.11719990521669388, -0.13385272026062012, -0.028798073530197144, -0.2289346307516098, 0.3106810748577118, 0.028639910742640495, 0.038251277059316635, 0.046494271606206894, -0.08765483647584915, -0.09171272069215775, 0.10115651041269302, -0.4033336341381073, -0.7109680771827698, 0.0043899682350456715, -0.04340178146958351, 0.20305965840816498, 0.500941276550293, 0.009211092256009579, 0.1753300577402115, 0.02598261646926403, -0.03438660129904747, -0.010597900487482548, 0.04562464356422424, -0.06364928930997849, 0.2153642773628235, -0.09987825155258179, -0.02090938203036785, -0.21120087802410126, -0.37768879532814026, -0.01857130415737629, 0.004747103434056044, -0.3770401179790497, -0.5718311667442322, -0.06889701634645462, 0.2721441090106964, -0.2944340407848358, -0.20268084108829498, 0.09631079435348511, 0.19090868532657623, -0.028600124642252922, 0.5755566954612732, 0.1583692878484726, -0.12732098996639252, -0.11249023675918579, 0.036694902926683426, 0.26888158917427063, -0.032013360410928726, 0.17359258234500885, 0.24630476534366608, -0.0960654690861702, 0.17615796625614166, -0.6734132170677185, 0.050675828009843826, 0.1370541900396347, 0.0673896074295044, 0.09592049568891525, -0.10752225667238235, 0.15335725247859955, -0.15900908410549164, 0.0024418996181339025, 0.05730581656098366, 0.022532863542437553, 0.2217753678560257, 0.23118489980697632, 0.05894264951348305, 0.10412324219942093, 0.20690204203128815, -0.14446519315242767, -0.15253494679927826, -0.05275428295135498, -0.14557813107967377, 0.0975838303565979, 0.04983280226588249, 0.12987399101257324, 0.0031117741018533707, 0.3405425548553467, 0.21125493943691254, -0.07205582410097122, 0.02103695087134838, 0.30719321966171265, 0.03841855749487877, -0.07836955040693283, 0.062034670263528824, -0.008456193841993809, -0.08072682470083237, 0.0032934125047177076, -0.14073537290096283, -0.1724700778722763, 0.46969035267829895, 0.12503230571746826, -0.025691566988825798, -0.0417218841612339, -0.30993106961250305, -0.1871156543493271, -0.01622389256954193, 0.2135189026594162, 0.08308128267526627, 0.017021430656313896, 0.07466644048690796, 0.18365776538848877, 0.24878454208374023, -0.05430470034480095, -0.03179759159684181, -0.15827858448028564, -0.2556418478488922, 0.07386571168899536, -0.034003451466560364, -0.07719890028238297, -0.14305151998996735, -0.7860470414161682, -0.1728217452764511, 0.322306364774704, 0.39211222529411316, 0.5029794573783875, 0.2181796282529831, 0.257222056388855, 0.07815670222043991, -0.007246329914778471, -0.19375689327716827, -0.7052800059318542, -0.04509400948882103, 0.07436143606901169, -0.3167525827884674, 0.07323497533798218, -0.18698750436306, 0.12223614007234573, 0.12457989901304245, -0.39963313937187195, 0.0638081356883049, -0.29370567202568054, 0.14242996275424957, 0.12632964551448822, -0.19134771823883057, 0.05608701333403587, 0.25892797112464905, 0.5290296077728271, -0.07154124230146408, -0.1462240219116211, 0.11124821752309799, 0.31189247965812683, -0.022242845967411995, -0.12546251714229584, -0.024249820038676262, -0.17019183933734894, -0.10210942476987839, -0.03843802586197853, 0.09634768962860107, 0.3284018039703369, -0.062465544790029526, -0.058650728315114975, 0.015013798139989376, -0.29651567339897156, -0.07608139514923096, -0.10239075869321823, 0.2449846714735031, 0.15949806571006775, 0.029771624132990837, -0.029629496857523918, 0.010072014294564724, -0.03611424192786217, 0.16430102288722992, 0.0287857037037611, -0.35480114817619324, -0.3245343863964081, -0.16855476796627045, 0.05728166922926903, 0.02631608583033085, -0.4050755202770233, -0.16824473440647125, -0.05135367438197136, -0.026680847629904747, -0.3512434661388397, 0.026475826278328896, -0.07938861101865768, -0.02050771191716194, -0.24544279277324677, -0.08259253948926926, 0.08015459030866623, 0.02228073962032795, -0.3811245262622833, 0.16698767244815826, -0.11220847815275192, -0.18376339972019196, 0.4867977797985077, -0.09619700908660889, 0.0004195243527647108, 0.08526962250471115, 0.3390633761882782, 0.03794678673148155, -0.05596357583999634, 0.09770015627145767, 0.1454705148935318, -0.06083410605788231, -0.0003498675941955298, -0.14926908910274506, -0.2097909301519394, 0.018943192437291145, -0.007628329563885927, 0.050582095980644226, -0.13129852712154388, 0.026825925335288048, -0.03447980061173439, -0.18941910564899445, -0.31115368008613586, 0.07945441454648972, -0.012498623691499233, 0.07612036913633347, -0.44782450795173645, 0.27674242854118347, 0.1795903593301773, -0.10244942456483841, -0.3831667900085449, -0.014775156043469906, -0.0157660823315382, 0.147984117269516, 0.11703933030366898, -0.22994516789913177, -0.05342715606093407, -0.22989727556705475, -0.9319829344749451, 0.13093985617160797, -0.03437026962637901, -0.24907730519771576, 0.37953659892082214, 0.1357250064611435, 0.028138218447566032, -0.14324891567230225, 0.7474175095558167, 0.09737347811460495, 0.03188001736998558, 0.032213982194662094, -0.8565607070922852, 0.022681476548314095, 0.12549914419651031, -0.13865846395492554, -0.02107297070324421, 0.028865722939372063, 0.03003370575606823, -0.09126504510641098, -0.373658150434494, -0.2657490074634552, 0.07254505902528763, 0.025432707741856575, -0.19169962406158447, 0.17396403849124908, -0.0976022407412529, 0.05375785008072853, -0.4345529079437256, -0.16535340249538422, 0.07344358414411545, 0.0638352707028389, 0.1490536481142044, -0.007969521917402744, -0.06298179179430008, 0.3547252416610718, -0.2520127594470978, 0.14177049696445465, 0.0894041582942009, -0.1113419458270073, -0.1649581342935562, 0.10470014810562134, -0.07669376581907272, -0.40615323185920715, -0.42851290106773376, 0.11841917783021927, 0.0703592374920845, 0.2850164473056793, 0.12974102795124054, -0.09151757508516312, -0.07862377911806107, 0.025520192459225655, -0.34199652075767517, 0.2345726490020752, -0.18529736995697021, -0.15831799805164337, -0.0953136458992958, -0.15168212354183197, -0.10734055191278458, 0.2968185544013977, 0.14043660461902618, -0.146762415766716, -0.11716843396425247, -0.04402097687125206, 0.5528574585914612, -0.2125483602285385, 0.2366507202386856, -0.30618199706077576, 0.059084538370370865, 0.16520430147647858, -0.3203223645687103, -0.3082065284252167, -0.056992169469594955, 0.08601284772157669, -0.18435488641262054, -0.39709413051605225, 0.049162860959768295, -0.1447117179632187, 0.11892211437225342, 0.8358176350593567, 0.18008042871952057, 0.04843354597687721, 0.1946900635957718, 0.04838180914521217, 0.02922922559082508, -0.00487099913880229, 0.021837951615452766, -0.20245884358882904, -0.09988618642091751, 0.02019655890762806, -0.08939733356237411, -0.1261378973722458, -0.031187864020466805, 0.09110570698976517, -0.09438571333885193, -0.40898510813713074, -0.24849151074886322, -0.038042787462472916, -0.345035582780838, -1.0255193710327148, -0.10336613655090332, 0.027880700305104256, -0.046839769929647446, 0.5936499238014221, -0.0437811054289341, -0.017169132828712463, 0.22744326293468475, 0.32614442706108093, -0.07892513275146484, 0.11914419382810593, 0.253360778093338, 0.9918070435523987, -0.1690363734960556, -0.0053170244209468365, -0.09199047833681107, 0.2318124920129776, 0.03104635886847973, 0.19811545312404633, 0.10130716115236282, 0.07888162136077881, 0.09218687564134598, 0.004785590339452028, 0.07208334654569626, 0.5303773283958435, 0.03937142714858055, 0.05013133957982063, -0.1994350403547287, 0.5055890083312988, 0.015433340333402157, 0.007428228389471769, -0.07361560314893723, 0.10528074949979782, -0.014286861754953861, 0.060289859771728516, 0.23771096765995026, 0.1781759411096573, -0.0569988489151001, 0.07509446889162064, -0.24054409563541412, -0.2890641689300537, -0.2322382777929306, -0.23360134661197662, -0.11508417874574661, -0.2916278541088104, -0.04332831874489784, 0.13123668730258942, -0.021829813718795776, -0.21537800133228302, -0.04106367006897926, -0.18176482617855072, -0.13936834037303925, -0.575232744216919, -0.12060617655515671, -0.010053946636617184, -0.08377446979284286, 0.5174583792686462, 0.11460196226835251, -0.013221890665590763, -0.03218144550919533, -0.8531491160392761, 0.004141754936426878, 0.12644147872924805, 0.17172275483608246, 0.11480700224637985, -0.05154549703001976, 0.014095366932451725, -0.18529029190540314, -0.77229243516922, 0.04978352412581444, -0.062016550451517105, 0.03390542045235634, 0.04740665480494499, 0.069489486515522, 0.15038682520389557, -0.05599009618163109, 0.13620589673519135, 0.1640254259109497, -0.13410650193691254, -0.15513907372951508, -0.15356527268886566, 0.027260025963187218, 0.1615908294916153, 0.640449583530426, -0.013828436844050884, -0.2591197192668915, 0.020733416080474854, -0.03028319776058197, 0.008875329978764057, -0.07802944630384445, 0.04121032729744911, 0.11643802374601364, 0.09142350405454636, 0.028886737301945686, 0.11526834219694138, 0.0828372910618782, 0.020606128498911858, 0.01108712051063776, -0.12958623468875885, 0.27306225895881653, 0.19271320104599, -0.1443634182214737, 0.10749994963407516, 0.024484364315867424, 0.25687891244888306, -0.09446543455123901, 0.08414728194475174, 0.28651246428489685, 0.018687602132558823, -0.04229259118437767, 0.14407207071781158, -0.18474571406841278, 0.24343682825565338, 0.10637172311544418, 0.07200806587934494, 0.04073155298829079, 0.2982577979564667, -0.07042121887207031, 0.07158268243074417, -0.10756232589483261, -0.138658344745636, 0.0007080980576574802, -0.010520369745790958, -0.06729128956794739, -0.3339935839176178, -0.0423693023622036, -0.03067329339683056, 0.12912769615650177, 0.22071479260921478, -0.2153623104095459, -0.16480180621147156, 0.41912105679512024, -0.0067095584236085415, -0.023612216114997864, 0.57093346118927, 0.10869579762220383, -0.12946227192878723, 0.3841896951198578, 0.11405769735574722, 0.061871323734521866, -0.00876657571643591, -0.12229668349027634, 0.18236292898654938, 0.06149705871939659, -0.156553253531456, 0.28832122683525085, 0.07891426235437393, 0.06314364075660706, -0.013086955063045025, 0.1947496086359024, 0.20142138004302979, 0.06796001642942429, -0.13104881346225739, -0.04635488614439964, -0.209376260638237, 0.3458738625049591, 0.1272670179605484, 0.08073950558900833, 0.12944112718105316, -0.15083087980747223, -0.10110176354646683, -0.009604930877685547, 0.09737943857908249, -0.2914911210536957, 0.00742321414873004, 0.06593340635299683, 0.5008187890052795, 0.001627537072636187, -0.18240953981876373, 0.004057742655277252, -0.05490143969655037, -0.47452303767204285, 0.19543753564357758, 0.01788625307381153, 0.16519655287265778, -0.03594506159424782, 0.045578692108392715, 0.009792395867407322, 0.026684897020459175, -0.29796239733695984, 0.034088198095560074, 0.16024495661258698, 0.29879334568977356, 0.28488877415657043, 0.0664835050702095, 0.00799547042697668, -0.27576664090156555, -0.42905154824256897, 0.07943426817655563, 0.08968966454267502, 0.04819265007972717, 0.4484277069568634, -0.027696028351783752, 0.03455210104584694, -0.26598790287971497, -0.40100622177124023, -0.1258932501077652, -0.008628769777715206, 0.024914197623729706, -0.11315945535898209, 0.06553124636411667, -0.048547353595495224, 0.4503636062145233, 0.29669734835624695, -0.010935350321233273, 0.0027951335068792105, -0.08835709095001221, 0.050398070365190506, 0.0018443259177729487, -0.2767431437969208, 0.36869552731513977, -0.7246007919311523, 0.038794394582509995, -0.040237244218587875, 0.15000522136688232, 0.16812647879123688, -0.24895571172237396, 0.03229561820626259, -0.253783643245697, -0.6420058608055115, 0.07756942510604858, 0.02459113486111164, 0.004035064484924078, 0.1837381273508072, 0.023949233815073967, 0.06893832236528397, 0.4680790603160858, 0.5008870363235474, 0.0786212608218193, -0.11383592337369919, -0.07539773732423782, -0.31812742352485657, 0.23903463780879974, -0.023392466828227043, -0.09926234930753708, -0.337903767824173, 0.02880472131073475, -0.0033764417748898268, 0.2590993344783783, -0.5736467242240906, 0.2149191051721573, 0.013078154064714909, 0.276995450258255, -0.34101104736328125, 0.07387953251600266, 0.07803791016340256, -0.16699446737766266, 0.09451421350240707, 0.16584385931491852, 0.05892175808548927, 0.3078417479991913, 0.03148936852812767, 0.18987266719341278, -0.147636279463768, -0.3852027356624603, -0.3672897517681122, -0.07274056226015091, 0.10537727922201157, 0.059607427567243576, 0.22848021984100342, 0.02196374349296093, 0.04027703031897545, 0.2029155045747757, 0.5803108811378479, 0.07418357580900192, -0.026127545163035393, -0.4768719971179962, -0.026321055367588997, 0.025501957163214684, 0.14292024075984955, 0.3417540490627289, 0.343158483505249, 0.005751143675297499, -0.06848417967557907, -0.3630817234516144, 0.140504390001297, 0.1457158476114273, 0.0488511361181736, -0.39167189598083496, 0.6510205268859863, -0.13116014003753662, -0.08383785933256149, 0.2186492681503296, -0.2750243842601776, 0.041793342679739, -0.18902064859867096, 0.2000054121017456, -0.2056206911802292, 0.11738253384828568, 0.2331090122461319, -0.17415155470371246, 0.13916519284248352, 0.042251020669937134, 0.03255227208137512, -0.40105104446411133, 0.09756753593683243, -0.007353015709668398, -0.20101173222064972, -0.16846156120300293, 0.04587918147444725, -0.17303980886936188, -0.056806739419698715, 0.2898108661174774, 0.03623204305768013, 0.08529170602560043, -0.07454199343919754, -0.25449177622795105, -0.3745764195919037, 0.2232506275177002, -0.015228510834276676, -0.045603930950164795, 0.10109841078519821, -0.11434613913297653, 0.17957092821598053, 0.12926703691482544, 0.052291661500930786, 0.12989209592342377, -0.4233142137527466, 0.13556714355945587, 0.03172456845641136, 0.011404282413423061, -0.20940792560577393, -0.24188734591007233, -0.10396326333284378, -0.18508093059062958, -0.10907363146543503, 0.8077229857444763, -0.09502487629652023, -0.0022490175906568766, 0.0426735021173954, 0.34423473477363586, 0.024535568431019783, 0.025619754567742348, 0.19590754806995392, 0.5457699298858643, -0.018111959099769592, -0.00580888194963336, -0.038764286786317825, 0.03782441094517708, 0.033723775297403336, -0.03382909670472145, 0.01728464849293232, -0.3625459372997284, 0.09516938775777817, 0.05482655391097069, -0.3293605148792267, -0.48201701045036316, -0.03128954395651817, -0.15049730241298676, -0.28998473286628723, 0.18910463154315948, -0.03248482570052147, 0.053558822721242905, -0.4537672698497772, -0.8183695673942566, -9.959714225260541e-05, -0.08681868761777878, 0.30775949358940125, 0.14357160031795502, 0.12671734392642975, -0.024289162829518318, -0.15016865730285645, 0.363250732421875, 0.028790267184376717, -0.04420090094208717, -0.13721884787082672, 0.0200633704662323, 0.03379678726196289, -0.005696653854101896, -0.19568586349487305, 0.5379093885421753, 0.057551149278879166, 0.10783100873231888, -0.0038461682852357626, 0.7278445363044739, 0.04001602903008461, 0.07543105632066727, 0.33936527371406555, -0.5968566536903381, -0.02924594096839428, 0.15994931757450104, 0.25446394085884094, 0.23324917256832123, -0.0002555257815402001, 0.09751098603010178, 0.07679230719804764, 0.15775300562381744, -0.06173044070601463, 0.07011746615171432, -0.3231804668903351, 0.21008014678955078, -0.00048039478133432567, -0.14009393751621246, 0.20321603119373322, -0.4229980707168579, 0.04162197932600975, -0.11952947825193405, -0.15883004665374756, 0.2829051911830902, 0.0075291176326572895, 0.005833353381603956, 0.17194081842899323, 0.231888547539711, 0.2868005931377411, 0.06564449518918991, 0.13625001907348633, -0.10126912593841553, -0.02488643117249012, 0.16785943508148193, 0.21261340379714966, -0.4766644537448883, 0.06680161505937576, 0.01275815162807703, 0.49392130970954895, 1.0248888731002808, 0.13042034208774567, -0.053687866777181625, -0.016119031235575676, -0.055517736822366714, 0.2563786208629608, 0.18086431920528412, -0.14942122995853424, -0.12983344495296478, -0.1414724737405777, 0.10717908293008804, 0.09277117997407913, 0.10949605703353882, 0.0940927192568779, -0.12212801724672318, -0.13770367205142975, -0.10820289701223373, 0.0028931573033332825, 0.051965147256851196, 0.19687378406524658, 0.35802698135375977, 0.15414024889469147, -0.0033620300237089396, 0.12737631797790527, 0.003425935283303261, 0.04925733432173729, -0.04931694641709328, 0.2654009759426117, -0.07778613269329071, 0.024594007059931755, -0.011681373231112957, -0.62284255027771, 0.413547545671463, -0.2110907882452011, 0.06897812336683273, -0.052661359310150146, -0.0780947357416153, 0.06002914533019066, 0.29469868540763855, 0.13435910642147064, -0.14524246752262115, 0.18297125399112701, 0.025398990139365196, -0.09302973002195358, 0.026676664128899574, -0.03859600052237511, 0.048939112573862076, 0.05023203417658806, 0.20627373456954956, -0.06751071661710739, 0.003717307234182954, -0.046938616782426834, 0.15540170669555664, 0.08056246489286423, -0.17128418385982513, 0.07603777199983597, -0.08006826788187027, 0.20933477580547333, -0.1090516448020935, -0.12715785205364227, -0.11666438728570938, -0.08114803582429886, -0.015160688199102879, 0.11454368382692337, -0.17978502810001373, 0.300809770822525, 0.200362429022789, -0.30760976672172546, 0.23847006261348724, 0.07899213582277298, 0.18638330698013306, 0.05195094645023346, 0.027218608185648918, -0.03862473741173744, 0.4742382764816284, 0.7176554203033447, -0.01799430139362812, 0.10088467597961426, 0.08856994658708572, -0.1360750049352646, 0.10217491537332535, -0.04465574398636818, -0.08037608116865158, 0.04531952366232872, -0.14530672132968903, 0.022741777822375298, 0.1584172397851944, -0.13960739970207214, 0.2510094940662384, 0.1673063188791275, -0.08120299130678177, 0.5996455550193787, 0.04843779280781746, 0.09462123364210129, -0.11556795984506607, 0.3060896694660187, -0.11701082438230515, 0.005437477957457304, 0.29285383224487305, 0.46214917302131653, 0.15433646738529205, 0.12762142717838287, -0.05465000495314598, 0.5682501196861267, -0.003796894336119294, 0.21085809171199799, -0.2911318838596344, -0.38902100920677185, -0.05153181031346321, -0.07660459727048874, 0.1570364087820053, 1.0636826753616333, 0.06316208094358444, -0.07017987221479416, 0.18486584722995758, 0.1793205589056015, -0.09237097948789597, 0.14676333963871002, -0.008356048725545406, 0.36971691250801086, -0.08325476199388504, -0.10660063475370407, 0.043806735426187515, -0.3132934272289276, 0.1489896923303604, 0.0054522608406841755, -0.20839263498783112, -0.0845549926161766, 0.004377502482384443, 0.02644619159400463, 0.4024491608142853, 0.11895751953125, -0.10039293020963669, -0.09961050003767014, 0.17530836164951324, 0.8395147919654846, -0.14162693917751312, 0.02358326129615307, -0.009351245127618313, 0.2814531624317169, -0.18534350395202637, -0.07606232911348343, 0.0946347787976265, -0.2252349704504013, -0.09112066775560379, -0.05325790122151375, -0.27025946974754333, -0.5674846768379211, 0.02115003578364849, 0.01716543547809124, 0.09434463828802109, 0.3883955776691437, 0.09807205945253372, -0.008133546449244022, 0.23774750530719757, -0.1325756013393402, 0.1283782571554184, 0.09079336374998093, 0.2557508647441864, -0.0009392760111950338, 0.07981806248426437, -0.12073075026273727, -0.12326753884553909, 0.4896802604198456, 0.10773062705993652, 0.047850463539361954, -0.23001199960708618, -0.23359835147857666, 0.21206976473331451, -0.04706484451889992, -0.22579719126224518, -0.29050424695014954, 0.15703262388706207, -0.04393082484602928, -0.14026688039302826, -0.0889955684542656, 0.05341922864317894, -0.058845218271017075, -0.03649202361702919, 0.4549989700317383, -0.02181863971054554, 0.005281559657305479, 0.03873801603913307, -0.1086050346493721, 0.02658560685813427, 0.06821364909410477, -0.21139614284038544, -0.4089928865432739, -0.11915696412324905, 0.046366747468709946, -0.19658853113651276, -0.06489305943250656, 0.1575697511434555, 0.0795174241065979, -0.08593536168336868, 0.5994759202003479, 0.09664302319288254, -0.09542196244001389, -0.014504704624414444, 0.312678724527359, 0.03991958498954773, -0.02523786760866642, 0.10626176744699478, -0.5143949389457703, -0.038376059383153915, -0.21802090108394623, 0.07338326424360275, 0.2463749647140503, 0.27338191866874695, 0.20439814031124115, 0.23000167310237885, -0.14897046983242035, 0.06935333460569382, 0.03471100330352783, -0.0004485789395403117, -0.5274754166603088, -0.06779998540878296, 0.05169033631682396, 0.2904711067676544, 0.1362760215997696, 0.101634182035923, -0.0799633264541626, -0.15648062527179718, -0.03415285050868988, -0.07316052168607712, 0.3188032805919647, -0.14023151993751526, -0.11873429268598557, 0.683786928653717, -0.31951865553855896, -0.5214028358459473, -0.006288666743785143, -0.3287926912307739, -0.720960795879364, 0.16777922213077545, 0.12425941228866577, 0.022340713068842888, 0.26081010699272156, 0.20878754556179047, 0.23772738873958588, -0.12353945523500443, -0.3716244399547577, 0.22031205892562866, 0.04074486717581749, 0.11883354932069778, 0.12830616533756256, -0.5243956446647644, 0.13055191934108734, -0.13183675706386566, 0.19440732896327972, 0.06779324263334274, 0.1597437709569931, -0.017769696190953255, -0.45254752039909363, -0.21022860705852509, 0.13216732442378998, 0.1272873729467392, -0.020152384415268898, -0.19092422723770142, -0.18064294755458832, 0.021493880078196526, -0.25201091170310974, -0.9369531273841858, 0.132301464676857, -0.12140869349241257, 0.35412025451660156, 0.6775628924369812, 0.06320380419492722, -0.10912171751260757, -0.06061488762497902, 0.06717425584793091, -0.056990381330251694, -0.06513256579637527, 0.03631708398461342, 0.3021245300769806, -0.05086866021156311, 0.07801581174135208, -0.289986252784729, -0.11068814247846603, -0.05520438775420189, 0.08513761311769485, -0.2815999686717987, -0.32523778080940247, -0.04213178530335426, 0.09220438450574875, 0.2540760338306427, -0.21949665248394012, -0.08594263345003128, 0.1434265524148941, -0.3742680251598358, 0.034798648208379745, -0.03321847319602966, -0.009933934547007084, 0.0025529006961733103, 0.0042656962759792805, -0.02452648989856243, -0.09024465084075928, -0.02109665423631668, 0.11915433406829834, -0.09730357676744461, 0.05162521079182625, 0.3247818648815155, 0.5195255875587463, -0.13209950923919678, -0.008092680014669895, 0.0522463284432888, 0.3705558776855469, -0.03194436803460121, 0.08474140614271164, 0.16328977048397064, -0.42036011815071106, 0.09961215406656265, -0.14620639383792877, -0.054494064301252365, 0.15609274804592133, -0.1113523319363594, -0.059309061616659164, -0.037915270775556564, 0.36354291439056396, -0.07523954659700394, -0.29023268818855286, 0.19979047775268555, 0.03445163741707802, 0.03291260823607445, 0.06333572417497635, 0.12501929700374603, -0.6495208144187927, -0.19214795529842377, -0.07765907794237137, 0.07109420746564865, 0.2552483379840851, -0.2627313435077667, -0.10260952264070511, -0.09950502961874008, -0.0545693002641201, -0.07715631276369095, -0.11767793446779251, 0.03475537523627281, 0.25208160281181335, 0.11486803740262985, 0.012254633940756321, 0.1652473360300064, 0.5818052887916565, 0.02947053499519825, 0.10706628113985062, 0.033830199390649796, 0.15305735170841217, 0.0929654911160469, -0.15856552124023438, 0.30252835154533386, 0.11094187945127487, -0.1113966777920723, -0.06344563513994217, -0.0940924808382988, -0.43994298577308655, 0.01104258093982935, 0.0422661267220974, -0.04369986429810524, 0.15060925483703613, 0.10812555998563766, 0.05937778577208519, 0.14777709543704987, -0.22908948361873627, 0.18723440170288086, 0.08749890327453613, 0.0746578499674797, 0.31134653091430664, -0.018095849081873894, 0.09169822931289673, 0.26716265082359314, -0.7784813046455383, -0.06743574887514114, -0.2058052271604538, -0.4584673345088959, -0.405096173286438, 0.14378751814365387, 0.01600066013634205, -0.1228380799293518, -0.20647364854812622, -0.09515810757875443, 0.02833854965865612, -0.1935466080904007, -0.004905428737401962, 0.0010667442111298442, 0.002066641813144088, -0.33475354313850403, 0.2841220200061798, -0.03026142530143261, 0.05370914936065674, -0.015406773425638676, -0.27289944887161255, -0.039936456829309464, -0.016497818753123283, 0.022841108962893486, -0.23739688098430634, 0.049358759075403214, -0.21388490498065948, -0.07628444582223892, -0.30960890650749207, 0.2295507788658142, -0.2241784781217575, -0.3815300762653351, -0.24887876212596893, -0.48798927664756775, 0.22747445106506348, -0.12011730670928955, 0.1534004807472229, 0.3170228898525238, 0.00316692516207695, -0.02739151567220688, -0.03128707781434059, -0.11354685574769974, -0.3230072557926178, 0.6210904717445374, -0.08779554814100266, 0.1051475927233696, 0.03411733731627464, -0.06877758353948593, 0.08501368761062622, 0.03231719136238098, 0.06347339600324631, -0.10099565237760544, 0.15914680063724518, 0.031556665897369385, 0.049672480672597885, -0.10090402513742447, -0.15913043916225433, -0.09502028673887253, 0.28782355785369873, -0.04037356749176979, -0.0733562633395195, 0.15465031564235687, 0.18570558726787567, 0.6113752722740173, -0.08799148350954056, 0.02706420235335827, 0.23987530171871185, 0.575436532497406, 0.027536271139979362, 0.08451550453901291, -0.38444754481315613, 0.09635432809591293, -0.008912318386137486, 0.07469934970140457, -0.06321846693754196, 0.07946907728910446, 0.17041446268558502, 0.21020247042179108, -0.058922600001096725, -0.24608387053012848, 0.2503909766674042, -0.23625420033931732, 0.016861720010638237, -0.18338410556316376, -0.048575010150671005, 0.06561815738677979, -0.055855508893728256, 0.26664111018180847, 0.033235494047403336, -0.12301374226808548, 0.11354304105043411, -0.3323681652545929, -0.006181090604513884, 0.206040620803833, -0.1352466344833374, -0.41489502787590027, -0.0574420727789402, -0.07536352425813675, 0.008291183970868587, -0.004595466423779726, -0.06837005168199539, 0.022848250344395638, 0.2870487868785858, -0.5056294798851013, -0.06276588886976242, -0.2983853816986084, 0.17339517176151276, -1.0249520540237427, 0.0950927808880806, 0.008427694439888, 0.12158001214265823, 0.1775515228509903, 0.0732852891087532, -0.17719782888889313, -0.23240520060062408, 0.1630103439092636, -0.10160215944051743, 0.09096217900514603, -0.3985952138900757, 0.0001586145954206586, 0.0346406064927578, -0.044165343046188354, 0.40817639231681824, 0.6213871836662292, -0.04750284180045128, 0.03621253743767738, 0.1713385432958603, -0.16112937033176422, 0.21334631741046906, -0.038361553102731705, 0.4105529487133026, -0.2703721523284912, 0.10869427770376205, -0.0891273096203804, 0.2546243965625763, -0.28270193934440613, 0.024957625195384026, -0.010594382882118225, -0.02369331754744053, 0.2136046439409256, -0.02493208460509777, 0.06541908532381058, -0.07104950398206711, 0.5561085343360901, 0.07877176254987717, 0.20807479321956635, -0.09727811068296432, -0.2344813197851181, 0.06081831082701683, 0.07713402062654495, 0.063827745616436, -0.03353709354996681, -0.28232792019844055, 0.13542760908603668, -0.30193403363227844, -0.23421312868595123, 0.03772497549653053, 0.026304611936211586, 0.39355364441871643, 0.21851472556591034, -0.11967825144529343, -0.07966471463441849, 0.3849431574344635, -0.23662136495113373, 0.05064771696925163, -0.23225022852420807, 0.026080289855599403, 0.3352696895599365, -0.08069873601198196, -0.05351191386580467, 0.4041336476802826, -0.5355013012886047, 0.11114215105772018, 0.10525988787412643, 0.017717281356453896, 0.3051975667476654, -0.0064342389814555645, -0.0403098426759243, -0.18705473840236664, -0.14880424737930298, -0.09822356700897217, -0.009877189062535763, 0.04143679514527321, -0.050555404275655746, -0.033043503761291504, 0.06119370460510254, 0.21221016347408295, -0.33700063824653625, -0.1005488708615303, -0.020217599347233772, 0.26621854305267334, 0.8162309527397156, 0.023366006091237068, -0.049054596573114395, -0.07817409187555313, 0.06605013459920883, 0.11418067663908005, -0.08745444566011429, -0.012130807153880596, 0.16593074798583984, -0.1779899001121521, -0.01246703416109085, 0.34981563687324524, -0.39880692958831787, 0.5330356955528259, -0.02403467893600464, -0.4076911509037018, -0.6526750326156616, -0.46889448165893555, 0.11039096862077713, 0.21961738169193268, -0.01655401475727558, 0.0687880590558052, -0.2718390226364136, -0.30644458532333374, -0.05728084221482277, 0.20257647335529327, -0.2652132213115692, 0.098686583340168, 0.1866360753774643, 0.13588847219944, 0.026270121335983276, 0.348775178194046, -0.03352991119027138, -0.08762902021408081, 0.1419520229101181, -0.15801940858364105, 0.011611958034336567, -0.15748097002506256, 0.43078067898750305, -0.12041058391332626, 0.125585675239563, -0.1215050145983696, -0.006016034632921219, 0.3768153488636017, 0.06538326293230057, -0.09518206864595413, 0.24182485044002533, -0.3914131820201874, 0.007803559768944979, 0.04590054973959923, -0.10584091395139694, -0.14776061475276947, -0.03646046295762062, -0.13283586502075195, 0.14002014696598053, 0.3959987163543701, 0.08839870244264603, 0.12994123995304108, 0.04965226724743843, 0.006582774221897125, -0.089096300303936, 0.1049070730805397, 0.10381614416837692, -0.12289131432771683, 0.13161420822143555, 0.10782340914011002, 0.2515368163585663, -0.22561858594417572, -0.0008423793478868902, -0.049581024795770645, -0.10183840990066528, -0.7263898253440857, -0.06026274338364601, -0.11623167246580124, -0.14973391592502594, 0.10274673253297806, 0.11144315451383591, 0.0068287900649011135, -0.27133700251579285, -0.22205263376235962, 0.0723024532198906, 0.09287179261445999, -0.43450358510017395, -0.032146748155355453, 0.02833920530974865, 0.014671743847429752, -0.12130188196897507, -0.21222637593746185, 0.3334079086780548, -0.07933639734983444, 0.0055411942303180695, 0.2024407535791397, 0.08282125741243362, 0.07743441313505173, 0.20433366298675537, 0.11065233498811722, 0.13674722611904144, 0.03753938898444176, -0.0019033249700441957, 0.7651727199554443, -0.11156965047121048, -0.024697421118617058, -0.15239998698234558, 0.10219002515077591, 0.002063745865598321, 0.03007620759308338, 0.4966035783290863, -0.5774200558662415, -0.03797030821442604, -0.02021115832030773, 0.14342071115970612, 0.32324671745300293, -0.04647285118699074, 0.08372677117586136, 0.31981924176216125, -0.03732415661215782, 0.11355113238096237, -0.06456292420625687, 0.30771419405937195, 0.9678536057472229, 0.039447370916604996, 0.03560701385140419, -0.010452567599713802, -0.5511078238487244, 0.11098384112119675, 0.10263482481241226, 0.3533139228820801, 0.2044043391942978, 0.041070494800806046, -0.049406085163354874, 0.18847262859344482, 0.2904853820800781, -0.11023639887571335, -0.006150730419903994, -0.08012212067842484, -0.4044961631298065, -0.02967241406440735, 0.025301149114966393, -0.07334011793136597, 0.026142539456486702, -0.0682746097445488, 0.16545069217681885, 0.23824812471866608, 0.21109771728515625, 0.12057553976774216, 0.18705247342586517, -0.37260961532592773, 0.440816730260849, -0.10518062859773636, -0.06473363190889359, 0.3502502739429474, 0.2507374882698059, -0.043662454932928085, -0.04510003700852394, -0.21461641788482666, -0.17584240436553955, -0.1320282369852066, -0.0007934178574942052, -0.0689229741692543, -0.2771635949611664, -0.1658148616552353, 0.11865437775850296, -0.22268198430538177, -0.7041049599647522, 0.10485338419675827, 0.010311164893209934, 0.18500934541225433, 0.34722039103507996, 0.05436853691935539, 0.14909718930721283, 0.20166271924972534, 0.026630142703652382, 0.012397444806993008, -0.060675498098134995, 0.24564839899539948, -0.5746662616729736, 0.0663074180483818, -0.11495662480592728, -0.11455828696489334, -0.18637041747570038, 0.22463162243366241, -0.14803199470043182, 0.14159657061100006, -0.1451675146818161, 0.22113080322742462, 0.12072083353996277, 0.2851935625076294, -0.2893689274787903, -0.21483486890792847, 0.07844119518995285, -0.24183200299739838, -0.056957781314849854, -0.06370795518159866, 0.049744863063097, 0.23415829241275787, -0.11291860789060593, -0.21288514137268066, -0.10296547412872314, -0.06928328424692154, 0.072613425552845, 0.1151200607419014, 0.11443818360567093, -0.03728916868567467, 0.06819117814302444, -0.19911478459835052, 0.09121402353048325, 0.006959714461117983, -0.1278640180826187, 0.008792468346655369, -0.1956285685300827, -0.5148073434829712, -0.02769160084426403, -0.07097966223955154, 0.26550114154815674, 0.44601383805274963, 0.0677538588643074, 0.10419202595949173, -0.22658269107341766, -0.6763408780097961, -0.017537591978907585, -0.013760827481746674, -0.11062649637460709, -0.044985417276620865, -0.047787804156541824, 0.03327500447630882, 0.2819824516773224, 0.08638238161802292, -0.04619329795241356, -0.24422408640384674, 0.03542071208357811, -0.2337193340063095, -0.03485563024878502, 0.14557494223117828, 0.14928756654262543, 0.7769036889076233, 0.02632713131606579, -0.010572166182100773, 0.16542504727840424, 0.22735190391540527, -0.048427168279886246, 0.03258198872208595, -0.10006558150053024, 0.28328731656074524, 0.005789249669760466, 0.08136140555143356, 0.0958448275923729, 0.2133878469467163, -0.04903140291571617, -0.10715087503194809, 0.0546928234398365, -0.0021431297063827515, 0.001334129017777741, 0.02756032533943653, 0.3423936367034912, 0.2126430720090866, -0.024114428088068962, -0.1004636362195015, -0.5492883324623108, -0.4178503453731537, -0.007507071364670992, 0.022970983758568764, -0.26651617884635925, 0.45943787693977356, -0.029820648953318596, 0.08418024331331253, 0.0007099066860973835, 0.7992604374885559, 0.1137768104672432, -0.09360747784376144, 0.40973949432373047, 1.2773972749710083, 0.04217860475182533, 0.11563634127378464, 0.048983197659254074, 0.09988757967948914, -0.06928456574678421, 0.11197365075349808, 0.0889711007475853, -0.02660929411649704, -0.09389639645814896, 0.2741806209087372, 0.018097354099154472, 0.31557199358940125, -0.13295377790927887, -0.19033409655094147, -0.28809306025505066, -0.13204096257686615, -0.13383030891418457, 0.027424754574894905, 0.2613154649734497, -0.08250998705625534, -0.038052741438150406, 0.057351235300302505, 0.07501018792390823, -0.9654808640480042, -0.14386294782161713, -0.13480843603610992, -0.0104752779006958, 0.3413567841053009, 0.14140711724758148, -0.0832054540514946, 0.17286549508571625, -0.1470264345407486, -0.09562861919403076, 0.08757496625185013, 0.1530122607946396, 0.18484258651733398, -0.014529288746416569, 0.04760923609137535, 0.046724047511816025, 0.5059252381324768, -0.0034432969987392426, 0.24030660092830658, 0.2104053497314453, 0.5648322701454163, 0.09889931231737137, 0.11031508445739746, 0.18805111944675446, 0.21591217815876007, -0.026639608666300774, 0.0041433838196098804, -0.2834995687007904, 0.5241355299949646, 0.07804679125547409, -0.10957115888595581, -0.012309974990785122, 0.6541650891304016, -0.06813163310289383, 0.08467482775449753, 0.23802433907985687, -0.1811530739068985, 0.1276250034570694, -0.15265081822872162, 0.20975267887115479, -0.044768065214157104, -0.14090074598789215, -0.09491444379091263, 0.1795327514410019, 0.1865120679140091, -0.09045767039060593, 0.05151839926838875, 0.3702479898929596, 0.5949817299842834, 0.1276472955942154, -0.18289469182491302, 0.11483900994062424, -0.05102729797363281, 0.18637968599796295, 0.0964127704501152, -0.009435044601559639, -0.007650536950677633, 0.13843654096126556, 0.014611680060625076, -0.4130203425884247, -0.19257505238056183, -0.797654390335083, -0.3350733816623688, -0.21792364120483398, 0.5669193267822266, 0.2508546710014343, 0.4209146797657013, -0.27079877257347107, 0.11224018782377243, -0.045527245849370956, 0.34876692295074463, 0.11338413506746292, -0.04672152176499367, 0.013209833763539791, 0.26754137873649597, -0.11952995508909225, -0.12228120118379593, -0.012089633382856846, 0.07956212013959885, -0.6265421509742737, 0.07346869260072708, 0.057040985673666, -0.08658379316329956, 0.19334900379180908, 0.0009521450265310705, 0.1829683631658554, -0.020915180444717407, -0.48449769616127014, -0.11200297623872757, -0.03970574960112572, 0.5663860440254211, -0.07881897687911987, 0.22874762117862701, 0.15102051198482513, 0.011936292052268982, -0.17457251250743866, -0.03713017329573631, 0.14060138165950775, 0.2074321061372757, 0.2521643340587616, 0.03805283084511757, -0.030330775305628777, 0.37641116976737976, 0.5558471083641052, -0.03009730577468872, 0.003586198901757598, -0.21327567100524902, -0.40032124519348145, 0.02925744839012623, 0.03465044125914574, 0.3085431754589081, -0.7189058661460876, 0.07033521682024002, -0.09210372716188431, 0.073945052921772, -0.20624077320098877, -0.09424955397844315, 0.029398052021861076, -0.0640491172671318, -0.2071341723203659, -0.03279978409409523, -0.08305644243955612, 0.07833128422498703, 0.027869222685694695, -0.013878137804567814, -0.011056937277317047, -0.39511701464653015, 0.320380300283432, 0.15072844922542572, 0.009312705136835575, -0.07744420319795609, -0.14470253884792328, 0.03281698003411293, -0.009188971482217312, -0.0009733913466334343, -0.4989566504955292, 0.0739871934056282, 0.18645308911800385, -0.02034558169543743, -0.10038598626852036, 0.06526381522417068, 0.07531685382127762, 0.24303555488586426, 0.8273144364356995, 0.08537774533033371, 0.15648424625396729, -0.26504871249198914, 0.06753268092870712, -0.12674139440059662, 0.09484847635030746, 0.09969347715377808, 0.1812530755996704, -0.14670990407466888, 0.0146053871139884, -0.030368613079190254, -0.5066860914230347, 0.03857806697487831, -0.11719786375761032, -0.015209765173494816, -0.1981257051229477, 0.07215548306703568, 0.22325825691223145, 0.1779555231332779, 0.6132592558860779, 0.023095866665244102, 0.09579776972532272, -0.3005301356315613, -0.10967937856912613, -0.12109886854887009, 0.23287321627140045, -0.3745388686656952, -0.0807688757777214, -0.015112563967704773, -0.059243444353342056, -0.25391438603401184, -0.25211307406425476, -0.12255323678255081, -0.03950792923569679, -0.2245306819677353, 0.16990898549556732, 0.03404238820075989, 0.2565977871417999, 0.009325920604169369, -0.4046311676502228, -0.009006799198687077, -0.09221255034208298, -0.8762698173522949, -0.26066529750823975, 0.026972314342856407, 0.019821597263216972, -0.0715448334813118, 0.29192426800727844, 0.00646200543269515, -0.039419565349817276, 0.30629751086235046, -0.04491863027215004, 0.09002924710512161, -0.031188340857625008, 0.02365937829017639, 0.02807237021625042, -0.023730816319584846, -0.07757186144590378, 0.12281689047813416, -0.531103789806366, 0.014957680366933346, -0.016536802053451538, 0.11403999477624893, -0.17960822582244873, -0.13570009171962738, -0.24420712888240814, -0.2261655330657959, 0.3164704144001007, -0.14999030530452728, -0.1773732751607895, 0.09682732820510864, -0.11830150336027145, -0.061062876135110855, -0.07613831013441086, -0.23576132953166962, 0.2550166845321655, -0.03558235988020897, 0.07360636442899704, 0.03984350338578224, 0.34157440066337585, 0.17566154897212982, 0.037897881120443344, 0.26960137486457825, 0.3647285997867584, 0.012938354164361954, -0.3743950128555298, -0.04534139856696129, -0.1778164952993393, -0.15474243462085724, -0.6522013545036316, 0.014460158534348011, 0.5112715363502502, 0.16830600798130035, -0.0351235531270504, 0.46905437111854553, -0.06310290843248367, 0.11489164084196091, 0.4792008101940155, -0.0959736704826355, -0.03297337517142296, 0.10344237089157104, 0.15652000904083252, 0.05101247504353523, 0.2065896838903427, 0.07287120074033737, -0.21963167190551758, 0.3137359321117401, 0.16705010831356049, 0.1277250051498413, -0.21219183504581451, -0.46652600169181824, 0.05704211816191673, 0.04305049404501915, 0.007267517503350973, -0.08942920714616776, 0.15022657811641693, -0.007972165010869503, -0.1561332494020462, 0.09640615433454514, 0.0745706632733345, -0.04518160596489906, 0.42490363121032715, -0.08509963005781174, -0.020243898034095764, 0.005641691852360964, -0.1533653885126114, -0.4230952262878418, 0.07662630081176758, -0.13101540505886078, -0.41929754614830017, -0.6306939721107483, -0.17093156278133392, 0.08696287125349045, 0.007185906171798706, -0.6965174674987793, -0.03576204553246498, 0.08933799713850021, 0.06662208586931229, -0.37293365597724915, 0.0652875229716301, 0.049885448068380356, 0.23483417928218842, -0.3376751244068146, 0.19962002336978912, 0.04274464026093483, 0.21460922062397003, -0.536356508731842, -0.08434342592954636, 0.08316362649202347, 0.04023251309990883, -0.34484195709228516, 0.04318222776055336, -0.017909614369273186, -0.08943810313940048, 0.44058117270469666, 0.19592247903347015, 0.06974291056394577, 0.0022007969673722982, 0.16980768740177155, -0.05383836850523949, -0.0735994502902031, 0.014933689497411251, 0.7614437937736511, -0.14277209341526031, 0.1775578409433365, -0.04966634884476662, -0.22025465965270996, -0.0879475548863411, 0.017490146681666374, -0.08775723725557327, -0.23989176750183105, -0.061615582555532455, -0.03456002101302147, 0.12221679836511612, 0.6992361545562744, -0.11932956427335739, -0.12021160870790482, 0.026829129084944725, -0.8501379489898682, -0.08613289147615433, 0.010205469094216824, 0.400605171918869, 0.7584468722343445, -0.049531761556863785, -0.15465736389160156, 0.22215937077999115, -0.01828657276928425, 0.09899204969406128, -0.007372379768639803, -0.2259664684534073, -0.3984985649585724, -0.0629398301243782, -0.13774921000003815, 0.343791127204895, 0.30888745188713074, 0.0472220815718174, 0.013661409728229046, 0.1267467886209488, 0.42252829670906067, -0.029405442997813225, -0.07183457165956497, -0.04987749829888344, -0.13426290452480316, -0.042831361293792725, -0.014295040629804134, -0.15963007509708405, 0.12937496602535248, 0.2447643131017685, 0.11855506151914597, -0.36060717701911926, -0.027833789587020874, -0.20618343353271484, -0.08474069833755493, 0.10948068648576736, -0.03262900188565254, 0.12811292707920074, -0.25578734278678894, 0.3903482258319855, -0.09898292273283005, -0.04341703653335571, -0.13526104390621185, 0.22936798632144928, 0.40732619166374207, 0.04789060726761818, -0.029561402276158333, 0.14202848076820374, 0.08353707194328308, -0.038795050233602524, -0.2691197097301483, 0.3713536262512207, -0.05736030638217926, 0.11577450484037399, -0.06077199801802635, -0.27842000126838684, -0.18902921676635742, 0.06969380378723145, 0.005828395020216703, 0.3820357024669647, 0.14000584185123444, 0.06351233273744583, 0.039081037044525146, 0.00523277698084712, -0.6026358008384705, -0.14650402963161469, -0.1044764444231987, 0.5797634720802307, 0.8386242985725403, 0.08347047120332718, 0.09086810797452927, 0.06372779607772827, 0.24117416143417358, 0.23152853548526764, 0.03928050026297569, 0.008535519242286682, 0.024422703310847282, 0.11149081587791443, 0.03800509497523308, -0.11278118938207626, -0.39032599329948425, 0.15804895758628845, -0.020406464114785194, -0.3039900064468384, 0.05093448981642723, -0.1403879076242447, 0.1685389280319214, 0.2993622124195099, 0.07888228446245193, 0.10181289911270142, 0.28683993220329285, -0.15555880963802338, 0.021206675097346306, 0.12621845304965973, 0.10006090998649597, 0.18311940133571625, 0.055065471678972244, -0.01663150079548359, 0.45734837651252747, -0.600861132144928, 0.19970154762268066, -0.022855250164866447, 0.16698075830936432, 0.034594181925058365, -0.20563532412052155, -0.2550843060016632, 0.13418704271316528, 0.23475992679595947, -0.08607184141874313, 0.10536742210388184, 0.2750526964664459, 0.20005641877651215, 0.052492912858724594, -0.05737125501036644, 0.2930186092853546, -0.5584719777107239, 0.09820573776960373, 0.08713681250810623, 0.05025329068303108, 0.847550094127655, 0.059659358114004135, 0.020630089566111565, 0.44000592827796936, -0.26805374026298523, -0.2464921623468399, -0.06476055830717087, -0.30858469009399414, 0.31617286801338196, 0.043473366647958755, -0.06721346825361252, -0.2147001475095749, 1.356119155883789, 0.0033892940264195204, 0.1108386442065239, 0.13074292242527008, 0.47522875666618347, 0.03585213050246239, -0.22792457044124603, -0.22578002512454987, 0.14268578588962555, 0.1283876746892929, -0.13904143869876862, 0.22681023180484772, 0.28380706906318665, 0.001160964253358543, 9.984061034629121e-05, -0.06906912475824356, -0.1350577026605606, -0.1507568508386612, 0.047612667083740234, -0.31309178471565247, 0.44211578369140625, -0.09512209892272949, 0.14273642003536224, -0.05972981080412865, 0.07778412103652954, -0.06260795146226883, 0.10481008142232895, -0.04460921511054039, 0.07717608660459518, -0.05451088771224022, 0.10896538943052292, -0.04433146119117737, 0.35825395584106445, -0.13224397599697113, -0.07608617097139359, 0.020865147933363914, 0.01452281977981329, 0.04663439467549324, 0.09156370908021927, -0.3652813136577606, 0.043943729251623154, 0.007376566994935274, 0.18004654347896576, -0.11388903111219406, -0.0016924510709941387, -0.06582193821668625, -0.02217281050980091, -0.3142874538898468, 0.16298186779022217, 0.038971658796072006, 0.1161116436123848, -0.1385136991739273, -0.12136412411928177, -0.04701435565948486, -0.20509755611419678, 0.21647614240646362, -0.059589933604002, -0.05065162852406502, -0.01195510569959879, 0.24768637120723724, 0.004680540878325701, 0.07400370389223099, -0.0920206680893898, -0.06437497586011887, -0.07685720175504684, -0.1514420360326767, 0.05496470257639885, 0.10711749643087387, 0.12803004682064056, 0.04986703768372536, -0.11003228276968002, -0.05057137832045555, -0.10984361171722412, -0.122917540371418, 0.02368880994617939, -0.02264627255499363, 0.0410086028277874, -0.16961060464382172, 0.03168633580207825, 0.10960603505373001, -0.10622004419565201, -0.0032116633374243975, -0.09083353728055954, 0.03128635510802269, -0.0458950437605381, 0.06213032826781273, 0.18108738958835602, 0.14066506922245026, 0.2763013541698456, -0.07641338557004929, -0.05549329146742821, -0.024787262082099915, 0.4922328293323517, 0.08343976736068726, 0.1273956447839737, 0.004162963014096022, 0.11113407462835312, -0.07188291102647781, -0.017541350796818733, 0.18697626888751984, -0.46591952443122864, 0.06486398726701736, 0.204876109957695, 0.01763838343322277, 1.2640904188156128, -0.09853614121675491, 0.02695918269455433, -0.04787508770823479, -0.10618393868207932, -0.01749691553413868, -0.06623513251543045, 0.3078027069568634, 0.26579007506370544, -0.11311996728181839, 0.0416761077940464, -0.05735787749290466, -0.022430583834648132, 0.5183610320091248, -0.1561991572380066, -0.7748716473579407, -0.49605584144592285, -0.6992571949958801, 0.29984763264656067, 0.030726954340934753, -0.10051501542329788, 0.14127397537231445, 0.1169518232345581, -0.37957873940467834, 0.06081080809235573, 0.04719557240605354, -0.3080298900604248, -0.4074208736419678, -0.18643362820148468, -0.09832549095153809, -0.36468765139579773, 0.037593770772218704, -0.09292542189359665, 0.15605996549129486, -0.00916259828954935, 0.040590379387140274, -0.037111345678567886, 0.04031467065215111, -0.07567823678255081, -0.08126711845397949, -0.07110976427793503, 0.14492309093475342, 0.43267345428466797, 0.0967550277709961, 0.2233884185552597, 0.11307906359434128, -0.04263828322291374, 0.4584863483905792, 0.06548602133989334, -0.060978714376688004, 0.2721872329711914, 0.15517280995845795, -0.11395562440156937, 0.07303845137357712, -0.17237891256809235, 0.49886032938957214, 0.06214332580566406, -0.2111235409975052, 0.20184065401554108, 0.19049279391765594, -0.036649733781814575, 0.02169165201485157, 0.09744177013635635, 0.30894264578819275, 0.02289530821144581, 0.10455333441495895, 0.2744273841381073, -0.5376347899436951, -0.12287689000368118, 0.08151751011610031, -0.12460421770811081, 0.7362044453620911, -0.024470744654536247, -0.025668034330010414, -0.1329299360513687, 0.26661446690559387, -0.2910754382610321, 0.20163726806640625, 0.1651434749364853, -0.08967865258455276, -0.05542566254734993, -0.09355286508798599, -0.1765066236257553, 0.30000051856040955, -0.13700102269649506, -0.07347852736711502, -0.3956991732120514, 0.046626001596450806, -0.10388016700744629, 0.01647154800593853, 0.03037753887474537, -0.11183667927980423, -0.03085234947502613, -0.08693455904722214, 0.0938301756978035, -0.06941784173250198, 0.044470544904470444, 0.014793128706514835, -0.2463517040014267, -0.04049887880682945, -0.1286264806985855, -0.035141680389642715, -0.11298474669456482, -0.4737643301486969, 0.11759579926729202, -0.10456172376871109, 0.4354546070098877, 0.006907511968165636, -0.11877346783876419, -0.0436643622815609, -0.21380895376205444, 0.11384012550115585, 0.12319790571928024, -0.02715611457824707, 0.5230445861816406, -0.39475056529045105, 0.04286515340209007, -0.008130387403070927, 0.3688230812549591, -0.046014245599508286, -0.032093703746795654, -0.044096413999795914, 0.13860462605953217, -0.4976806938648224, 0.07345831394195557, 0.04918361082673073, 0.08304458111524582, 0.04766085743904114, -0.08335231989622116, -0.01051719393581152, -0.16715405881404877, 0.3382439613342285, -0.07353656738996506, -0.027017923071980476, 0.2270517498254776, -0.13305355608463287, 0.16926588118076324, 0.019983844831585884, 0.2409217208623886, 0.327191561460495, 0.09979700297117233, -0.19149555265903473, -0.3012903928756714, -0.16146807372570038, -0.10448388010263443, 0.17311178147792816, 0.22428680956363678, 0.16137312352657318, -0.03980189934372902, -0.1975870281457901, -0.25518181920051575, -0.5323029160499573, -0.12227488309144974, 0.09218019992113113, 0.19912534952163696, -0.031269416213035583, -0.014669566415250301, -0.03466230258345604, -0.36242035031318665, 0.17545776069164276, 0.07674854248762131, 0.1258111149072647, -0.34544458985328674, -1.0094462633132935, -0.019818244501948357, -0.004276714753359556, 0.20118200778961182, -0.04577380046248436, 0.08131664246320724, -0.061502281576395035, 0.19148363173007965, 0.9518002867698669, 0.1267550140619278, -0.11502670496702194, 0.38304078578948975, -0.11648747324943542, -0.004447270650416613, 0.13101933896541595, -0.18846412003040314, 0.7465682029724121, 0.05202299728989601, 0.261658638715744, -0.08799649029970169, -0.19256572425365448, 0.37158408761024475, -0.04416033253073692, 0.11801207810640335, -0.31316861510276794, -0.12594641745090485, -0.22400493919849396, 0.4886421859264374, -0.08050061017274857, 0.4001898765563965, -0.04157326743006706, -0.6697455048561096, 0.1039319634437561, -0.15743042528629303, 0.31354889273643494, 0.13547329604625702, -0.00923373457044363, -0.021301792934536934, -0.25148269534111023, -0.031046340242028236, -0.13843776285648346, -0.05381391569972038, 0.2082267552614212, 0.20395900309085846, 0.09447752684354782, -0.11190008372068405, 0.27252843976020813, 0.3846871554851532, -0.08363205939531326, 0.07142721861600876, -0.2601374089717865, -0.03424954041838646, 0.0702143982052803, -0.016696734353899956, 0.056680649518966675, -0.7191113829612732, -0.05822986736893654, -0.04976580664515495, 0.008390621282160282, -0.2514883875846863, 0.07301311939954758, 0.04472702369093895, 0.039421197026968, -0.1386808156967163, 0.0021839626133441925, 0.03820130601525307, 0.09137403219938278, 0.40427255630493164, -0.16577112674713135, 0.09034764021635056, -0.24517695605754852, -0.9751604199409485, -0.07916759699583054, 0.18021346628665924, 0.06902562826871872, -0.688323974609375, 0.1847863346338272, 0.035974714905023575, 0.2704446017742157, -0.09422989934682846, 0.11280561238527298, 0.020817024633288383, -0.10107421875, 0.328339546918869, 0.013473914004862309, 0.22568915784358978, -0.21829915046691895, -0.29946425557136536, 0.10239104181528091, 0.023156819865107536, -0.09402120858430862, 0.1109086349606514, -0.027797279879450798, -0.015445648692548275, 0.14300142228603363, 0.42072510719299316, 0.18175791203975677, 0.1079154834151268, 0.4022420346736908, 1.0710734128952026, -0.12624822556972504, -0.07439875602722168, 0.037925783544778824, -0.06598060578107834, -0.09453904628753662, -0.07353269308805466, -0.11472713202238083, 0.008306928910315037, -0.08326613157987595, 0.1313072293996811, -0.06599786132574081, -0.04504324123263359, -0.02062751166522503, 0.06183946505188942, -0.08651182055473328, 0.11885882169008255, 0.1655748039484024, -0.11757909506559372, -0.17452217638492584, 0.3056764602661133, -0.06556499749422073, -0.08936022967100143, 0.13220570981502533, -0.14247919619083405, 0.11423074454069138, -0.06162869557738304, -0.21767304837703705, -0.12748001515865326, 0.06075585260987282, -0.10843626409769058, -0.35695552825927734, 0.35869356989860535, 0.0548052154481411, -0.09570849686861038, -0.06271309405565262, -0.13803745806217194, -0.08132392913103104, -0.007951885461807251, 0.05591810122132301, -0.06907689571380615, -0.1981225162744522, 0.01828649453818798, -0.05616122856736183, 0.15277515351772308, 0.08341062813997269, 0.08623247593641281, 0.07325392216444016, 0.38088372349739075, 0.11896275728940964, 0.013059690594673157, -0.07578505575656891, -0.43067559599876404, -0.14142335951328278, -0.01519011054188013, 0.21280167996883392, -0.44627806544303894, 0.11801575869321823, 0.058280762284994125, 0.2939557731151581, -0.7271595597267151, -0.019588841125369072, -0.12487030774354935, -0.06971413642168045, -0.029058167710900307, -0.014167682267725468, -0.12246561795473099, -0.24586047232151031, -0.3636641800403595, 0.08422673493623734, 0.274809867143631, 0.01433948427438736, 0.3526249825954437, -0.09236066788434982, -0.11552918702363968, -0.43970629572868347, -0.5367364287376404, 0.19909478724002838, -0.02121168188750744, 0.3818586766719818, 0.09101159125566483, -0.06915230304002762, 0.015185012482106686, -0.3009209930896759, -0.07075182348489761, 0.12900005280971527, -0.043350253254175186, 0.09965568780899048, -0.2826138436794281, 0.005359590519219637, 0.0796828344464302, 0.21115225553512573, 0.3461996614933014, -0.614369809627533, -0.02735392190515995, 0.8729185461997986, -0.29386308789253235, 0.33946946263313293, -0.02910570241510868, 0.062241941690444946, 0.39930811524391174, 0.6712777018547058, 0.19887341558933258, 0.2775109112262726, 0.059558507055044174, -0.22747109830379486, 0.05331440642476082, -0.21854324638843536, -0.0257358830422163, 0.015221030451357365, -0.05982935428619385, -0.39151322841644287, 0.04619216546416283, 0.003203421598300338, 0.5983763337135315, 0.3774220645427704, 0.08581029623746872, 0.05142610892653465, 0.14687275886535645, 0.4168553650379181, -0.006907493341714144, -0.16489805281162262, -0.3696211576461792, -0.5092460513114929, 0.021934164687991142, -0.01062211487442255, 0.16817837953567505, 0.5479295253753662, 0.19065354764461517, 0.06282644718885422, 0.042853448539972305, 0.3757336139678955, -0.24729777872562408, -0.03293854370713234, -0.13448737561702728, -0.14055655896663666, -0.06546907871961594, -0.00854631420224905, -0.012501849792897701, 0.14693330228328705, -0.038958851248025894, 0.15875361859798431, 0.34641993045806885, 0.5027153491973877, 0.2840001881122589, -0.057778239250183105, -0.0833929255604744, -0.6689372658729553, 0.1320200115442276, 0.09789079427719116, -0.08849119395017624, -0.14708302915096283, 0.05277416110038757, -0.08560710400342941, -0.10660172253847122, 0.018612997606396675, 0.047465983778238297, -0.06037021055817604, 0.02807280234992504, -0.40620169043540955, -0.0014610652578994632, -0.03390437737107277, -0.21315719187259674, -0.008491188287734985, -0.027266057208180428, -0.0828639343380928, 0.11581789702177048, 0.5491999983787537, 0.12484525889158249, -0.03622424229979515, -0.1292186826467514, 0.015389411710202694, 0.036440785974264145, 0.08538740873336792, -0.15129099786281586, 0.0857657864689827, -0.08956121653318405, -0.07131970673799515, 0.0990447923541069, 0.06453686952590942, -0.088180311024189, 0.06404650956392288, 0.10772161930799484, 0.6983512043952942, -0.011833623051643372, 0.03115600161254406, -0.4357508420944214, -0.12688663601875305, 0.1615598201751709, -0.01727384142577648, 0.03489535674452782, 0.04464386776089668, -0.12173258513212204, 0.2506740391254425, 0.07843185216188431, 0.03820708766579628, 0.11658228188753128, 0.13100551068782806, 0.0930631086230278, -0.051116663962602615, -0.06153344735503197, 0.0564153827726841, 0.17727899551391602, 0.15780259668827057, -0.046450261026620865, 0.12720586359500885, -0.1232907846570015, 0.7785734534263611, 0.1469949334859848, -0.07394140213727951, 0.2723042666912079, 0.2914983928203583, -0.05093694105744362, -0.01006572786718607, -0.16917501389980316, 0.018655704334378242, 0.012538800947368145, 0.10571825504302979, 0.3451235592365265, 0.40211471915245056, 0.10930842161178589, -0.05397401377558708, -0.27375826239585876, -0.11959701031446457, 0.04555201902985573, -0.05434548854827881, 0.08251117914915085, 0.07443069666624069, -0.1008320227265358, 0.09975243359804153, 0.1314920037984848, -0.27807947993278503, 0.03840133175253868, 0.11219704896211624, -0.23162062466144562, -0.01101650670170784, -0.028948547318577766, -0.044357750564813614, 0.3474259674549103, -0.015273225493729115, 0.03740603104233742, -0.06393551826477051, 0.1006409153342247, -0.49189046025276184, 0.10298358649015427, -0.07392258197069168, -0.14532984793186188, 0.30133911967277527, -0.10834089666604996, 0.10723782330751419, 0.19370268285274506, -0.30310937762260437, -0.04359087347984314, -0.11744462698698044, 0.05316649377346039, -0.2822849452495575, 0.07249975204467773, -0.1863023042678833, 0.5521233677864075, -0.005810471251606941, -0.31656602025032043, -0.059924546629190445, 0.024166440591216087, -0.0008602631278336048, -0.21287637948989868, -0.07660151273012161, 0.09609866142272949, 0.07178492099046707, 0.2553444802761078, 0.3704412877559662, -0.09961263090372086, 0.35786816477775574, -0.39376458525657654, -0.0313270278275013, 0.1856810450553894, -0.10207551717758179, -0.017039569094777107, 0.09469697624444962, -0.3965319097042084, -0.05865245684981346, 0.22474098205566406, 0.38447943329811096, 0.11129405349493027, -0.05556594952940941, 0.022931186482310295, 0.1077275201678276, -0.24083782732486725, -0.012649030424654484, 0.15836773812770844, 0.03403449431061745, 0.0037469009403139353, -0.07762222737073898, -0.2553658187389374, -0.22035445272922516, -0.3917727470397949, 0.0747460201382637, 0.04726242646574974, 0.1521630883216858, 0.28979018330574036, 0.011271030642092228, 0.028123078867793083, -0.08806783705949783, -0.42727765440940857, 0.08601700514554977, 0.05095783993601799, -0.07948540896177292, -0.03660300001502037, 0.09997505694627762, -0.12169455736875534, -0.005133721511811018, -0.16144798696041107, -0.1234823539853096, 0.0046819341368973255, -0.44001448154449463, 0.40158769488334656, 0.050597187131643295, -0.0033008356112986803, 0.030514298006892204, -0.07658208161592484, -0.04913092032074928, -0.2052648812532425, 0.12562023103237152, 0.15779425203800201, 0.1204834058880806, 0.030638454481959343, 0.05676591023802757, 0.5393947958946228, -0.05651700124144554, 0.06359624117612839, 0.16957426071166992, -0.2412233203649521, -0.12417960911989212, -0.06694734841585159, -0.3111128509044647, -0.40287134051322937, -0.02489415742456913, 0.06540273874998093, 0.3409624397754669, -0.04477861896157265, 0.24661467969417572, 0.027276376262307167, 0.10506554692983627, 0.37419983744621277, 0.1110619381070137, -0.023418409749865532, -0.10418223589658737, -0.13684631884098053, -0.05537211522459984, -0.006428889464586973, 0.08564561605453491, -0.35851171612739563, 0.12250138074159622, 0.11990488320589066, -0.24615104496479034, -0.5495955348014832, 0.0046358187682926655, 0.19957087934017181, 0.06947869807481766, -0.5534724593162537, -0.19481171667575836, -0.019184691831469536, -0.5500917434692383, 0.09236401319503784, -0.02312028594315052, 0.15478993952274323, 0.03168570622801781, 0.10882008820772171, -0.1865823119878769, 0.12506867945194244, -0.18623553216457367, -0.04828682169318199, 0.1534501165151596, -0.022167610004544258, -0.11791153997182846, 0.007652482017874718, 0.024519948288798332, 0.13229908049106598, -0.24595476686954498, -0.5178771615028381, 0.18109296262264252, 0.09962760657072067, 0.06798189133405685, 0.3768058121204376, -0.012216582894325256, -0.0019399375887587667, -0.02980971522629261, 0.2904464900493622, -0.06098419800400734, -0.09051584452390671, 0.08686745911836624, 0.044760193675756454, 0.07840495556592941, -0.16735325753688812, -0.007413913961499929, -0.17078648507595062, 0.06946790963411331, 0.09568964689970016, -0.10596394538879395, -0.13472749292850494, -0.1311710923910141, 0.048254843801259995, 0.1119457557797432, 0.13969109952449799, -0.07696855068206787, 0.017732230946421623, 0.19437994062900543, -0.6911690831184387, 0.05423182621598244, -0.08966737240552902, -0.46550869941711426, 0.00011157651897519827, 0.06303954869508743, -0.004277214873582125, -0.29252028465270996, 0.02205791510641575, -0.13788475096225739, 0.13105355203151703, -0.32198765873908997, -0.3611402213573456, 0.10174465924501419, 0.01620107889175415, 0.02063147909939289, -0.35276222229003906, 0.007758944761008024, -0.0038975554052740335, -0.6125794649124146, -0.1116194799542427, -0.060318831354379654, -0.10877691954374313, 0.013539296574890614, -0.08997274190187454, 0.1597694307565689, 0.15435992181301117, -0.2857833206653595, -0.26026177406311035, 0.09074756503105164, -0.35770463943481445, -0.1810394674539566, -0.2858780026435852, -0.14139734208583832, -0.3112522065639496, 0.1197083368897438, -0.4338466227054596, -0.4549180567264557, 0.14815989136695862, 0.4037295877933502, 0.11751913279294968, 0.0740695521235466, 0.09309905767440796, -0.19025015830993652, 0.03605115786194801, -0.056405965238809586, 0.3275397717952728, -0.000929718604311347, -0.10347295552492142, -0.07357806712388992, -0.16483809053897858, -0.5289129614830017, -0.09778041392564774, -0.16736780107021332, 0.3115634620189667, -0.13490773737430573, 0.21307732164859772, 0.222214475274086, -0.35740742087364197, 0.03956478089094162, 0.03317051753401756, -0.17712174355983734, 0.21635431051254272, -0.03997804597020149, -0.18064679205417633, -0.08714313060045242, 0.26958465576171875, -0.10647975653409958, -0.08420909196138382, 0.0735781118273735, -0.10240591317415237, 0.37320777773857117, -0.08675443381071091, -0.19285307824611664, 0.3473203182220459, 0.5411557555198669, -0.04351199045777321, -0.03749721869826317, 0.10950988531112671, -0.09621336311101913, -0.04319476708769798, -0.15922047197818756, -0.08611928671598434, 0.09146148711442947, -0.0823785588145256, 0.031197132542729378, 0.19518326222896576, -0.6285014748573303, 0.07130897045135498, -0.024817703291773796, -0.02791714482009411, -0.3490469753742218, -0.05809640511870384, 0.02725883387029171, -0.13612224161624908, -0.35470297932624817, 0.03313744440674782, -0.007857673801481724, -0.35192492604255676, 0.4289668798446655, -0.08443146198987961, -0.09283392876386642, 0.07854045182466507, -0.42766138911247253, -0.0010712648509070277, -0.03157883509993553, 0.4051680862903595, -0.7342438697814941, -0.03686779737472534, 0.010743462480604649, -0.041479531675577164, 0.04558798298239708, 0.11192429810762405, -0.11388743668794632, 0.2516636848449707, -0.09634721279144287, 0.061841849237680435, 0.04824152961373329, -0.26089954376220703, 0.2999245226383209, 0.03196292743086815, -0.04559871926903725, -0.2789185345172882, -0.3973729908466339, -0.145455464720726, -0.05934399738907814, -0.36181437969207764, -0.10729094594717026, -0.13390444219112396, 0.01947726495563984, -0.10970424860715866, -0.2156350463628769, -0.020871831104159355, 0.13077805936336517, -0.3726349174976349, -0.34760525822639465, 0.04433083161711693, -0.058385733515024185, 0.047938212752342224, 0.06498519331216812, -0.18575476109981537, 0.014581828378140926, -0.17289210855960846, -0.10098015516996384, 0.14627815783023834, -0.015955179929733276, 0.10518025606870651, 0.5116958022117615, -0.053866270929574966, 0.03535482659935951, -0.03240496292710304, -0.36516284942626953, 0.11303853243589401, 0.01113844569772482, -0.04536190256476402, 0.22455571591854095, 0.102344810962677, 0.018871471285820007, -0.18979518115520477, 0.38780510425567627, -0.025143412873148918, 0.081328384578228, -0.06944788247346878, 0.24788238108158112, 0.1559629589319229, -0.014763905666768551, 0.0841558501124382, -0.4456820785999298, -0.19477294385433197, 0.11611544340848923, -0.3370209038257599, 0.18794351816177368, 0.17515753209590912, -0.0028707568999379873, 0.24379859864711761, -0.25051531195640564, 0.2193567007780075, -0.17603160440921783, 0.4256120026111603, -0.05151030421257019, 0.0892750546336174, 0.050974901765584946, 0.48014262318611145, 0.5490356087684631, 0.10665150731801987, -0.022897420451045036, 0.2999098002910614, 0.6863632798194885, -0.033293187618255615, 0.03604975715279579, 0.1311785727739334, -0.5242699980735779, -0.02578902058303356, -0.07700646668672562, 0.41977372765541077, -0.2955709397792816, 0.1605677455663681, -0.008867024444043636, -0.13596810400485992, -0.04959816858172417, 0.06627517938613892, -0.014296351931989193, -0.3397582769393921, 0.13584280014038086, -0.6097869277000427, 0.5654924511909485, 0.158186137676239, -0.02936442755162716, -0.5495567321777344, 0.2524249255657196, -0.24988587200641632, -0.09559159725904465, -0.034836526960134506, 0.14662505686283112, 0.4718095362186432, -0.15615308284759521, -0.03505825623869896, 0.19662445783615112, -0.019949709996581078, -0.009895860217511654, 0.09791906923055649, -0.01282027829438448, 0.3621985912322998, 0.07125388830900192, -0.22516630589962006, 0.17490102350711823, -0.2391371876001358, 0.1328558772802353, 0.019567983224987984, -0.009528039954602718, 0.6502487063407898, 0.08487396687269211, 0.26531603932380676, 0.26669731736183167, 1.0407804250717163, 0.016555102542042732, 0.045012298971414566, -0.2764224410057068, 0.7654901146888733, 0.3844437301158905, -0.014096544124186039, 0.47893956303596497, 0.3692631721496582, 0.21808969974517822, -0.13214148581027985, -0.1478932946920395, -0.324178010225296, -0.015445097349584103, 0.30203482508659363, -0.07813630998134613, -0.14403052628040314, -0.013416563160717487, 0.01898312382400036, 0.23578880727291107, 0.9535933136940002, -0.2002079337835312, -0.22475861012935638, -0.053280893713235855, -0.1528557389974594, 0.12253154069185257, 0.020084349438548088, -0.1954665184020996, 0.014846398495137691, 0.15061213076114655, 0.09252818673849106, 0.12761522829532623, 0.2043483406305313, -0.06581038981676102, -0.022540288046002388, -0.2236369103193283, 0.5356696844100952, -0.04640892520546913, -0.10297263413667679, -0.49425598978996277, -0.0745764896273613, 0.09242164343595505, 0.007696316111832857, 0.12665881216526031, -0.4086039960384369, 0.10018793493509293, -0.14882276952266693, -0.4109244644641876, -0.32655957341194153, 0.05008500814437866, -0.12479209154844284, 0.26440978050231934, -0.28297021985054016, 0.1246417686343193, -0.08091486245393753, -0.02174546755850315, 0.33185508847236633, 0.08142877370119095, 0.12257158011198044, -0.25399550795555115, -0.06462959200143814, 0.08664704114198685, -0.09836024791002274, -0.05125683546066284, 0.1285129189491272, 0.055650707334280014, -0.12228893488645554, -0.13515137135982513, 0.3410756289958954, 0.15122900903224945, -0.015485494397580624, -0.08824067562818527, -0.2511272728443146, 0.011721118353307247, 0.1517340987920761, -0.011017933487892151, 0.33482882380485535, -0.036952074617147446, 0.009159579873085022, -0.1467761993408203, -0.3062191307544708, 0.07147281616926193, -0.12430881708860397, -0.17849387228488922, 0.09686041623353958, 0.03788774833083153, 0.12203586846590042, -0.032387346029281616, -0.7398347854614258, 0.11901522427797318, 0.08146774023771286, 0.01290686521679163, 0.4004574120044708, -0.0835576131939888, 0.13347016274929047, -0.28406772017478943, 0.10417383164167404, 0.017353294417262077, 0.14472626149654388, -0.09039682894945145, -0.3285541236400604, -0.026278892531991005, 0.16216696798801422, 0.2478623241186142, 0.05758411064743996, -0.022516785189509392, 0.07242833822965622, -0.1336967796087265, -0.2501130998134613, -0.0922861099243164, -0.02135409228503704, -0.03821763023734093, 0.3037814199924469, 0.0179643202573061, -0.1607220321893692, -0.1847061961889267, -0.294651061296463, -0.1302405744791031, -0.04471570625901222, -0.11784351617097855, -0.474152535200119, -0.07398880273103714, -0.034718211740255356, -0.021541910246014595, -0.34979483485221863, 0.07042700052261353, -0.013810918666422367, -0.3367612361907959, -0.6083955764770508, 0.20844008028507233, -0.11801517754793167, 0.049581289291381836, 0.09038157016038895, 0.061268266290426254, -0.15614081919193268, 0.34670570492744446, 0.13141025602817535, 0.24015839397907257, -0.135824516415596, -0.24367696046829224, 0.12642152607440948, -0.5779714584350586, -0.2280421257019043, -0.03899775445461273, 0.6911047101020813, -0.2918243706226349, 0.17551887035369873, -0.43834665417671204, -0.07741009443998337, -0.050506945699453354, 0.13830578327178955, -0.014057314954698086, -0.13357745110988617, 0.08000082522630692, -0.10683061927556992, 0.0739114060997963, 0.19680006802082062, 0.03164529427886009, 0.3173058331012726, -0.09291502088308334, 0.0912419930100441, -0.006999641191214323, 0.21537898480892181, -0.18955446779727936, 0.06401544064283371, 0.2510359585285187, 0.29184260964393616, 0.09237828105688095, 0.05950487032532692, 0.12756143510341644, 0.19439232349395752, -0.38993310928344727, 0.1600957065820694, 0.06262660026550293, -0.40153419971466064, -0.11714068800210953, 0.022232994437217712, -0.0017315720906481147, -0.008635423146188259, -0.5585179924964905, -0.09314101189374924, 0.07258344441652298, 0.09828988462686539, -0.22224022448062897, -0.1972172111272812, 0.08972585946321487, 0.1257486641407013, -0.22694236040115356, -0.17388296127319336, 0.013724193908274174, -0.1823410838842392, -0.6607852578163147, -0.09114284068346024, 0.07840918749570847, 0.22746731340885162, -0.4643583595752716, -0.1492917686700821, 0.0885302945971489, 0.028140487149357796, -0.41887617111206055, 0.05861878767609596, 0.02742713876068592, -0.05174655094742775, -0.15092779695987701, 0.03221786394715309, -0.13360725343227386, -0.1343718320131302, -0.407490998506546, 0.028162213042378426, 0.22407864034175873, 0.0823899507522583, 0.0124370651319623, 0.07389294356107712, 0.022992195561528206, 0.06078040972352028, -0.6243638396263123, 0.03569262847304344, 0.09199195355176926, -0.01132661197334528, 0.359801322221756, 0.08631777763366699, 0.19575391709804535, 0.08974630385637283, -0.5855578780174255, -0.22354362905025482, -0.015898512676358223, -0.25421425700187683, -0.9630823135375977, 0.10407334566116333, 0.07487291842699051, 0.17164665460586548, 0.3432020843029022, 0.11916304379701614, -0.10812155157327652, 0.015142702497541904, 0.20858724415302277, -0.029697207733988762, -0.007648364175111055, -0.07324779778718948, -0.24462701380252838, -0.100784532725811, -0.006958514917641878, -0.2924652397632599, -0.11362039297819138, -0.15180517733097076, 0.12298882752656937, 0.19690346717834473, 0.16465598344802856, -0.11995471268892288, -0.0649266168475151, -0.2727343738079071, -0.3105461895465851, 0.2344977706670761, 0.21507428586483002, -0.24006198346614838, 0.2537684142589569, 0.1358008235692978, 0.021433087065815926, -0.43655160069465637, -0.4779495894908905, -0.06789427250623703, 0.025717345997691154, -0.3080766499042511, -0.10999828577041626, 0.0907515212893486, -0.04672926291823387, -0.4809142053127289, 0.2155866026878357, -0.17917585372924805, 0.02496039681136608, -0.15178465843200684, 0.1451033502817154, -0.21856452524662018, -0.0037851708475500345, -0.0754089280962944, -0.07849424332380295, -0.1793612241744995, -0.01973670907318592, -0.34381425380706787, -0.16703836619853973, 0.061532143503427505, 0.1111595556139946, 0.002049644710496068, -0.46608665585517883, -0.048739586025476456, -0.0032108400482684374, 0.0018055177060887218, -0.30691421031951904, -0.04698833450675011, -0.11588739603757858, -0.11562419682741165, -0.7634125351905823, 0.0404626689851284, -0.005318731535226107, 0.2022993415594101, 0.17519532144069672, -0.24221181869506836, 0.14576993882656097, 0.20698626339435577, -0.37461021542549133, 0.091446153819561, -0.1938430517911911, -0.13508707284927368, 0.37802767753601074, -0.12126005440950394, 0.13651706278324127, 0.2681104242801666, 0.1768684834241867, 0.0028872147668153048, -0.20722343027591705, 0.6180672645568848, -0.33201757073402405, 0.5652806162834167, -0.3601808249950409, -0.8251585364341736, -0.47795093059539795, -0.4361207187175751, 0.05177544429898262, 0.2625304162502289, -0.02449384145438671, 0.1731664091348648, -0.025526391342282295, 0.24980956315994263, -0.0020451692398637533, -0.13173209130764008, 0.05805736780166626, 0.30712181329727173, -0.0205280352383852, 0.05008217692375183, 0.07883047312498093, -0.022721128538250923, 0.005795839708298445, -0.0519571490585804, -0.049727290868759155, -0.1947336047887802, -0.12058674544095993, 0.19926907122135162, -0.15350478887557983, 0.4608656167984009, -0.0037869883235543966, 0.1708456128835678, -0.12760673463344574, -0.1212737187743187, 0.12824343144893646, 0.003444105153903365, -0.06607212871313095, -0.04239089787006378, 0.043928083032369614, 0.048313792794942856, 0.07865870743989944, 0.0966944769024849, -0.22414851188659668, 0.16039015352725983, 0.3014579117298126, 0.508265495300293, 0.13410256803035736, -0.03462687134742737, -0.008582992479205132, 0.10145381093025208, 0.06150895729660988, -0.06883174180984497, -0.2953190803527832, -0.3608703315258026, 0.016310645267367363, -0.19017110764980316, -0.09635890275239944, -0.45780423283576965, -0.03778267279267311, 0.048232968896627426, -0.07671404629945755, -0.6578202843666077, 0.06292391568422318, 0.031223980709910393, -0.40607789158821106, 0.01845450885593891, -0.03969699516892433, 0.009322800673544407, 0.12912210822105408, 0.3702510595321655, -0.12800049781799316, -0.05378969386219978, 0.029256848618388176, -0.14284931123256683, -0.2075224071741104, 0.22298026084899902, 0.29569175839424133, 0.33483001589775085, 0.12645719945430756, -0.20879842340946198, -0.03129717335104942, -0.47110602259635925, 0.04562172666192055, 0.0574602447450161, -0.034066349267959595, 0.5407885909080505, -0.1060020849108696, -0.07678926736116409, -0.20553801953792572, 0.05722158029675484, 0.13972260057926178, -0.011964217759668827, 0.04077698662877083, -0.35879507660865784, 0.07035035640001297, -0.2246844619512558, -0.0016537572955712676, 0.13685442507266998, 